-3.0250397,-5.4955764,-3.7552922,-2.4619734,-2.748869,-0.29648435,2.1181607,-0.44741434,-7.0034184,-5.1683226,1.1770319,-2.5989132,-4.3482823,-4.2043386,-4.867279,-2.334659,-1.9612784,-2.6931787,-3.0115724,-2.459441,-3.0828414,-4.392273,-1.1945537,-2.2616906,-3.3282533,-0.62247413,-0.9450499,-1.0939267,1.6116233,-3.5181658,-2.9850256,-3.5293312,-2.394594,-1.6812079,-4.475628,-3.2806854,-5.6551695,-4.437654,-5.070717,1.3027774,-2.579349,-2.265483,-0.25724733,-0.7977378,-1.743185,-3.330333,-2.4391475,-1.3478006,0.2491155,-4.9643216,-5.4499855,-2.1867418,-2.67668,1.20349,-0.76803166,-3.1980164,-2.6279492,-2.588947,-1.7788446,-2.1967986,0.98675525,-0.62150335,-2.92372,-3.5012226,1.2932938,1.8063605,1.7005801,0.0505869,-0.8964354,0.6709901,1.4482644,1.6272047,1.0932688,3.8609746,5.3560534,1.499681,5.2965727,-1.3938749,0.093045585,4.1818905,1.4262763,-4.72115,-3.568736,-4.0256977,-3.333526,-2.804006,0.686402,-2.8760908,-0.3998643,-1.6076112,-3.4307272,-3.9240081,-0.23784518,0.97230726,-3.2253418,-0.47783297,-0.259013,1.0000143,-5.4651675,-3.4953184,-1.5415765,-1.6280766,-2.0455413,-3.094867,-1.8276784,-5.234961,-3.4367685,-1.0345055,-1.911703,-1.7294168,-3.971116,-3.5837169,2.6644857,-3.4850984,-0.48325568,-3.0913434,-4.4366884,-4.8131,-3.1409702,-2.883438,-2.0123727,0.40380672,0.093269855,-1.784022,-0.33986664,-3.103126,-4.6077905,0.025525272,-1.7337005,-0.52110696,-2.087907,-1.5453703,-2.3439503,-0.31597555,-2.0065968,-1.9093695,-0.73241305,-4.1809406,-5.567395,0.10674286,-3.946724,-1.458465,-3.180457,0.46719348,-5.048981,-3.9001975,-3.2770221,-1.3198714,-2.0659974,-1.7973039,-4.4169087,-3.5663648,-1.1639787,0.11781609,-1.3729074,-0.6679441,-0.8403727,-3.0198002,-2.3331945,-0.9005505,-0.71721053,0.28289792,-1.9278476,-0.2751757,-0.19943035,-0.2090886,-0.16767368,-0.15304023,-0.1271348,0.25657642,0.6703934,-0.10493702,-2.742395,-1.3243213,-2.5667412,-0.51904297,1.8342781,-0.8221891,0.13453758,-2.5501335,1.0774547,-0.91888267,0.08959597,-0.52273273,1.023534,-1.0716915,0.862068,-0.9147227,-1.4676554,2.0479972,1.8019801,2.2768135,2.145167,-1.1930888,-3.1791668,-1.4178343,-0.53851646,-1.0693343,-0.92676145,-0.9410327,-0.28967053,-0.75140196,-2.2982874,-0.43092883,-0.322319,-1.3051444,-4.222651,-1.9912812,-0.72620726,-0.2729701,-1.1918659,-3.6817234,-2.4112146,-2.3922553,-3.2034369,0.2475926,-2.2739573,-3.663948,-3.5825531,-4.966437,-2.5873358,-0.9117399,-1.2026886,-1.1257372,-1.7189188,-1.782813,-1.199369,-1.4328462,-3.3266435,-1.8571409,0.3712496,-2.4928298,-2.2829835,-1.1118035,1.6587753,-2.221989,-2.2707186,-1.8915778,-2.8306434,-0.20708686,-0.7015448,-0.6842504,-0.9736517,-3.185353,-3.5810037,-2.0995967,-3.0329225,-1.2418479,-3.1237419,0.3106131,-0.24005175,-0.4588174,-1.4759122,1.1733654,-2.7051203,-0.10526228,-3.8473601,-2.2315702,-2.2051144,-2.7876475,-0.6225699,-1.7870293,-1.9708326,-0.36265886,-2.3236492,-2.5215209,-2.8603704,-3.5680778,-5.8440137,-5.037271,-2.4164536,-1.8897802,-2.6038623,-1.9008187,-0.6039379,-2.791802,-4.012662,-2.2248,-0.7031801,-3.2657466,0.12296671,-2.234523,-1.0786752,-0.92782366,0.925164,-2.1966772,-0.8357778,-2.9271166,0.46187413,-0.81620836,-2.6631749,-1.7428659,-2.846558,-2.2147515,1.9407375,-1.8583229,-2.0195665,-0.48638472,-1.9352804,-1.5975081,0.28513038,2.1461558,-1.5223452,3.151031,4.9117928,0.35561216,-0.2609679,2.6455114,0.44925928,-1.9990063,-3.7230232,3.9557955,-2.5084271,0.13474289,2.0150487,1.3234725,1.3999575,-3.9349167,-2.0479395,-0.21223797,-0.51833075,-1.6273463,-4.224781,-3.027138,-1.5310278,-3.020849,-2.187293,-1.7519736,-2.3131945,-1.3194553,-2.870032,-1.3333335,0.29210573,-1.3059326,-0.89702743,-1.024411,-1.8431959,-1.8953698,-1.8353871,-2.4319584,-2.4899101,-3.2264085,-2.6090858,-2.3690348,-4.7432914,-7.9395337,0.609756,-2.8815067,-2.7909532,-4.8792176,-4.3741794,0.48770544,-1.9916799,0.35545993,2.3447733,1.4709651,-0.21590221,0.38166797,-1.54726,1.7937855,0.5093838,-1.6935244,0.8971486,0.44677812,-2.633979,1.5106941,-0.4024402,-1.9854274,-0.63530445,0.63867694,0.57565004,-0.569454,0.91649735,-1.0918989,1.4219415,1.2700355,-0.92814267,0.20754863,-2.4047062,1.0684928,0.45953512,-2.067428,-0.31522244,0.63549674,-0.8200283,-1.4098849,0.72997683,-1.5672846,-3.3422892,-2.9509869,-3.1230493,-2.806799,-1.5352157,-1.9017256,-5.8470416,-3.5470455,-0.12026264,-5.78004,-4.7078533,2.6082642,-0.6611351,-0.12099212,-0.14181545,0.6311761,-1.9242862,-1.3256156,-2.4644175,-1.7362502,0.2541121,-1.1553832,5.905432,-2.8173823,5.9531927,3.02189,3.6638963,3.423699,1.9282427,3.0986094,-2.3214772,4.9919844,4.768396,-0.72709334,1.2166178,2.730338,5.566624,2.9787893,-0.4382885,3.7209792,-1.8626199,3.252355,-0.5980055,1.7309471,1.3006212,3.9869921,-0.35697305,3.8749616,0.20002544,0.82443637,-0.14476663,5.342253,-3.820241,-0.26811796,0.3240541,2.9298103,3.5966752,2.7902439,0.2092889,8.104973,2.4187598,0.6368478,-0.8401078,-1.1011112,2.3309345,-2.0545733,-0.40523636,1.4531496,0.7153457,3.7815394,-2.2176914,-1.5611932,3.0027986,-2.681968,-1.0360177,0.905496,3.4614258,4.120467,-1.3230097,-2.2664351,0.20377737,2.268897,0.9753664,3.7261877,-1.8810005,-0.21277487,2.7741249,-2.3943691,2.2444005,-3.053579,3.634551,5.5482354,-1.4001844,0.13026989,6.7343464,5.857196,-2.9962935,0.75757515,4.413788,-1.3488363,4.770217,2.6680427,2.2540338,-0.70349336,4.715946,1.9615151,-0.45893583,7.027217,-0.6236193,0.0887373,-1.530286,1.0006785,5.800431,-1.2742733,-3.3538687,0.29838184,0.47074333,1.3205836,0.5302908,-1.347722,5.280935,6.523453,-1.763777,-3.0208607,0.47805893,5.961744,3.150346,-0.031740934,3.9410608,3.2964518,1.2287252,-0.26508453,2.148329,2.3737087,1.1511297,2.6978471,0.90319145,-2.1100497,-2.9816265,5.465621,3.9571164,3.0947492,1.6939311,5.4208727,3.8105106,4.697844,1.5152054,2.4681525,0.8888397,-1.8006482,2.2678242,-0.5891209,3.162921,-0.5705515,-0.8918422,2.9551477,2.6825864,1.1569989,2.640178,0.46783328,-3.698956,-0.89365244,6.011216,1.3547907,3.7939038,3.839224,1.1697873,-2.8563745,-5.6055937,2.3706234,-0.7916474,2.7925916,7.4802327,-2.090938,2.080506,-4.2608967,2.757176,0.63905215,-0.33817977,0.15448356,1.4701028,-0.31015396,-3.9910636,2.7488368,0.6309866,-0.3515157,2.1543224,3.7489438,3.442355,-0.5221391,5.8833942,-1.7079332,-0.5613113,-2.7166047,-2.3964634,2.2878704,3.2250657,2.3979335,2.7706056,-1.1485348,4.645977,2.9783595,5.5712986,2.531479,4.725063,5.977372,3.8409252,3.3089497,0.748687,4.7337904,0.07604161,-0.69026375,0.57098746,7.9983425,2.2644207,3.8529732,-0.7545241,0.6749898,4.6681256,5.3881235,-1.4175448,3.3849006,-0.9503306,5.3768916,1.9819194,3.3555512,2.7366886,-1.8547611,-1.0939244,0.68034077,3.5812814,-0.26365507,5.3201814,4.3666353,2.99561,1.6279216,3.0234854,1.1191006,0.19771957,5.780844,-1.4978967,-0.45790327,2.626441,-1.6531546,3.840263,4.1563926,7.3210034,0.09386402,5.842118,6.220375,-1.5290425,1.3370072,0.6478587,0.64858043,1.3005176,-0.15204704,-1.1469793,6.178704,-3.373322,1.287551,3.1316946,-1.0079389,-3.4186914,6.7675147,0.16846935,-2.8413908,1.5981193,-0.41005278,2.696892,-1.0376911,0.25010294,-2.529158,-1.3584867,-1.8363023,-1.9771093,5.2294517,-2.0801487,2.2013226,-2.6303349,-3.9149013,3.1785069,-1.5858998,0.39213642,-2.4234066,-0.8509575,2.8695376,5.9473786,8.437404,-1.2236507,4.747839,5.112076,0.6964319,1.4807266,2.6001744,5.5305653,-3.1860538,3.5100713,4.8419065,1.4558127,3.2932413,-4.805867,4.260949,-2.7865195,-0.85951984,1.627115,5.0050383,-0.9464785,0.32425952,4.724105,2.1632533,1.6362615,-2.600239,2.1972868,3.8972597,0.5392673,3.2807403,5.4531007,1.4055458,0.6074593,0.32697153,0.6845808,-0.5093203,2.5988526,2.0026777,3.6389792,-0.58282256,2.6578646,6.1767445,-1.8499765,-1.899011,-0.99179196,-0.80428225,0.2810743,1.3280096,0.48484224,0.7621286,-1.4841121,1.0142763,0.47568554,0.44690263,-2.036201,3.9762866,5.1411624,2.4602642,0.84160495,2.3598664,4.2261915,-1.6014664,-1.3385446,1.0239112,0.5742209,-0.9543392,5.1207643,5.257784,1.0988504,4.5540566,2.075128,-0.19523628,2.2455516,4.099636,3.4966536,6.2391663,2.5948758,2.7131145,0.8379447,4.594983,-0.4448278,5.7334714,-2.2854748,-3.7580593,0.43159723,1.5763158,2.0485935,1.2730114,4.393789,1.9165263,2.8868535,3.7119873,5.9569387,2.5391104,4.176504,0.44041702,6.9804564,1.3930465,0.78687537,7.0771074,-0.12000604,0.87579995,-3.2130792,0.043843865,0.91836333,9.144311,-3.4796617,0.582669,1.1343668,2.4724824,3.3150682,1.0040109,1.3000896,1.8841571,-2.112221,0.73713815,0.6048739,6.8588037,4.751713,3.8856194,2.7032778,0.9608126,0.70850474,-2.3054028,1.6985829,5.363542,-1.3292453,-2.3676796,2.5741565,0.06169772,0.25223768,1.7976701,3.3381944,-1.3590409,1.7491839,0.85849965,-0.8165394,3.6249962,5.0668297,2.2230325,2.2624607,0.4630276,-0.25096357,0.33258212,-1.3580722,4.776646,-2.303308,-2.9814174,0.014742136,-0.89108366,5.8674355,-1.3069781,0.21338475,5.504485,2.9393249,2.926196,-1.4991214,6.4698772,4.232008,-2.38173,1.6030188,-1.5698428,1.4286746,4.4267907,3.249714,4.0852904,-1.9152536,1.0612653,2.4862244,1.7910553,7.2080154,5.884103,2.265404,7.361767,-1.5385182,5.007964,1.0273163,-0.91556484,2.1298685,3.6600394,2.3048012,-1.0617188,1.4326537,-0.2837714,0.6360777,-3.574058,3.4340694,3.1676612,2.4337835,-0.37262493,-2.3363523,-0.97875047,0.47931102,1.8934232,-2.7327468,3.5559607,-2.0131357,4.546201,1.3644611,2.5863805,-3.1893408,-1.9844723,3.3501751,-1.2753758,3.2242627,2.52488,2.3149438,0.39728087,-0.04016781,4.388588,1.1214874,-1.26498,1.3057965,-2.0178761,-1.6668267,-4.2772245,-3.1131518,-0.30517656,3.230692,3.1083212,3.3249578,-0.0100418925,1.7374456,2.7336974,2.5022917,2.925382,1.6871991,-1.4375834,3.581483,7.0615106,2.938909,0.9255022,1.115161,-0.7637689,1.3020753,-2.792059,2.8569953,-3.4425194,2.0936658,-1.1758115,-0.32342494,0.028399467,0.89587766,4.799617,1.9493887,2.355927,4.325694,3.4926012,4.513939,1.0622691,1.7330132,-2.1124964,0.14680496,-0.51012117,-3.307534,-1.5928522,-0.40902805,1.4732884,-0.7297783,1.5513052,-3.2454574,-3.9496818,-0.36511385,0.40041274,1.5725749,-0.5988606,-3.5303698,-2.4959006,-3.8393168,-2.6661427,-0.9532207,-1.3143924,-3.109187,-2.1379318,-2.5256171,2.281352,-1.4932828,1.4229836,0.6087154,-3.746196,-1.5166836,0.9390913,0.08982688,0.16270092,-2.8440309,-0.7415577,-2.0266845,0.71071905,-1.1829102,-0.9161448,-1.3718598,0.5648439,-1.8382497,3.4485145,0.8509578,1.089492,0.84788096,-0.33174676,-0.005643964,-0.9876918,-3.2569737,-3.3063293,0.54877555,-2.5147812,1.7483652,1.7134982,-2.9925704,-2.2556021,-1.4097605,-3.7017844,-1.2314707,-1.1405714,-2.6471612,-3.8481724,0.7709026,-2.6345453,-1.230469,-2.690607,-2.2497878,-3.3832085,-3.5930235,-1.6237139,0.14323759,-1.2871695,-0.7847868,1.0542655,1.9033887