-3.0098355,-4.4000163,-3.5259645,-1.7887895,-1.9404328,-0.47015572,2.1049895,2.2843075,-3.8649673,-3.4778044,-2.2622855,-5.227798,-4.4464226,-3.43448,-4.2964697,-2.7115102,-3.8076134,-3.2661018,-2.8292742,-2.0007648,-1.9033012,-4.9859776,-1.9432073,-2.6220517,-2.6759763,0.52343947,-1.5524769,-2.7116363,0.7741059,-2.4603782,-4.470075,-2.0378067,-1.5486424,-3.1342936,-2.48066,-3.4332979,-6.1193666,-3.8435225,-3.7127593,-2.1648555,-3.8511813,-2.9954982,-1.9466671,-3.6602437,-3.248683,-0.989535,-2.4086974,-2.4071383,-2.0799475,-5.7843356,-3.4293425,-1.6486721,-3.3247976,0.9351361,1.5720451,-0.9317451,-1.0174369,-1.7540343,0.754724,0.2520076,1.0440161,1.2565681,-1.6655366,-2.6295931,-0.87924755,1.4164312,2.8671293,0.11823472,-0.6646309,-0.665346,2.5938458,-0.40148872,-0.1192835,3.7261198,2.1398835,0.696891,1.933675,0.19410723,0.73896,3.0420368,3.0907876,-6.9789233,-5.2561235,-3.7212155,-5.12204,-5.05827,1.3149974,-3.7565064,2.42008,-0.8929853,-0.22218078,-4.119527,-2.4836314,-3.0415266,-2.6658783,-3.7679615,-4.583776,-0.49776775,-3.6566303,-5.4670568,-1.9742749,-3.1514978,-1.6597774,-4.466654,-3.0406792,-4.700852,-2.896202,-2.247138,-2.0822043,-3.2934144,-4.153492,-1.6035295,4.1655827,-1.0283577,-0.40782058,-2.28726,-1.9979349,-4.2683864,0.3328675,2.1928215,-1.2449851,-1.0559229,0.80025876,0.000779137,-0.14429706,-1.1693581,-0.92015624,-0.027728736,-1.5367315,-3.3957214,-3.8422852,-1.4404404,-3.3366265,-0.5930311,-3.665087,-3.2951167,-1.8746231,-5.6820526,-6.007323,-1.93781,-4.917033,-4.271788,-5.099988,-4.0813184,-6.713277,-2.5318685,-4.967989,-3.7090294,-2.6103332,-1.6745721,-1.9407101,-5.0613446,-1.7213739,-2.057112,0.884145,0.27517676,-0.5103072,-2.8107533,-1.7305046,-1.9871601,-2.811495,-0.32341406,-1.4580433,-3.5133915,-0.9329467,-1.4855735,-0.6329294,-2.3584461,-3.110536,-1.6825511,-1.5744512,-1.9671847,-3.6662412,-3.3809195,-2.4440696,-1.0042251,-1.1246682,-2.481733,-3.4153628,-1.9392297,-1.5674418,-3.2736356,-3.2549636,-3.065024,-1.554411,-1.5130355,0.3089933,-2.2892778,-2.3622818,-1.7103924,-1.5933783,1.7454149,-0.32990137,-1.444534,-2.7965674,-3.4327545,-1.5976249,-0.4887777,-2.0775425,-0.6894599,-0.63352627,-1.436358,-0.06196156,0.307526,-0.6869886,-0.4802431,-5.715922,-5.8069725,-0.3423304,-1.7290552,-2.8150706,-4.3257093,-3.4707692,-3.2985094,-3.7526848,-1.2006764,-2.9858282,-1.4089305,-3.3411117,-5.8929415,-1.9117261,-4.470029,-2.9625947,-1.4594618,-0.8506553,-1.2019105,-1.5562013,-1.0937462,-2.5571153,-2.7218552,0.5623427,-1.786582,-1.2753468,-0.5821913,-0.58501494,-2.1330984,-0.7458532,-1.9744062,-2.9465995,-1.9029471,-0.8628989,-3.8596942,-2.9109216,-1.1062471,-3.6577868,-2.0283356,-1.727629,-1.275717,-2.0309703,-0.86845315,0.797915,0.076553255,0.69581074,-2.101595,-4.830539,-1.413461,-5.1903033,-1.4548471,0.69858027,0.32856366,0.075582504,-1.4555868,-0.91016674,-3.7105026,-3.3034773,-3.9475775,-2.228886,-2.9634163,-4.8526635,-5.691714,-3.41191,-2.4958818,-4.479481,-3.0681705,-2.2336662,-5.6507564,-5.160614,-5.302654,-4.4869475,-5.554847,-1.0984657,-4.1576495,-1.8073744,-1.3324362,1.4129447,-2.8864167,-0.6912193,-3.2270432,-0.7655935,-3.2401078,-3.57993,-3.5366108,-3.1389346,-2.202425,-2.3742077,-3.765829,-2.1506233,-0.788168,-2.2147038,-4.9469147,-3.4147131,-1.0934823,-2.4641206,1.5347085,3.1814792,-0.54044044,-1.1146288,1.7885704,-2.1241817,-1.2607869,-1.517827,1.5057442,-3.377863,-2.008459,0.42908788,2.361495,-0.39666823,-1.9276764,-1.2819557,0.21268961,0.6652926,-1.200676,-3.4698563,-3.0806308,-1.2107508,-1.0354558,-2.5550556,-1.9492692,-1.3041067,-0.8388807,-0.26603746,-1.0913894,-1.9155568,1.0439223,-0.29066205,-3.2727008,-3.4673824,-4.7186646,-3.6474364,-0.38712883,-2.3493803,-3.0017426,-3.1667814,-4.3203983,-4.9016223,-6.2981434,0.5915991,-2.0382047,-2.288251,-2.7668285,-5.1401725,-0.845539,-4.569316,-1.7575442,-1.427882,-0.871035,-3.1178756,-2.3392806,-4.381465,0.24339381,-1.4679228,-5.329016,-0.24361217,-2.1093922,-0.63567495,0.33901402,0.8054208,-1.3202268,0.36524004,0.9027651,-0.49009275,-3.0221317,-2.6603854,-4.0806503,-0.15097088,-0.34495008,-1.6221257,-1.1123013,-2.4375155,0.61250305,1.3904504,-2.4788516,0.7175033,0.6562922,-2.4658098,-2.3318596,0.13302755,-1.0674464,-5.211993,-1.694788,-3.3024802,-2.0294113,-0.8328823,-2.441547,-3.9223833,-4.3782535,-3.8407903,-2.8631163,-3.9441462,6.1114182,0.23433769,0.11260825,0.9721668,0.6146972,-0.894809,0.2542323,0.54422283,1.0349374,-0.4261878,-2.244297,7.390318,-2.3777142,3.8038397,4.7784696,0.3017056,1.5134898,4.684671,-0.36182773,0.5797313,5.2924337,4.295342,-2.427963,3.794773,-0.066220015,4.1140428,5.0904174,0.22431764,2.9341404,0.09884565,2.2059805,1.3798864,1.467188,-1.3145565,0.77575594,1.7295717,2.2013717,2.437477,0.5434438,-0.36891544,2.4965956,-0.72137386,-0.2205261,1.607615,3.0025547,4.880819,3.651085,0.9720571,6.7137,1.8247306,2.7587671,-2.1473966,0.13567093,3.708399,-0.2326693,-0.54552174,2.8025422,1.0779651,1.1786548,-0.21288931,2.4487166,1.2066493,-1.0617166,-0.26040024,3.315874,2.3770537,3.3350706,-2.4866426,-0.57913214,0.16680153,2.8875914,0.73836845,5.129257,0.34857303,-0.21047753,4.5950875,-2.0050492,1.1498338,-4.548716,1.5892657,6.28863,-1.0842146,3.4773784,7.192878,4.17287,-1.8378894,-0.39709914,2.812628,-3.9849613,4.21744,3.1135356,4.3747454,0.84943527,0.94920754,3.754599,-0.3457243,3.843543,-0.18098992,1.8035321,1.4144794,3.1848092,4.8086433,-2.0322669,-0.9515203,0.41975662,0.19192174,3.4800696,1.105064,4.2542915,4.0658417,5.9762006,1.8013897,-2.5367002,-1.9213674,5.064138,2.9747736,-0.8457681,3.3566644,-0.19626167,1.8797736,1.3469555,3.9638467,1.0677743,2.6268191,2.7767825,1.1586689,-0.6516261,-3.3919759,3.2223952,4.0854273,3.2115726,-0.37621891,2.7817461,-0.2810213,3.3650188,3.1192787,4.9784164,0.4653319,-2.5767844,1.6680857,0.13701254,5.2715316,-0.8200016,-1.0112329,6.288426,1.3458984,1.3226922,3.7599447,0.45463026,-1.9136976,-1.9262029,10.120871,2.9157476,2.4371943,3.0187109,2.2153623,-0.5484388,-2.039366,2.5305796,0.80220574,1.7600608,3.0887532,1.104264,0.81993055,-1.5318885,4.0888577,-2.1744366,-0.04658878,-0.016190335,0.6182864,3.2638788,-3.3228672,2.1906302,2.6974614,1.1242495,0.19846074,3.4952726,0.043420106,-1.0894812,0.4690346,1.1283271,-1.3815274,0.23841506,1.6450944,2.0058026,1.6899647,1.9875815,2.8490868,-0.58030695,2.1029253,1.3192832,4.4565763,0.25001267,5.4746156,5.77822,2.5382242,1.3064803,-1.6574934,1.1423382,0.2369099,0.4714074,2.465506,7.037852,0.6474493,0.92860836,-2.024693,-0.30334133,6.277711,3.3492758,-1.7597262,4.5240965,0.19342476,5.017419,2.7173011,1.8849303,3.8888202,-0.08725813,0.8828722,2.5638292,3.8345628,1.4034574,5.7122507,8.1580715,0.9104328,4.095722,3.7400417,1.169425,-0.06829882,6.484533,-1.009778,0.43284428,2.7674687,-1.9368355,2.7054982,4.558748,4.7425365,-2.267347,3.195194,4.750302,4.9802337,0.87454873,0.021028936,2.9947712,0.11279832,0.3416172,4.057248,9.476123,-1.7926037,4.4698863,2.2736788,1.9175014,-4.924439,4.6632047,0.91909426,-1.0407264,0.8086626,-1.4434997,1.7854667,-2.078609,1.1050951,0.19430724,-1.1474199,-2.1865294,-0.79961663,4.4127545,0.028935194,3.470531,-0.51391584,-1.5387766,2.0766008,0.8701705,-1.0436487,0.07394618,1.0989968,-0.1215879,7.3081813,5.773189,-0.89456356,2.130248,1.6018682,0.99935675,3.9736733,1.006552,7.229393,0.42593765,-0.49128425,4.328425,-1.981666,4.848921,-1.9517983,1.1815765,-3.4777,-1.1955445,0.36839885,6.599643,-0.49858436,-0.5166837,5.289255,3.5912952,0.15755627,-1.8153732,5.3173304,4.7083697,2.5939,0.43996188,2.4817138,3.944262,-1.3652451,-0.7092253,2.1584272,-0.12455019,3.706183,3.186975,4.019293,-0.67605543,0.7711971,8.241577,-2.3830266,0.41116035,-1.6099135,-0.3436315,2.5138474,1.6383386,2.6520095,2.3219478,1.1391411,0.973758,0.5838545,-1.9593083,-1.1150309,6.8772783,6.0768204,0.9779203,0.92016184,2.964708,4.7632084,-0.99636185,0.8547243,0.7457302,1.0336328,0.349971,1.4413464,2.4572504,0.9408004,4.787544,1.3807003,0.107316196,4.4664664,4.718194,2.5431824,4.683203,2.7556067,2.3702703,-1.1355727,1.459702,1.3401608,4.6901407,-1.127286,-1.4580688,0.22635937,1.2157156,4.2903395,3.9059129,3.1531591,3.6937842,3.8041065,2.048763,1.5460696,1.5656118,7.327792,0.6756054,5.8534737,1.4058969,3.8831728,7.811409,3.3481297,0.005137801,-1.2583784,-0.44225717,-2.0604355,5.0227866,0.011034787,1.678848,0.68956316,2.831135,1.1740125,2.2610931,-2.4819417,1.4351767,0.9146784,2.275572,1.3343945,4.5966363,5.8252096,3.5572755,1.3927649,1.0571032,2.2252746,0.28463244,-0.16743505,3.1444,0.73564005,-3.2094905,-1.1147109,-0.8109935,0.21139634,2.3819509,3.8235395,-0.7845502,2.519307,-0.596622,1.2153596,1.3784521,5.287121,4.9782505,4.3103266,-2.364164,-0.3780719,1.9298556,-2.8515742,2.984513,-0.3111543,-0.985373,-1.9752374,-1.2459106,5.3387604,0.9918413,-0.24958849,4.0570807,2.9288716,2.6396575,-1.621892,2.4400015,2.455305,-1.7507895,0.8655462,-0.77693295,1.7870136,3.1633759,2.930098,1.6539936,-1.2406666,1.6231737,2.2876809,-0.23056862,2.9293892,6.2661533,2.8650327,5.301341,-1.0800635,4.4689937,1.6885903,-0.34467298,1.8912281,0.70045686,-0.51759857,-0.32721642,2.7106314,-3.6596534,-0.7457588,-0.7468244,6.03826,3.7302794,1.0429822,0.51081145,0.96016526,-3.080277,1.7006927,0.8566631,-1.2561293,3.864085,-0.27556863,2.6404264,-0.8407069,3.4860976,-0.09320049,-1.6173818,1.9550987,0.874744,0.25116992,2.746182,4.5454845,3.0016358,-0.09017968,3.8560445,0.74380165,-0.5897281,1.0440749,1.5027226,-1.3244985,-1.9482431,-4.3929195,1.4484761,2.369877,4.650144,3.4302883,-0.39160803,-0.6275437,4.528448,3.645482,3.61659,2.4136558,0.91831994,2.7828076,4.1427884,2.7931666,-0.7169061,0.82841825,-0.10047388,4.251611,-1.9609673,2.982519,1.4386897,2.8418493,0.06719062,-0.21793735,-0.31758094,0.6991952,5.2140627,6.212719,3.7944982,8.399383,7.514575,7.639112,3.9177523,3.0479476,-0.28317475,0.42313892,-1.9096845,-4.0508432,0.68894565,1.9568688,1.1575365,2.4713554,3.8554869,0.042873263,-1.1027459,0.330225,0.5914642,1.629465,1.6703476,-1.4887803,-1.7859933,-2.643929,-1.0317972,1.0228554,-0.02419424,-0.3996144,-3.219487,-2.4904747,3.965389,-0.030157685,2.2807188,2.4758677,-2.5186048,1.7016414,4.2687416,-0.63700527,2.7448905,-1.7846435,-1.2019933,0.31222486,1.3897333,2.80584,0.031988874,0.6516298,0.25496316,1.7396185,4.748346,4.3001842,3.9105074,1.4040357,2.2474878,4.1686144,-0.8867875,-3.0999606,-2.996397,0.055702865,-2.7730012,2.0351043,1.6124275,-1.6902733,-0.29758883,-0.05804366,-1.50054,0.03812179,1.2156099,-3.1345794,-4.371915,0.45826215,-1.0117785,-0.39738297,-4.0871863,-2.62948,-4.6894627,-4.6028566,-2.9431577,-1.6223474,-1.5481272,-2.428997,0.1415739,4.4978733