-3.1002827,-3.8589098,-2.8553271,-0.7736507,-4.4987698,-1.5572147,-0.80868673,-1.5547493,-5.4295187,-1.5964458,3.104679,-1.5187082,-2.874547,-4.372933,-4.328312,-2.6694245,-4.312964,-3.5107017,-2.9728484,-3.475516,-1.6428688,-4.849884,-1.3925369,-2.341571,-2.3565578,-0.29105905,-2.1080375,-2.7750392,-1.7626259,-2.5527053,-5.5968003,-4.81478,-2.1086085,-2.6802006,-3.7493815,-3.7267663,-5.5727882,-1.9351103,-3.268819,-0.40593803,-5.7784915,-4.2853484,-2.391406,-5.4479203,-6.3584847,-6.1777577,-0.12907608,-3.177205,-4.9674306,-6.534181,-6.3514266,-3.2316103,-3.8280177,-0.84255433,-1.2501297,-3.050209,-5.1221914,-1.9364026,-2.0706973,-2.1003773,-1.8672684,-1.4057435,-3.2415586,-2.0131984,-1.8352907,-0.42091286,-1.9372472,-0.01757863,0.14691699,-0.07265192,-1.5223334,-1.5562234,-0.9911298,3.7855747,2.7215767,1.6858811,3.5772243,-3.4325671,-0.37594283,2.5530427,0.8981583,-6.570631,-2.3237271,-4.6404066,-2.7473083,-2.9649887,-1.0674471,-3.072529,-0.21190305,-2.6241536,-2.7322748,-4.369666,-0.465413,-2.421575,-4.684826,-1.7724115,-0.627386,-2.6979632,-3.1824274,-5.064103,-0.54284406,-2.7845168,-1.6654437,-3.0244093,-3.6286976,-4.16952,-5.465999,-3.5652542,-0.49527973,-2.8079765,-4.706701,-2.564989,3.3951168,-3.8731298,-2.5912004,-3.0457354,-0.6753097,-2.8962123,-3.6207404,-1.6691822,-2.8114233,-0.5407002,1.0501777,-1.7445673,-2.2988539,-1.137086,-6.1903024,1.4609597,-1.0492709,-2.1686819,-2.8659139,-1.1246637,-1.742214,-0.058607996,-1.7846493,-0.66705024,-0.7083062,-6.765535,-4.8311462,1.0492876,-3.5082717,-2.9084153,-3.358102,-1.86461,-5.0180635,-3.4635909,-5.242819,-2.3419244,-3.8674827,-1.2330292,-2.016238,-4.72037,-0.99939644,-0.945045,-1.2866944,0.737149,-0.6778441,-1.3140805,-0.684691,-1.1121079,-2.3098385,0.99881995,-1.8958309,1.0028112,-1.9307077,-1.4763182,-1.7919633,0.14006943,0.62472665,-1.8459282,4.3330126,1.9194902,-2.1899838,0.95211846,1.3211943,-1.2766329,1.7902367,0.36691403,0.7434893,0.16434371,-1.4022813,-1.2401694,0.15940157,-0.35051757,0.3712037,-1.9394512,0.074484825,-2.998046,-2.595883,1.2501152,-0.4283135,2.512979,0.721254,0.17105365,-2.1852126,0.28457588,-2.0997274,-1.9304402,-0.8874981,-1.2466633,-1.2232375,0.18775517,-1.958035,1.2551029,-0.6085278,-0.20562792,-4.0573907,-3.2456317,1.2292671,0.049416035,-0.7782429,-2.4441593,-3.6784518,-1.5010889,-3.3121867,-1.8842514,0.15656549,1.0365458,-1.4984647,-3.3663104,-2.170562,-0.85231936,-1.8243545,0.47640008,-2.3389568,-2.2200124,0.11008504,0.78477526,-3.8510609,-0.1501993,3.6461604,0.14581901,0.48041445,0.23417461,1.5634353,-2.5539174,-1.0089482,-1.0916541,-4.369059,0.48966137,0.7563286,-2.4105499,-0.59840167,-1.4186177,-2.2234225,-1.2363348,-2.6319497,0.28038067,1.3897934,1.0098753,2.0479736,1.1108006,1.5525097,-0.7821791,-3.6938925,0.048318177,-1.3974406,-1.586321,1.9123826,0.71732354,-0.4914837,-1.3603001,0.52561116,-3.6434321,-2.1820307,-3.245657,-1.7931455,-3.835145,-3.3194668,-4.503441,0.1881345,1.3589493,-3.0232713,-1.3771913,-2.5911689,-4.834103,-5.5026436,-3.918134,-0.28897914,-4.083112,1.7946625,-3.3525977,-1.547829,0.012662411,3.5946002,-1.4665442,-1.9313886,-2.8261325,0.13788868,-1.2178875,-2.1484427,-0.6489301,-4.3631573,0.024927326,-1.3622727,-2.565546,-1.3355484,0.81746113,-0.11205197,-2.7984705,-3.5831814,0.3326273,-2.3051825,0.8027909,1.7957363,-0.30147302,-1.9440815,0.17104359,-1.7931035,-1.9984916,-5.201477,0.72388524,-2.6241078,-1.7719975,-0.3696618,0.6590948,0.09824659,-2.3104954,-1.0978996,0.23319557,-0.7936716,-3.0171669,-3.71266,-4.7258472,-0.15369344,-3.2620378,-4.5037127,-1.7998431,-3.3802485,-2.9645855,-1.5454336,0.3620733,0.11095345,1.4793607,1.5647049,-0.21287103,-4.4820375,-3.3354273,-2.062946,0.8159232,-3.0839944,-0.8313478,1.4629409,-2.8876214,-5.8732505,-6.935031,0.21617436,-3.788994,-2.8183646,-3.361867,-5.4190736,-2.644063,-3.2684803,-2.6685436,2.3496795,0.3214481,1.8584865,3.027876,-1.1703457,3.4071977,2.5878992,-4.090123,2.753733,2.1476603,-5.552428,0.057240665,-0.69295096,-2.7626164,-0.9848001,-0.30282003,-1.8173991,-1.7935791,-0.9733201,-2.3673694,0.14026189,-0.8406652,-2.9015203,-1.2108375,-3.0667145,1.440483,-0.08459899,-2.6646028,-0.5807927,0.9255854,-2.1242604,-0.8865721,1.7608416,-1.2086239,-3.6450098,-3.0908477,-2.5931869,-3.8264418,-0.6314106,-1.7327138,-4.584905,-3.5280774,-1.4123049,-6.1046734,-3.8991988,4.611977,-1.1257085,-0.25370497,0.6526803,0.31768772,-6.198386,-2.65416,-1.2011182,0.24686357,0.255595,-1.8541154,4.993213,-2.228422,4.35808,6.1414666,0.69271797,1.0732985,1.9608277,1.428787,-0.7966358,5.6355352,6.8994474,-2.1731288,4.9276204,2.4815938,1.9274478,2.6764712,-1.6008987,1.452111,-0.65328825,1.1949943,-1.2216573,-0.2538078,1.9783121,2.5029018,-0.6822436,1.6996293,3.27836,0.60724044,-2.8090425,3.4275491,-2.981195,1.047155,5.9893255,-0.4112086,2.8097053,-0.9389759,-1.768287,6.310688,2.4264643,0.75739866,-2.765104,-0.8681723,1.9997208,-2.224456,-0.9951788,0.6172347,2.1456268,2.1561127,-0.1538266,-0.07352513,1.2124486,-3.1690297,-2.0368233,-0.43770754,4.1959815,7.8364778,-1.2941298,-1.897752,0.4891338,1.7832357,-1.0096316,4.5091085,-1.7004925,-2.3704977,4.2764783,-4.8751287,1.526352,-4.249219,4.699913,7.1268616,-0.40767676,1.0617524,8.036314,6.037853,-5.212182,-2.5533328,4.3715963,-1.4669672,5.215357,4.1800327,4.9774427,0.61797506,3.3151789,6.102801,3.3807302,4.6790442,1.1677068,1.589168,-1.5311476,1.6224437,7.274734,-3.0112965,-3.3708417,-1.3941072,2.7166338,6.2593813,0.46182856,1.2224398,4.1541224,5.1390243,-0.26286668,-3.2268424,1.5262952,4.6919994,3.358672,-0.06427392,2.066551,4.3898816,-0.45053667,0.54207283,6.0950937,4.073836,0.7835576,-0.4624539,1.9263915,-3.3931084,-4.234715,2.1693544,4.0443296,2.128079,2.6302805,6.3034153,2.5747843,2.9028735,2.4748244,5.829059,0.4761746,-2.4632983,2.6091952,-3.4959092,5.4212503,-2.5383325,-0.8146625,3.5219545,2.1128137,0.22082567,4.924266,-0.89035225,-2.783489,0.17632663,6.5788803,0.33469456,5.2415285,2.6287649,2.44831,-3.3549836,-0.6899011,5.848464,0.73775893,2.279067,5.440687,1.4866588,2.750206,-3.921052,1.7595067,-0.39454043,1.7874615,1.2880548,2.7134123,-1.3735725,-3.293065,-0.05158475,3.76133,2.4835837,2.0784974,2.5581934,2.521672,-0.6677289,3.198862,-1.7767673,-3.2058396,-2.1152186,2.4088676,1.5954156,1.9957291,3.914627,3.6310325,-1.2348012,3.393756,3.5809622,3.5131426,2.7272522,3.4949784,4.7698917,3.1437354,0.59517014,-0.7212368,3.5861597,-0.9697219,3.741211,4.6651707,8.805815,-1.083129,4.626947,-2.4234242,-0.41950727,7.889632,2.454929,0.046127826,0.9649068,2.2112188,5.2441726,2.652373,-0.20067286,2.5423121,-1.5838116,0.45477164,0.1980735,2.7083645,0.8828911,4.758012,6.800155,1.3758566,1.2149466,5.845068,-0.79032344,0.7163706,8.092039,-0.30562824,-2.402566,5.0613384,-3.3530672,4.0083947,5.724463,4.788865,-1.4103187,2.3884506,5.05433,2.532621,0.3626954,-0.9012884,2.6058812,0.47374308,-0.5227344,2.467617,6.1125097,-2.8390222,3.404962,4.0912004,-0.15452763,-2.249755,6.079216,3.7858691,-3.4993374,0.2823823,1.2853216,0.62574834,-1.162259,-2.0692291,0.7160727,1.7434224,-2.8017056,1.0388386,4.262392,-4.52798,2.6351266,-2.9350393,-0.68755555,2.6902955,-4.4295006,1.1237347,-2.2493172,-2.6876502,-0.83926487,4.7555237,7.60302,-0.5056758,3.6794305,5.3368397,1.2451779,0.68858516,3.697765,6.432584,-3.2040281,3.2058468,2.091814,0.98622346,4.156293,-3.1173909,2.7900171,-4.9253564,-1.5785537,-0.102726966,7.435667,-2.0753958,-0.5109446,5.1727543,3.147296,-2.0897617,-4.840558,0.119932674,5.764899,1.0664662,5.013109,6.0939345,3.2836242,-0.45070243,-2.605081,0.6223928,0.041887194,5.942691,4.197874,4.92093,-0.7658472,1.6878436,7.483839,-5.3789983,-1.3312558,2.0166798,-0.90693873,1.1455474,0.43747026,1.7891815,1.6921033,-1.6893314,-1.7337265,1.2493317,-1.1905808,-3.9624226,6.7676077,7.9725394,0.95277846,0.5706664,2.0317025,3.6474638,0.5181228,-1.8759046,-1.2950857,3.1309466,1.5651009,1.9002296,3.2180395,0.6226461,3.6880772,2.5821147,-1.9644995,0.7186127,3.4547434,4.766494,6.1173778,-0.35060334,1.7780968,0.051863015,1.2261124,2.7157097,7.5381184,-2.5023785,-1.2053735,-1.8505352,1.676424,2.6529799,3.8036008,4.834454,1.4418594,2.3694859,1.4578528,3.7676685,5.6098094,6.4618826,-1.8633554,4.923505,-0.66291094,2.5763037,8.030417,1.6347779,-3.2548733,-2.9025357,-0.33640283,3.1512525,6.4020324,1.9814639,-2.4121017,2.9111123,2.7159605,2.975866,3.4818165,-2.2074175,2.821288,0.9812395,-0.28648436,0.14319363,6.3201413,5.340589,4.1598706,1.8068814,2.6496181,3.2201843,-0.31876823,0.6777293,1.4747558,0.8445952,0.104209125,2.955753,-0.83813465,1.0432357,3.7011156,2.1867027,-2.1438313,0.6405019,-1.1258792,2.8569512,3.3036447,3.9697514,-0.9742705,5.243332,-2.4420853,1.3807663,-0.3487552,-1.3283015,3.0477128,-1.7203555,-1.1658231,-1.7890542,1.7658713,2.9579692,-2.415523,1.81758,2.4600797,5.7603197,3.3618717,-2.5544448,3.7625341,6.2216396,-5.8662314,-0.3816635,-2.722948,-1.6110013,4.9242973,4.3462677,4.1701717,-1.009086,2.420777,2.1845715,0.3215288,4.675769,7.447554,3.2912745,4.6931334,-3.4102054,5.3681974,0.4470933,0.31501532,3.613625,4.282662,-1.8316994,1.160656,1.4368774,-1.4067609,2.1171079,-0.3736657,5.13024,3.2461839,1.9556333,0.9293057,-0.48664966,-1.0401579,0.8904668,0.3172995,-2.387113,6.3590775,-5.0590587,0.8093226,-0.39971817,0.86984646,-2.4796853,-2.2852945,4.262925,2.5196903,3.558714,3.3140354,1.6283418,-0.8251093,2.4609246,0.5404043,0.27674654,-2.870637,0.36774683,3.1876736,-0.83817816,-0.79672384,-2.648684,0.18198365,3.9351654,3.635209,7.1391973,2.220653,-1.5091627,3.8666556,2.164894,1.7523843,1.6453422,0.08568984,3.920959,5.545405,2.1225553,-1.6373527,0.8684,-1.5231211,2.9139175,-4.6430807,1.701805,-0.65473706,0.6239375,0.6659143,-2.5484002,-3.3902106,0.88372034,2.976007,2.3208964,-0.3982962,7.0856633,6.4157724,5.0668716,1.351295,2.36099,-1.6740912,0.5186019,-1.0241389,-0.052343406,0.058721066,2.2121186,1.6596698,4.808854,6.7449145,-0.12156427,1.2730526,1.2785262,3.0261598,2.548619,2.67958,-0.8044298,-0.1931525,0.02680257,-0.06023617,1.9470971,-1.7671727,0.76480573,-2.9812758,-4.028274,3.397071,-0.63364387,1.9192998,2.8514338,-2.66218,-1.5622356,1.411455,0.94556844,-0.562899,-1.2249291,0.033421893,0.02068019,2.70794,1.4335909,2.2464151,0.862953,1.5291656,2.373499,4.584728,1.3839871,5.076787,3.6380315,-1.5344777,0.814263,-1.5312066,-2.942956,-2.5998645,-1.4428396,-4.837075,-1.7023787,-2.6937737,-4.8400683,-1.4258387,-0.4055931,-2.481488,-0.53663194,1.6953291,-2.737014,-6.019391,1.6929343,-4.5273747,-4.0805283,-6.3377786,0.3029946,-3.8885634,-4.5577517,-2.2038336,-1.2719011,-1.4976221,-3.1956844,1.4311178,5.8728876