-2.7439737,-3.5844028,-1.8385494,-2.198467,-3.1009064,-0.8751571,0.25633875,-2.1429815,-3.3535042,-1.3708506,1.7727422,-0.19125903,-1.5381306,-2.1272738,-3.5857968,-3.4048693,-3.190823,-1.2875184,-4.572708,-2.9113207,-1.5467157,-3.165116,1.3723264,-0.5467278,-1.2090825,0.14836413,0.719919,0.9548039,1.7446415,-1.7227602,-2.056745,-3.624162,-2.542317,-2.0559413,-3.7768328,-2.8143828,-5.6487465,-3.9349568,-5.461213,2.63163,-4.343084,-3.073514,0.08194864,-2.2474957,-2.7449834,-3.3533015,-0.86739457,-2.9343767,-1.201785,-4.116121,-4.531993,-2.1105573,-1.4854984,1.5499666,0.73723364,-2.4427238,-2.3959444,-0.06276256,1.0936401,-0.16767144,2.26402,1.7498131,-1.0548167,-0.76474804,1.4100258,0.851181,2.1311555,1.8109924,0.5067198,1.4177049,0.370225,2.2368758,1.0944575,1.7582705,2.4345691,0.019800305,2.4171338,-1.0418501,0.7991414,3.912864,3.0852005,-3.1367393,0.23185992,-4.7326546,-1.6852062,-3.352191,-0.18501973,-1.6487536,0.259673,-1.7969999,-1.8443849,-1.9424214,0.7186178,-0.035729825,0.06524944,-2.132265,-0.40619922,-0.7626739,-2.8945522,-1.9916065,-0.36348617,-0.8576228,-2.3305607,0.25296253,-0.41318297,-2.8672833,-3.7415233,-1.2076658,0.09460975,1.8026733,-1.177841,1.2047255,5.8522205,-1.2241566,-1.676899,-1.0098513,0.2412374,-1.9113457,0.47887278,-1.1726748,-1.3975353,0.23640299,0.14312065,-1.1980747,-0.80990714,-1.9881978,-1.9710286,1.3885684,-0.20623147,-0.3590662,-2.5688157,0.7109152,-2.6514716,-0.28153002,1.1759113,-2.0541985,-0.9061307,-3.4796395,-4.565659,-0.4475183,-1.2348928,-1.7240887,-3.3430946,-2.9745445,-2.8612478,-0.78590417,-2.805692,-0.6320832,-2.4366593,-1.6090887,-2.2911744,-3.6919172,-0.053236693,0.8656199,0.7085844,0.18762392,-0.51202273,-1.1379852,-0.81554496,-1.9842508,-0.8249908,1.9024671,0.22441489,0.6134454,0.8962688,-1.7638454,-1.5507046,-0.89253795,0.035562515,-0.75468516,1.0162053,-0.36316547,-3.0761046,-0.71483815,-0.38234335,-2.187868,0.9643628,-1.1145723,-1.0896037,-1.5051568,0.43346542,0.4968843,-1.9796097,-1.716666,0.05751825,-2.6102874,2.0473342,-0.49461937,-0.5213697,1.1824964,2.0156186,2.239891,0.23136741,-0.8033946,-2.225356,-1.4056036,-0.7888732,-1.304521,-0.14808652,-1.0053155,1.6537054,1.5456405,-0.19418555,1.0757161,0.05921653,-0.33656538,-4.038961,-2.3541498,1.2029998,-0.26010767,0.04170829,-3.4384482,-1.735178,-1.6879574,-3.4279187,-0.5916035,-2.0534503,0.95179343,-1.9823891,-4.4365883,-1.5582812,0.11028445,-0.26393777,0.195916,-1.5130131,-1.6192826,-1.6053882,1.7008561,-2.3033535,-1.1154788,2.9756966,-1.950675,-0.42166013,0.43691963,0.34376603,-2.175773,-0.9146199,-1.4775203,-3.0433848,0.19406211,1.3305669,-0.9885032,-0.98573625,-1.6090178,-2.1531067,-1.2547457,-1.355516,0.5489187,0.6016975,0.81420445,1.9256233,1.0004852,1.3412391,-0.7303651,-3.1573896,-1.1684349,-3.2288013,1.3832138,0.5523258,-1.943517,-0.7916731,-2.159662,-1.0011349,-2.9529567,-0.5495567,-0.04315424,-2.156617,-2.6335409,-3.3642416,-4.679498,-0.20936652,0.03862378,-1.2275774,-0.91135716,1.6408397,-2.5079813,-3.562524,-4.128761,-0.11159548,-1.7136745,0.34125942,-1.5746977,-1.1686181,0.70843625,0.42611372,-1.6270308,0.45648116,-3.1229985,-0.40323687,-1.3193226,-1.7676173,-1.5294918,-1.6154413,0.23216325,-0.050254345,-0.12656014,-0.28680295,1.2444755,-1.9004182,-1.7562959,-0.7872382,-0.979319,0.87317336,1.7006476,3.9153461,0.997764,-2.070886,1.6273133,0.64665914,-2.4523745,-2.1460466,3.6314147,-3.5504909,-0.70853615,-0.95116234,1.2760482,-0.83169675,-3.1210618,-2.8236356,-0.9629295,-0.7074265,-1.3852428,-4.1408267,-5.271314,0.5244229,-4.619885,-3.5724971,-1.4716122,-2.3558037,-1.1535354,-0.98289484,1.8484783,3.0373325,1.3752116,-0.7246298,-0.58521295,-1.6272478,-3.3013914,-1.5041159,-0.3448537,-2.12466,-1.6295495,1.4054152,-0.6607436,-3.1265757,-3.8849874,2.1031215,-3.629153,-3.3402395,-0.82763946,-3.057252,2.6606774,-0.10126996,0.77742183,2.6345823,-1.5983684,-0.7474077,0.60044634,-1.4178524,2.2910523,0.42323074,-1.5646696,3.735103,2.5380561,-4.2833037,1.7150257,-1.5782075,-2.4355958,-1.9935226,-0.6687387,-1.0909703,-0.7763096,-0.70767725,-2.122349,-0.5055347,-1.8037595,-3.2218404,-0.6526756,-1.9896998,1.3353132,-0.6730292,-1.228617,-1.2654104,0.76885664,-1.6232833,-1.5091176,-0.3293599,-2.0458126,-1.1500882,-1.9003882,-2.404521,-0.009519815,-2.0734086,0.45140994,-1.262443,-3.6242354,-1.7409003,-1.42798,-4.590028,3.348059,0.75672776,-0.4847798,-2.322014,0.6239402,-3.9621267,-3.3166218,-1.027486,-1.072914,-0.23426399,-1.0629327,4.3843966,-3.1135352,4.9450974,2.223974,1.485982,2.2727711,1.636764,1.4212269,0.03694842,5.221855,3.9770885,0.10961184,0.5011269,3.175005,1.1759597,0.8558062,-1.7314563,1.8014858,-0.7144127,-0.07980141,0.03465967,1.8589399,1.5238208,4.533477,2.945509,2.7493253,2.519321,1.3482105,0.54909194,4.4812536,-3.338172,-0.44095832,1.6581988,0.17631754,3.5208313,2.4694552,0.26207435,6.270436,1.1059587,-1.168841,-1.9327412,-1.0050019,3.0899096,-2.0970547,-0.70916593,1.2051414,0.8958456,2.8582728,-1.7315285,-0.26816028,1.1852939,-1.6002043,-2.289157,2.1238852,2.5221386,2.9761443,-1.1751771,-3.3037143,-0.49005386,0.659344,1.7416241,3.5302732,-1.9265683,-2.5687194,3.477058,-3.2919817,-1.8734055,-3.7938554,2.9482846,5.643045,-1.1989614,1.3291807,3.8795602,2.7329764,-4.035038,-2.139073,1.6816056,0.35045207,3.572212,3.9231784,2.8631692,0.81422883,2.4686778,2.768744,0.8309387,2.2152686,-0.54034054,0.1004079,-0.9633225,2.1811397,2.746606,-2.9731128,-2.9716551,0.36679223,0.56494856,2.7763958,-0.5025854,2.308584,5.099874,2.2447567,-0.5302722,-2.3204865,-0.6334339,5.1463437,5.730413,-1.0430962,-0.7504671,2.962645,0.5887969,-0.8755132,1.4193609,3.385828,1.8381774,2.6062014,1.7060242,-2.2209983,-3.9649582,2.8422217,2.5875187,-2.3976676,2.4545593,3.2434464,1.5340661,2.2459435,0.7831891,2.98461,0.7792928,-3.0853133,1.6217779,-1.41981,1.8748332,-0.54969794,-2.0801218,1.3872471,0.5935831,0.6611201,3.1840775,0.9502953,-2.0118752,-1.2948812,5.40907,2.8932495,2.5380177,0.6572952,1.5476978,-1.6551573,0.017854497,2.8871028,-0.88817316,1.7071674,0.68994546,0.6994932,2.1118963,-3.2292428,1.061012,-2.3651955,1.7813275,2.315219,2.0247731,-1.9939411,-1.9591248,1.0337517,0.87923634,-1.0588484,1.0443404,2.9514775,-0.24329749,-1.7181373,1.939074,-0.45572975,-2.3915546,-3.140442,-2.2904375,1.4518313,2.0900943,3.5375295,3.2012658,-1.4624742,3.620521,2.4012766,3.6864362,2.2272184,4.1749344,3.7754517,3.241581,-2.1545565,0.62293243,2.5217385,-1.445865,-0.9455067,1.8626889,7.609863,0.15066928,3.6754956,-1.8188176,-2.0326583,3.2394032,1.8011379,-0.5063199,1.3721434,-0.881307,4.381263,1.4408748,-0.67876893,2.3883917,-0.8843806,0.86883265,4.892955,3.7034252,1.3783772,0.91300106,3.311316,0.5988536,1.4559573,2.5806913,-0.47127765,0.18878996,3.708372,0.058531508,0.76467264,3.1090589,-1.4852746,3.96987,2.5620825,2.7408354,-1.271541,4.286108,3.7283356,-0.6407001,1.0023698,-1.0361118,-1.3643243,1.9176484,-1.864458,0.70169413,5.403815,-1.3779169,2.9550486,4.996869,-1.4520073,-3.5835774,6.6570697,0.43450725,-2.6823556,0.89322424,0.9645812,0.08105679,-1.6347334,-1.2306982,-0.53869337,-0.72669685,-3.3429031,-3.0605621,3.2361598,-2.2147896,1.9169955,-1.8879223,-0.7039108,0.9848376,-2.0477061,0.12066564,-1.9920987,1.1562468,-2.5173948,4.8217206,5.260204,-0.60307354,4.2630043,5.845921,2.5321183,0.5192517,2.6650891,4.0382204,-2.7197208,3.2129278,3.6967678,-0.073165834,4.851537,-2.6208584,2.9570065,-3.973007,-0.43051577,2.2122672,3.4891949,-2.0767362,-0.08909054,4.6348104,3.1799407,1.286228,-3.326206,4.5475965,5.765923,0.9914999,3.7347224,2.4053888,1.3618236,-0.84277654,-1.9263058,-2.216352,-1.2959908,2.7144468,-0.93298376,2.9082255,0.24375784,0.6686967,4.497306,-3.086906,-1.4930073,-1.7176003,-0.76129127,1.4432378,1.6480181,2.19205,0.674149,-2.0372937,-0.68307537,0.05755806,0.12550183,-1.9028473,3.2713666,4.5401645,0.87909377,1.6019814,-0.35447347,3.3114371,-2.2477627,-0.99106383,-1.3580444,1.5766605,0.1573962,1.5022901,3.867913,0.044893086,1.5897244,0.24841905,-1.2444845,1.1395595,2.6064963,1.7915229,3.5661273,2.3125868,2.4166198,-0.7890956,2.255396,0.97409195,3.532532,-3.5283446,-3.3840792,-0.8228395,0.67528427,1.2819079,1.1684685,2.4143226,1.1883103,1.7784932,1.8752617,0.5524556,3.0464766,4.188543,-0.14659548,3.8621588,0.9461361,2.8420184,7.481179,-2.6382022,1.2720435,-2.506794,2.7986865,-1.0992036,3.9346619,-1.1231744,-1.212745,1.6381226,0.64625967,3.4668574,2.515138,-1.199303,-0.85261554,-1.9293549,-0.093978405,1.1650561,5.658928,2.9252324,2.5786939,4.207338,2.9556832,-0.31519106,-1.7908854,2.671163,1.8937328,-2.0208254,-0.21090141,1.4302129,-0.29556906,-1.0551522,2.1890953,1.3957198,-0.9675269,-2.5869658,-2.7871556,-0.013862491,-1.3732421,2.2231624,1.5975436,1.3150406,-1.2384441,-1.6236725,-0.8188106,-2.748799,1.7461123,-0.9122631,-1.3043127,0.44993854,-0.9027708,5.5568266,-0.77808034,0.21188724,5.2534757,1.7429583,2.6461835,-1.8175883,4.081938,3.7466803,-4.5723634,-0.5928227,-0.6827378,-0.46043396,2.3690853,3.0635424,5.30556,-3.1676385,3.275148,1.7480742,-0.6093905,1.320256,4.475754,2.0510888,3.1070688,-2.7789023,2.1622152,0.45786542,-1.867312,0.9736142,2.709072,-1.0772586,0.0373676,-0.34096026,-0.8090623,-1.8159835,-2.700964,1.093055,2.179314,2.0465918,0.505087,-2.4858391,-1.3843223,0.096722394,1.0872173,-2.9287727,2.1485934,-2.7133126,2.353033,-1.1567879,1.5948199,-2.1582,-1.7894106,5.0568037,1.3039038,1.4084319,-0.41617775,0.47239554,0.65578675,1.0108919,3.38563,1.0469798,-1.2306242,0.6924443,0.11543548,-1.4173563,-2.1698647,-0.15596487,0.28548926,1.0646307,1.6117312,0.596066,1.5400964,-0.90391326,2.6583633,1.7569162,2.6415443,1.8675771,-1.7272694,1.3383875,6.623003,2.5583985,-0.4597137,-0.39252126,-0.23016798,1.8591068,-3.7883358,3.0436308,0.49526393,1.7109231,0.4374413,-1.4333774,-1.7580488,-1.2145988,6.031863,2.8823438,1.5643021,3.545085,3.0217726,3.1348455,2.7947896,0.32630023,-2.139101,0.6129625,0.38863564,-0.9470244,-0.065160066,-0.08797073,0.97134006,0.14018722,3.5926914,-2.5896912,-1.9794582,-0.14059466,2.1870947,2.8277278,1.0030048,-1.8522952,-1.0584017,-3.031587,-1.1533884,-0.8860688,0.33591425,-0.52874154,0.037403703,-3.7079477,2.6574562,-0.55397713,0.76695377,0.39579844,-3.1406612,-1.1457417,1.3123841,-0.5527738,1.5414693,-0.6019943,-0.35395768,-1.2165799,2.064712,-0.8120283,-0.6400891,-2.1690736,0.2736467,-0.63080966,4.8009953,1.3369889,2.449925,1.4946584,-0.5043749,1.2552627,-0.18346262,-1.0348918,-2.8037295,0.81226015,-3.0106156,1.2987866,2.1517968,-2.4556062,-0.7281722,-0.37663394,-3.153468,-0.43406302,0.6549829,-0.34964803,-2.3321383,3.8131156,-1.9078931,0.14042047,-0.97479165,0.603497,-3.779487,-3.0548139,-1.6784992,-1.975463,-0.6355753,-2.2141972,2.5462892,2.4711974