-2.8116925,-5.155866,-0.22612366,-2.53419,-3.436967,-2.0506024,0.7865361,-1.4521651,-2.7823007,-0.61058086,-1.735984,-4.1734214,-4.680275,-4.048456,-5.279583,-2.7643635,-3.4798055,-3.1164765,-1.8623405,-1.0771112,-3.7764187,-5.3288336,0.2036403,-2.6031897,1.4398329,0.90415925,-3.876559,-3.406845,-2.0165458,-5.2282586,-3.2938032,-0.3085677,-3.8869514,-2.02356,-1.480391,-0.35448968,-0.9295566,-2.4114885,0.19758826,-0.44398767,-4.3465514,-1.7287041,-2.7619357,-3.1536188,-3.2875705,-2.4198334,-1.7907225,-1.5907501,-1.8336763,-2.2683744,-2.067262,-0.86983365,-1.3971624,1.8348782,-0.5204,-3.434506,-2.0621028,-0.6923597,-2.0154312,-2.8951914,-0.441244,-0.28249228,-3.9438496,-4.2259674,0.5399716,-1.1572396,-3.5432453,-0.67059666,-3.869136,-1.6716346,-2.4568207,-2.5993776,0.14776093,0.0019801855,-2.1892376,-0.9254035,-3.7899055,-0.24589545,-0.19208929,3.3019276,-1.4168522,-4.0452795,-2.2212787,-4.752243,-2.7640107,-3.094326,-1.2943287,-4.3963146,-1.2799116,0.59940994,-1.9399767,-4.1116867,-1.334401,-2.5469544,-1.4943264,0.08111447,-3.4522371,-2.704946,-4.3850746,-3.9823809,-0.25556612,-2.0194235,-3.0709343,0.14304233,-1.2686594,-2.509314,-2.2935767,-2.2592106,-1.4336333,-2.8049176,0.026809156,-4.997382,2.6782718,2.6006346,0.19287735,-1.3811772,-2.5679708,-4.2772374,-2.3839355,2.6455936,-1.4695975,-0.48075786,-2.5003645,-3.7735221,-3.9554443,-0.5834316,-4.209704,1.5744774,-1.3543223,-0.8633604,-0.07350409,0.5896102,-2.4535904,-1.6783738,-0.95243096,0.26764762,0.8503495,-1.8465137,-5.0253553,-0.47472984,-1.4416895,-1.5271046,-3.0667088,-3.6320076,-3.735524,-3.0175238,-3.7792852,-2.603872,-5.465821,-2.1742687,-2.6147823,-4.6757913,1.0968417,0.13085043,0.60541564,1.1717118,0.57988584,-1.0488775,0.7329564,-0.91171134,-1.7612121,-0.61572087,0.9854411,2.2755096,0.6689774,-0.8250235,-0.9042697,-0.6684396,-0.8039188,-0.18175423,1.0067241,-0.49300098,-0.330904,0.7139813,-0.8797301,-0.1485588,-2.5216296,-1.7654169,-3.2316847,-0.03287649,1.2429827,-0.6046256,-0.47972387,-2.359212,-0.8490169,-3.589451,-1.7507567,-1.5305114,-0.6677692,-0.6054754,-0.5304481,-2.0997791,-1.283616,-1.7304808,-2.2005186,-1.3644974,0.8771816,-2.843781,-1.1814908,-2.7936842,-0.61903435,1.6680121,-0.1675551,1.5771123,0.85552657,0.16947222,-2.511585,-3.4954576,0.8999201,1.6821164,-1.6803741,-2.6566372,0.7793437,-1.5078435,-1.9536748,-2.474163,0.45123726,-0.59067994,-1.5592796,-2.2944698,-1.981193,-1.448264,-2.6947196,-0.28252935,1.7356623,-0.99035454,-0.19654778,-2.8805532,1.0005279,-2.2314582,0.5119845,-0.9654989,-0.27638918,1.0050848,-0.8887807,-0.5576145,-0.33919418,-1.4191333,-0.09859222,-0.55530894,-3.7089212,-1.6786743,-1.302905,0.24557588,1.2489654,-0.04237926,1.7375511,-2.519958,-0.17600149,0.8532889,-0.39198828,1.6517795,2.064655,0.56746435,-2.6500945,4.2829065,-2.31704,0.018994268,0.65474975,0.07147023,3.41897,1.3496935,1.9160423,-0.5000783,-0.49007612,0.3781356,1.9362392,0.50490665,-1.1134934,-3.3278131,1.1138043,1.3208828,2.4402134,1.1549702,-0.19718255,1.4316492,-2.8598418,-1.646277,0.8351522,0.060868382,2.0515854,-0.25530207,-1.3471013,0.70684886,1.4446424,-0.16092706,-0.37915456,-1.8979213,-0.91323733,-2.1670082,-1.2609519,-0.042515308,-0.6018114,-0.060866706,-1.7304149,-0.4924609,-1.3914309,0.38311005,-1.3040496,-3.7398374,-0.75795776,-1.978449,-0.20593518,2.2967293,-0.38392556,-0.2069794,-0.20241493,-1.0133909,0.30195355,-2.3748302,0.626421,4.3622065,-6.734745,-0.9843973,-1.1861756,4.139901,-2.1852229,-3.7050712,-3.0865679,-1.7144306,-5.4505286,-6.1753454,-3.257059,-1.8877314,-2.4564333,-2.7821236,-2.5585487,-0.5623654,-0.63524514,-1.8269768,-2.4149055,-1.1800394,0.87913847,-1.5839534,0.21035597,-1.7752084,-2.142342,-2.8629394,-1.1441425,-2.3551605,-3.9121845,-2.865471,-0.80953705,-1.5539855,-1.7462199,-5.1071553,-0.24757087,-1.972029,-4.306761,-1.519461,-1.3016796,-3.9493601,-4.60459,-4.1320066,-2.4620292,-3.1322377,-3.236786,2.227629,-0.66989756,2.0351918,0.57490265,-1.7469357,-0.25084364,0.48810297,-2.480884,-2.3985672,2.0507007,2.888408,0.44204205,3.8504658,-1.1317503,-2.3266292,-1.7747277,-2.513223,-0.89203125,1.3449174,-3.1070783,0.78757674,-0.5153722,0.31582552,1.8021634,0.8422625,0.42472705,-0.5324012,-2.1371934,0.3178866,-0.5379959,-1.1129061,-3.9514139,-1.7965901,-1.6478648,-2.6733637,-2.391961,-3.304017,-5.4234056,-5.740027,-3.214225,-3.316687,-4.0825443,0.37673166,-1.3021423,-2.7151768,0.2361277,-1.269005,1.7306625,-1.0889404,-0.9545095,0.051121533,0.47176537,-3.5221524,8.811653,-1.5612395,4.1014743,4.2507944,0.65289706,4.122272,1.0512929,2.2049723,1.4113656,4.963928,3.4460397,-4.233067,-0.45517159,3.243351,0.29812366,2.4965982,-0.11145884,5.6029153,1.7733976,-0.30206928,0.09503527,-0.87837124,-0.82926774,-2.1388,2.0946789,1.5920825,1.6022325,-0.37996167,-0.64323014,2.6420832,-2.5013452,3.6166568,2.9107008,2.6730325,3.4124339,0.98565817,-1.830189,4.834509,3.0184648,-0.5130106,-5.0150223,-0.3247338,0.8832667,2.9531732,-1.1822773,2.2581463,3.3607063,-1.5231544,2.1830184,3.9136693,1.4375718,-0.4628153,2.282517,0.94248575,4.0282946,3.9540167,2.1718984,-2.8183117,1.1818799,2.1371193,-0.2734956,0.9439388,-3.1390738,-1.1273853,-0.5490925,-0.57863355,-2.6841514,-0.80378926,-1.8460671,7.1909466,2.4252353,5.002065,3.5369887,0.41798696,-1.4299954,-3.1156256,1.1221087,-1.3381068,8.716737,2.0078564,3.0076075,3.169967,-3.1677756,1.3676819,2.1634698,0.98051244,-1.5668677,-2.2474217,1.7239999,4.4392343,0.7905549,-2.56685,-2.4516468,1.7450936,0.70719993,4.463364,0.34231395,-0.12704521,5.3337007,5.169047,0.67863125,-4.451546,0.0018110573,-0.39960527,-3.992998,-1.2588886,0.43552724,-0.936362,-1.1608019,3.5614524,3.0904486,0.443672,0.12013219,0.349395,1.8079718,1.5419567,-6.100562,1.0033368,2.4911175,4.4403667,3.9018679,7.0289145,4.5952663,0.7371386,1.9303973,3.9627655,-2.08089,-3.649819,-1.2555215,2.7008383,5.567649,-2.276835,-0.15108813,2.671673,4.517843,0.039402664,-0.13323793,-0.32189924,-3.064907,-2.7361188,7.2513514,3.8583353,3.6048248,-0.6946596,3.064175,-2.3448873,1.0520867,4.1742454,-3.5692558,-2.3276155,3.3764906,1.6121991,-1.5309644,0.6985072,3.4153492,-2.0731463,0.5895497,-2.7283535,3.3208075,1.1244354,-0.59365714,0.770087,4.2203693,1.114598,-0.61160576,5.619581,-3.3447936,-4.041785,1.5642459,-0.043120712,-0.34704655,-1.363503,1.4940362,1.5876048,0.8325329,1.7529244,4.447754,-1.8634901,1.774575,0.28770438,5.20336,6.6844907,6.773484,3.675205,0.4878859,-2.5592165,-3.1084104,0.28127536,-6.073183,-0.7334322,4.596642,3.4110157,-0.5259042,1.409519,-2.0962417,0.16929041,4.204502,1.2015865,1.4438626,2.984548,-0.5667734,6.597828,6.3414087,-1.0638145,0.41598058,-0.88392735,1.0931844,-0.38898027,1.9218243,-2.070455,5.5520773,9.773726,-0.9194903,2.1336339,1.8106394,-0.35288274,0.8120668,2.1060157,-3.7189748,-1.9300394,1.7627224,-1.0708942,3.518986,2.1153533,2.1894107,-1.9686943,4.442705,2.7435791,5.2663703,1.311921,1.3025115,2.9574068,0.33461598,-2.6366808,1.6367338,5.690282,-1.841372,4.74593,4.3150034,-1.3451554,-1.6778152,0.7058999,2.3039908,-0.41100997,0.5157459,0.026275024,3.560842,0.24407624,-2.5333035,-0.45460886,2.2388244,-3.1325622,-2.3290126,0.71390724,-1.346158,3.1847038,-0.7765256,-1.7847185,-1.5335097,-2.0263302,-1.7984325,1.7779031,-0.42085624,-1.596076,5.233399,3.812042,-1.9561765,-1.7731144,0.7560266,0.9730866,-1.3785019,3.1660135,6.788966,1.1732421,-2.8015184,2.7815826,4.8740263,4.6217074,0.87631595,2.701142,-3.0838306,-1.1168903,-0.14594758,6.1089377,-2.7763002,-5.558558,2.0795856,2.9620075,3.2854419,-0.67527306,-0.022436759,4.6277175,0.39752343,-0.16746154,-0.121043205,3.219028,-2.9981542,-3.316203,4.324505,0.5646509,1.5373304,1.7996008,3.823204,3.9832535,3.9844017,5.668275,-1.4810497,0.9523685,-1.8448901,-2.2259104,3.209616,4.405472,3.7287002,2.5627098,0.7208478,-1.8835796,-1.2065314,-3.5111115,-0.6447028,2.4778717,1.8738618,-0.9907065,0.5303025,2.2406075,-0.073868215,-0.18749058,1.7223772,2.1019409,1.6148537,-0.42463154,-0.6697749,1.5114528,4.1674404,5.687526,0.04364133,-0.7493381,2.2748199,3.593967,-0.15019971,1.5216078,1.2433994,6.338849,-0.2573434,1.5114198,0.58230793,1.6888916,-1.9298618,-0.9953065,-0.98627675,0.41013056,4.310712,4.515395,7.7132964,0.6529068,1.3110757,1.6582067,0.4137205,2.7207682,5.435436,0.5170207,5.6795654,-0.4974021,3.4535625,3.0449097,1.3132955,-0.6161574,0.14924085,-3.5077605,-4.3820024,4.474439,-0.9090119,-3.5208812,5.85938,3.8765407,3.575481,1.5513514,-2.159337,2.1203778,2.9030442,2.2912498,3.1316576,-0.097308576,0.9742394,1.6855595,2.1919456,5.7298093,-1.4807322,-1.8851738,3.0443506,4.294709,0.7945315,3.9060295,-3.7324886,-3.0863178,-4.9131236,1.3668729,4.8282356,-0.19029278,-1.3158411,0.9824457,0.9007553,5.004259,1.3804854,-0.42938557,-0.92072237,-2.502093,1.3230395,-1.012083,0.010964811,4.4867787,-0.023068115,-2.9304004,-3.7706478,1.1056838,2.1664462,0.5094194,-0.30252278,8.2782135,1.2793844,4.154374,-0.11170626,1.8763797,1.1986089,-2.566451,-2.37775,-0.59950876,0.06940615,1.4354861,2.0476415,3.3401856,-3.5112934,-2.6323028,5.737918,3.220518,-0.15135312,5.554918,1.372639,1.9302876,-2.0187361,2.2199528,1.8361466,1.3659065,4.843613,2.2314382,0.8531332,3.758816,1.7612994,-2.6216297,-1.225517,1.6465982,3.061419,3.2979712,6.0807333,3.0210187,-1.9158294,-1.9706306,1.7874637,-0.5957086,-0.55435073,5.3273683,-0.2455097,1.2387837,-1.6321149,2.4655216,2.3245437,-2.2986512,-2.4649088,2.321133,-0.90789014,5.98754,4.4630404,0.08456212,0.2428605,1.2161791,-0.11753467,1.7064583,3.655794,1.2203428,0.897517,-1.6384132,-2.0687428,-2.2111847,0.019593224,10.546158,0.7399567,0.19718549,1.6509922,2.348925,4.2069283,2.554868,2.4194283,2.735796,0.75282305,3.0512795,2.5124626,2.740523,1.5730367,4.142013,4.255886,-0.73335433,0.46458858,-0.09701359,4.2415023,0.2790097,-1.52139,-2.7932277,-3.0494816,7.46012,5.495251,6.1976624,4.5938325,2.5537894,4.875621,7.7144237,1.0198469,-1.9161459,-0.22908527,-2.4390202,-2.5130172,-0.7278116,1.71843,-2.3558812,-1.4229467,3.2484665,-3.4930096,-3.5109208,-2.6555293,4.935069,2.5911193,3.694067,-0.7808532,-3.4032643,-3.0062284,-3.0006776,-0.2591122,3.5586362,0.5197406,0.07772732,2.6313171,-0.02998063,0.40531248,0.73389673,0.31735802,-0.5179028,1.109234,3.264995,-0.58124006,1.8662522,0.7237028,-3.377819,-3.883243,-0.86247694,1.4792805,-5.654684,0.16105749,-1.1755277,-4.3471837,0.7198301,3.5259254,5.991292,-0.1623339,-0.3501311,3.8542495,0.035165727,-1.2984602,-4.604667,-1.2225778,-2.4567604,1.8436823,1.5526718,-3.1306808,0.3788728,-0.5213958,-3.419935,-2.0366883,2.0585313,2.5574942,-3.1015356,0.84666675,-1.1361223,-0.8763819,-2.0482974,0.3855121,0.8842714,-1.0631366,-1.4671202,1.2814755,0.8736005,0.7375369,2.1330798,4.522495