-3.0286298,-1.4864838,-1.2183633,-4.6593113,-4.5893764,-2.614011,-1.5830803,-0.5095926,-2.6963513,-3.596441,-3.731186,-3.2801566,-2.5845337,-3.9168155,-5.2992406,-3.823256,-0.0036700368,-1.0452284,-6.055212,-3.222283,-2.5164728,-3.9388728,-1.6530322,-2.937863,-3.946433,-1.9911125,-0.13250005,-2.1672583,-0.60041124,0.2753437,-2.8311126,-1.1063566,-1.3899934,-0.77092654,-4.186413,-1.4771798,-4.4659023,-2.4949343,-4.073097,-1.2254611,-4.2170167,-6.153275,-3.8428464,-3.7735555,-5.0152855,-5.656346,-0.6614831,-4.118686,-1.8154452,-4.994083,-1.890799,-3.3080156,-0.8491657,-2.3936257,0.65370643,-1.6798043,-3.5325022,-3.4550943,-2.6313815,-4.2681093,-2.646875,-0.6802976,-4.57505,-5.556978,1.2849079,-2.768435,-0.84881854,0.19939175,-2.0382555,0.51680964,-0.7925681,-4.479941,0.5731055,-4.40186,-1.7995043,-5.2723746,0.17368811,-1.924027,-3.1508741,3.5231245,-0.2851032,-1.1635268,-2.4300911,-3.5982084,-1.1945429,-2.6969514,0.087153375,-4.0657682,-1.5199478,-2.286045,-1.1407547,-4.291137,-3.1175792,-2.1468763,-4.9238224,-3.7587423,-3.6764898,-1.9942257,-4.335558,-2.277171,-1.4126512,-0.4534701,-3.6539698,-0.52344424,0.8499628,-1.1238573,-5.789928,-3.9979858,-3.420265,-2.8328128,-6.2189474,-3.7530327,-0.20438838,-1.3394749,-0.8066864,-2.365508,-3.8604603,-3.774922,-0.94139373,-3.0880642,-5.208449,-2.4003525,-2.989661,-1.2173575,-2.7348351,-2.6976197,-1.5681496,-1.5410068,-3.6453621,-2.439405,-3.092498,-2.980318,-6.260138,-4.44914,-6.4278197,-2.6091933,-4.693296,-5.0033646,-3.881036,-5.556295,-4.0029225,-4.11571,-4.2810564,-3.7585607,-3.4374065,-3.4915295,-2.505923,-6.4786234,-3.5189986,-0.01837933,-1.3950338,-1.2107357,-0.08429739,-1.4983732,0.79592437,-1.121006,-0.4709441,-3.1452227,0.25521255,-3.275742,-2.0243514,-3.899539,-1.927758,-1.2096487,-2.3735,-1.0478668,-2.7533891,-2.6693113,-1.794332,-1.500202,-3.1227374,-1.4870883,-1.4927014,-0.97479737,-4.4223223,-2.628931,-0.9472997,-2.9587939,-2.7393808,-0.78076506,1.254666,-1.6408994,-1.7946874,-2.7451613,1.5567442,-0.89706063,-0.515629,-1.0852495,-0.94367754,-0.5279742,0.30048102,1.3095267,0.12648794,-1.6541328,-3.7870255,-1.851793,1.2365177,-0.73940974,-1.0390799,-0.96411484,1.0127304,-1.0817438,-1.4988399,0.66192895,1.2319585,-1.6152108,-3.7766047,-2.1385121,-2.3662612,-1.1765674,-1.9774373,-3.2495813,-4.215473,-2.909999,-5.232385,-4.9496884,-3.9338162,-3.471832,-3.376865,-4.4622226,-3.2114108,-3.4818802,-3.8193614,-0.51226306,-1.5657496,-2.2191021,-2.2082078,-1.229319,-2.1698875,-1.1303773,1.7651134,-3.0231612,-3.5657904,0.07575101,1.219806,-2.5405211,-2.2880785,-3.6644626,-2.6983392,-3.919702,-2.6492102,-2.8249173,-1.9507697,-0.39422294,-1.9510233,-3.3544374,-0.8616439,-2.4898622,-2.1868255,-1.3479073,-1.7387356,-1.6898665,-0.35829052,-0.27314007,-3.0771298,0.88073295,-5.4655437,-2.5278459,-1.1683784,0.28958693,-0.8721149,-2.2574413,-1.9431881,-0.27030897,-1.9195409,-1.6843886,0.9559276,-1.9682289,-3.135114,-4.090877,-2.5469527,0.6022014,-3.6727662,-2.5635538,0.24820839,-2.4911695,-0.65407175,1.2180058,-0.6196433,-1.5150214,1.0473092,-1.2419221,-1.7483143,-3.1778011,0.8043324,1.8454723,1.1118728,-2.8608773,-1.7416908,-4.4496765,-2.8598127,-4.4616394,-1.3599269,-3.7019355,0.981669,-1.0441345,-2.200684,2.422989,-4.86543,-2.1979578,-0.032496214,-2.1941907,-1.0968043,0.31522906,-3.3557568,-0.6400318,-0.3739342,-1.3032742,-0.82868254,-3.692563,-4.0705013,2.1974974,-5.604614,-4.394642,-4.676385,0.17425144,-3.9952402,-5.4806128,-6.633477,-2.7917922,-4.338602,-6.6008415,-4.636761,-4.462826,-5.7243924,-4.5148754,-5.020484,-3.1307821,-1.9385457,-1.6905149,-2.8834376,-1.4108539,0.3393982,-2.7475548,-0.21382876,-3.0752985,-1.0653718,-3.5415044,-0.7073955,-0.65231526,-4.5873556,-3.0322886,-2.103832,-3.1688554,-3.2298186,-1.7190211,-0.4216569,-0.6438798,0.39654326,-3.5527425,-2.8149695,-0.26686758,-1.3674781,-1.9860824,-2.9972312,-1.0396683,-3.2325978,1.353712,-1.4918232,1.1919811,1.2500919,1.1766803,1.8573698,1.2854695,-3.684344,-2.4506922,-5.14338,-2.097358,-2.6254864,-2.2415884,-3.0604572,-1.3294556,-2.1197197,-0.99846953,-0.9690617,1.0806695,-2.3814683,-1.3194325,-2.8973072,-0.9279638,-4.3781853,-1.8447745,-4.955443,-1.6962707,0.027290747,-0.6868365,-2.1266477,-3.38826,-1.5485529,-0.74651736,-2.7784038,-3.248342,-2.783957,-1.4111114,-3.9377337,-2.5519264,-2.5345232,-2.320573,-3.43486,5.3803353,2.4759789,1.9932355,2.6305525,6.0858946,0.24485219,0.20640671,-0.43904173,-0.46939322,3.0105727,1.2138116,9.99363,-0.91646296,0.95803833,1.6695423,2.7553926,3.166955,1.2932063,0.7945764,-0.39094186,3.1779242,2.6791666,4.0254297,1.4831214,7.9792414,3.9661186,1.9764802,0.011366069,6.105666,2.3200834,0.16861306,-0.19099583,-0.6747445,-0.548225,0.9059551,1.5843955,1.0106522,2.831726,-0.7126155,0.50204575,3.7398455,-2.113324,-0.19385844,-1.0545814,1.882051,0.11078641,2.1058528,-2.191369,6.496986,8.260914,-0.35622156,-1.4592733,2.2585125,-0.88829255,-4.0916643,-0.02848357,-1.4406662,3.5612752,-0.094878346,1.6273179,2.336042,0.82430965,-0.118722975,-1.5977094,3.2947183,1.1435776,5.302905,1.0507067,1.8022614,-0.2996339,3.041336,-0.27613983,2.2119842,2.6315367,-0.86393505,5.988654,-0.72034585,2.794579,-2.139661,6.604582,3.7828586,3.1787353,2.0825849,10.07802,6.949176,-0.89124,-3.2995028,6.9552226,2.7255402,6.4818482,4.7136717,1.2209469,-1.973882,3.463032,2.6272163,-0.2644571,2.8581793,-1.8410405,-1.603274,1.6173941,-0.18240428,4.488826,-2.0245214,-1.4653698,-1.1777263,2.0117388,2.1494234,4.1050477,1.190918,6.7673135,5.1595993,-0.5024702,-0.6760386,0.56441975,4.7916594,1.0290997,0.23670569,0.19031286,-1.8878233,1.5042813,-0.5159307,2.7842216,0.29002178,4.0760207,3.5250282,0.5562054,-0.21713042,-4.8834453,5.3668065,5.9611225,5.3123164,-0.048674703,9.006021,5.5545664,3.4281886,-0.27459323,3.533757,3.5318127,-0.055992723,0.4144442,1.9311292,1.7165136,-0.6683905,3.377558,2.6804895,7.2172074,3.6252406,3.8989527,5.413846,-1.2579428,-0.46170074,5.7467175,8.94218,6.8199306,1.4882925,2.5061483,-0.98383117,0.42057264,1.7141407,-0.3985631,1.3866386,1.1227024,-2.0736332,3.9205234,-1.4547286,3.6044855,0.255957,-0.35319155,-2.122336,6.057383,1.0379515,1.7111516,3.218896,5.155687,0.79143924,5.559076,4.4682217,2.1341693,0.25728536,3.8577406,-0.65355265,-1.3414934,-0.8932848,-1.8331685,0.14018452,3.2343965,3.9192777,3.6306462,0.62340665,4.9345193,0.87617844,4.584834,3.8894649,1.7169499,5.478929,5.4414682,-0.38448757,0.2149415,1.279071,-2.124489,5.2465186,0.85168004,7.0121827,-1.5047075,0.79496235,-2.2888927,4.0107174,6.094444,6.488089,0.5611547,4.0650215,0.8253846,5.559899,2.143015,-1.0965725,10.022692,0.095908165,2.3722682,1.4912632,3.7623465,-0.5038768,2.5203824,5.000493,4.440188,10.660173,4.72459,-0.51718944,-0.87154925,4.9602437,0.8886288,2.7340107,6.6555195,0.4081794,3.1266122,6.9587207,8.375587,-1.6774274,8.081074,3.1217992,1.7527004,0.26581785,-1.3361504,0.0762898,2.2517624,2.757474,0.71949357,3.9042819,-3.8649385,1.6870197,2.8527374,0.39199743,-1.1661174,5.9915795,2.98497,1.3087661,0.5413223,1.8700699,-1.3091512,0.14797103,-1.6587873,-4.4603276,-1.776294,-0.039884686,-1.5622537,7.5855865,0.4963706,6.774739,1.0299606,-0.33042252,1.2466263,-1.0757257,-0.41872865,2.5160618,-0.9780483,0.54341805,6.443838,5.970765,1.4665868,-1.4298885,3.4158344,1.0612898,0.9285923,2.5447295,7.7127457,-1.0179876,0.8678192,4.4320006,5.014365,4.7273564,-3.2285025,4.3799872,-3.4302785,-2.986513,2.5091076,4.60884,-0.9390746,-3.9488077,4.5470467,2.3316727,0.024711147,-0.29548997,1.381721,4.854833,-0.7419446,0.4755875,0.4860438,0.7846716,0.102984786,0.21910536,2.9707425,-0.9477454,0.25246245,4.514368,5.885968,3.0428627,2.1787493,5.45424,-1.7587738,-2.160081,-1.2469132,-1.4944093,2.573587,6.02629,0.695397,2.8492227,-1.5668497,-1.3327684,-1.9549916,3.7219968,-0.8601886,0.9056134,3.251193,0.50616324,3.3740046,9.08271,1.2601751,2.1817093,-0.10343781,3.3571355,1.4127002,-1.3734658,7.4227753,8.115919,0.6192014,3.2537715,2.4776824,-1.4075322,7.3872027,8.905419,2.244759,1.337064,7.342931,3.0720532,5.4687552,0.946451,0.99467117,8.793703,-1.5554347,-1.3150846,1.6953024,4.5801487,8.307951,4.818606,8.78228,1.7281479,1.9188774,3.7674005,-1.5037647,3.0624683,3.1246622,0.2538594,7.186779,-0.504771,6.5717926,5.979297,2.285019,2.971743,-3.2726905,1.1501694,1.0316885,8.83898,1.1574843,-3.1720521,2.8416517,4.213658,9.578896,7.0414553,1.5057796,4.2364745,-1.7042811,1.153066,2.9406304,1.2055383,-0.040400207,2.2561188,1.2961471,3.4504385,1.4236977,-1.4681411,3.0961428,4.4270773,2.2412245,1.6880558,-0.09215064,1.1582,-0.37608516,5.262868,0.004567802,0.22342192,0.49168622,-0.15783212,-0.7550782,3.206429,4.817536,2.1272824,4.9804077,-0.027340055,-2.1907594,-2.686665,3.40739,5.926654,4.017346,0.039132357,-2.9459238,1.9026129,6.172343,-0.9814302,-4.3822427,9.020224,7.230071,3.4206543,-0.24423599,5.5963483,2.3212483,-1.2726777,0.07088053,0.7724318,-0.059827447,4.093491,4.323963,1.688168,-3.178013,1.6112314,0.7559832,0.15631688,-0.5442387,11.884632,4.0456166,3.4586773,0.5885083,7.773386,0.70962423,4.364723,3.765979,3.0447187,0.5346637,1.4962755,2.350583,-1.0163219,-0.7770193,-2.6970873,7.985367,1.3833996,2.9914727,1.7085524,-1.2129935,2.244752,1.262519,1.3403819,4.6060777,2.151356,1.1342961,3.826247,-4.468229,7.016726,-1.6209853,-1.3619603,1.2573342,1.7249398,2.3393657,3.260723,2.2834814,0.5177591,0.51238996,4.985726,-0.45776007,-1.1408674,-1.2035339,2.698719,-1.8211071,-3.1934185,2.282425,-1.0172691,4.36065,8.652123,3.563219,-0.49652955,2.1130743,5.3728113,6.2205887,3.6016383,2.3231368,-2.0733054,-0.1628272,7.755981,1.3101976,1.2327906,1.1196404,2.5986748,2.0404596,-0.21881855,3.0764158,-0.7204332,-1.4224998,-1.0072553,0.44444472,-4.6458235,-0.80982673,9.6889715,3.0235689,4.803951,4.4362497,4.318376,4.9907994,4.659816,2.7080998,-1.9719425,-1.7174263,0.3344195,-1.491612,-0.73186255,0.581668,0.7266083,0.3431335,0.6751651,-5.6758003,-2.505061,-2.351038,-0.46542537,-0.26807427,0.43675172,-3.306951,-3.3119693,-3.4910948,-2.5845594,-0.09633914,-1.555581,-1.3923714,-2.3132906,-3.2884789,0.6046623,-0.87638927,0.63398796,-1.2423671,-2.198048,-1.5986973,-2.4488978,-3.6762593,1.8309349,-0.9986264,0.8699744,-1.3426268,0.36366886,0.29886508,-1.219074,-0.7231256,-0.29050684,-0.97398114,1.5347393,3.0391388,2.3541524,-2.2149088,1.1035248,1.75751,-1.825078,-3.4087296,-3.8002815,0.7955945,-3.0440676,-0.6566222,2.669735,-3.4239206,-1.827775,-0.2662867,-0.63207346,-0.255458,-3.3043444,-1.5412309,-4.8741603,-0.3393737,-0.80035603,-2.2101257,-1.1394867,-5.048517,-4.539465,-7.1715364,-5.335956,-1.7414274,-3.641728,-5.107693,-0.8876706,3.547435