-3.1696968,-6.268198,-3.6566045,-1.0492287,-2.5834522,1.8323691,-2.5347033,-2.1720023,-3.425359,-2.7345932,-3.0375915,-4.308254,-5.740343,-3.2203882,-4.4827375,-2.3793635,-3.3966382,-4.969962,-3.0294096,-2.9716628,-2.4186082,-5.1023464,-6.1439385,-5.687964,-3.9923186,-1.987627,-1.1185873,-0.2723021,0.35339063,-0.21791202,-4.122615,-3.110766,-1.4831022,-1.8694612,-1.5770426,-1.2484608,-4.1794147,-2.660693,-3.0749109,-0.5353547,-5.9441395,-4.1669016,-1.9024016,-3.7051342,-3.158352,-2.7428463,0.43143392,-3.5313177,-0.52227134,-5.0632935,-5.0027485,-3.8632567,0.26010966,-0.103147745,0.19809133,-0.48624521,-1.6624502,-1.9316685,-2.1494896,-1.6354036,0.7721165,1.1850193,-0.8904052,-2.0577903,-3.1477623,-0.17164016,0.7368313,0.5880981,-0.13050282,-0.7289109,0.7843408,2.0448856,3.0898676,1.1422064,1.2499237,-0.36167985,1.729852,-1.0438113,1.9336891,1.9473735,1.6281979,-5.6701875,-3.9659915,-5.0524983,-4.550567,-4.547183,-1.3680454,-3.2252738,0.9412786,-1.1445266,-2.465922,-6.262802,-4.8557014,-3.052743,-4.2268376,-1.22802,-3.330554,-1.3922026,-5.7994595,-4.0136995,-1.4847293,-4.597186,-3.4686327,-4.983814,-2.9943697,-4.358562,-5.765715,-3.6173544,-4.5732284,-3.627754,-3.7736268,-2.3698723,2.5164783,-1.1401404,-0.44252342,-0.73708355,-1.9554389,-3.720171,-0.33675027,-1.1684169,-3.4512987,1.3228843,0.9937693,0.40744203,1.4303333,-0.039153397,-2.8934538,0.83344287,-2.1640246,-2.946024,-0.5008897,-2.0639892,-3.4250364,-2.4123688,-1.8218635,-2.6974974,-2.1260617,-4.8091774,-6.2515993,-2.9682884,-3.9053698,-3.473566,-3.9204977,-1.034125,-7.0201693,-2.1220002,-4.41236,-4.347204,-2.1676872,-1.6171019,-2.192902,-1.3110754,-0.038562387,-1.6509862,-0.54103553,0.24603462,0.604953,-1.2329118,-0.54766583,-1.8966972,-1.5913727,1.6848563,0.020167232,-1.8377861,1.5336185,-1.2828152,0.52462053,-2.3805559,-2.2384636,-2.0419006,0.7016699,-0.7289739,-3.1636906,-2.2210183,-1.2601314,-0.43510413,0.6090507,-2.472122,-0.6844004,-1.2710488,-1.8409386,-4.6101837,0.37381893,-2.2204192,-1.1902097,-1.9749973,0.7282032,-0.5782572,-0.95594394,-0.5167941,1.1542572,3.020084,-0.47974375,-1.0726404,-2.2463846,-1.0634255,-1.7843502,-0.689399,-1.3741267,-1.7291412,0.2441656,-1.4763503,-0.5752832,1.7880108,0.56746614,-0.81366324,-3.2181036,-3.5428686,1.4679692,0.12494472,-1.332715,-4.0630965,-1.2126187,-0.36861378,-1.4347425,-0.23618463,-2.1327407,1.0369207,-2.3641055,-1.8849888,0.20267591,0.13776535,-2.4853086,1.9190812,-1.3388207,-0.048732936,0.48863527,1.501985,-1.7339575,-1.5658284,0.97997606,-1.2748864,-0.26899958,-2.17799,-0.2877239,-1.380723,1.2958784,-2.4041,-3.0869555,-0.8345692,-0.30347854,-4.0880494,-1.1557332,-1.9634463,-2.3084574,-0.9506823,-0.66266084,1.7521338,0.9435592,0.19784129,2.8512237,1.7665467,1.0419074,-2.384709,-4.204785,-1.9324281,-1.0156466,0.88069504,2.7945526,0.5334685,-0.53394854,1.2525375,-0.7387707,-2.6665611,-1.6261425,-0.121962786,-0.0046719313,-3.355649,-2.468934,-3.3467412,-1.3131906,-0.9044557,-3.6155322,-1.2312069,-0.34354186,-2.3814893,-2.493125,-3.1130927,-1.0936112,-1.3808975,0.8047553,-1.356876,-1.9140764,-1.8391267,-0.7500559,-1.1266952,-0.60652435,-2.2192059,-1.6219039,-3.0584004,-1.503903,-2.704737,-2.5753446,-1.9052618,-0.86882645,-3.559547,-1.984081,0.2495147,-3.5850897,-4.852702,-3.0160093,2.054547,-1.9168079,1.6538968,2.124103,-0.72300696,-1.1460483,0.57315195,1.9325352,1.7137502,-2.7455628,3.8305352,1.91012,1.922098,3.2338982,1.8808542,4.5670204,-0.226058,0.7361877,1.2130806,0.9552251,-0.40195578,-2.683243,-5.2571855,0.33959413,-0.35283613,-3.7619536,0.19459641,-1.2770195,-1.1099973,-0.41095382,-0.17419845,-0.2800737,-0.90474916,0.016470034,-3.1721807,-4.3259225,-3.4234958,-1.9648151,-0.68411314,-2.161067,-2.8726056,1.0782729,-2.6762574,-3.4915986,-4.6495514,0.75173485,-3.5425913,-3.9125571,-1.6675348,-2.3749094,-0.92676485,-3.461554,-2.1359334,-0.3100053,1.1810167,0.3545711,0.3831213,-1.506246,0.8489795,0.43849924,-3.0314121,0.9997393,0.5107245,-3.7661247,-1.4905999,0.75819933,-2.3699772,-0.77711225,-1.5725846,-2.1200805,-4.791822,-3.1572776,-1.8368227,-1.2683184,-3.5151746,-4.1497207,-0.86179346,-4.1588707,-3.1046605,-3.2164168,-4.7858095,-1.0522606,-0.6338167,-4.395695,-5.0110025,-0.9610369,-1.9481717,-3.5973792,-3.007997,-2.9122348,-1.7096521,1.1047168,-4.503509,-4.267396,-2.0857477,-2.6999686,-3.6772647,-3.8088493,5.544422,-2.4642596,0.2699905,0.20090732,-0.71310645,-1.0144267,0.2964611,2.289072,2.0023096,0.68334496,2.0078073,5.0225887,-3.1239574,1.1442124,3.755497,0.68253136,0.32014224,3.9027061,4.375145,-3.5314403,3.237183,5.3123813,0.5875635,8.35183,2.4500105,3.9442258,5.1097054,0.08995417,3.2049851,-0.61992985,3.4530497,-0.8423502,2.338554,0.5121678,1.1840008,2.515987,1.5338469,2.8199096,1.6015604,-0.43485725,3.1405382,-4.2747865,0.20612448,0.41857374,-0.6723335,1.9845265,3.9167101,0.27360594,4.5093784,2.1325634,-0.11854386,-1.2093964,0.7581408,-0.8313042,-3.7483375,-0.064039886,1.7070096,1.4234996,1.8583217,-0.26695502,3.3992002,2.7628386,-0.7747317,-2.0849,1.0058525,0.64759105,5.134902,0.11727378,-0.8674872,-0.6601214,1.6756423,-0.8504742,1.7033057,2.9837463,-0.44206297,4.2410955,-4.24808,5.14481,-2.3330467,1.4756261,5.447432,0.43366656,2.950191,5.7287045,2.3280022,-4.201909,-1.0634526,2.3759203,-2.5225039,3.3911927,3.049394,5.7599587,-2.1411626,4.282028,2.2134662,-0.78495985,1.638965,0.6814765,-1.2554524,0.06919742,2.4619446,4.1937056,-1.2606719,-2.6188211,-0.7611418,-2.3953273,3.1186275,1.7132566,4.5695133,0.93827975,5.833259,0.02640289,-0.2599014,-0.8313769,4.0868645,4.831175,0.8385979,1.5540922,3.5068886,5.164351,-2.4261773,2.4120326,2.1197977,1.0452049,-1.1562738,1.889985,-3.4268699,-0.34894556,5.774388,5.4253006,1.2119796,0.10011053,4.6844187,0.87906146,5.589584,1.1241448,3.9154136,1.798735,-0.30879045,1.7494904,-1.490082,3.35611,0.52125776,-0.073991105,4.31711,3.527254,-0.5897618,1.5593623,1.0014886,1.474726,-0.24963379,7.8583107,1.9053969,2.3070073,0.8194982,-0.41641688,0.4890499,0.14300056,3.8517714,-0.35748237,1.0667057,6.693733,4.3333144,3.7884676,-1.8531055,1.513259,0.13408136,3.7324786,3.2955337,-1.0629451,-0.31772208,-0.4623712,-0.77869356,2.1640823,-0.049527466,0.304578,3.6066823,0.46435598,-1.4702829,0.041252673,-1.6111095,1.1623338,-0.55479324,-1.7165792,0.21579504,5.6488338,3.1896846,1.9090898,1.8274153,5.634442,-2.4881887,2.9637094,1.8647257,2.9201217,3.4913173,4.5742025,1.5739266,2.2343783,3.9810948,-1.3013022,2.6319556,1.9974213,6.2018213,-2.4861329,4.241825,-0.048883557,1.2536399,3.4737988,4.168792,-1.5011256,2.6002915,0.1569283,1.4579177,4.481381,1.5776685,3.7634625,-0.7313211,-1.5078934,2.717185,2.7603579,1.6498334,2.6063218,4.9804,0.78367114,1.956527,1.5889192,0.3585233,0.26518512,4.4534082,0.8542993,1.3807458,2.952108,-0.5037763,-0.67997825,1.6408391,6.2554917,1.4363642,3.2374167,0.10487482,4.2297387,-0.9053026,-1.974978,2.5647938,-1.067555,3.0691998,1.2398756,8.188629,-4.2264066,5.8574634,3.3550534,-0.44109622,-1.8475718,3.3286362,1.2035593,-0.8671845,0.4412154,0.09739065,-1.9092162,-1.1137238,1.2959142,-1.1555896,-1.6833465,1.7661581,0.048190832,3.9904215,-0.22390288,5.3612585,-0.67680466,0.9601686,1.4346075,-2.6450393,-0.26680404,-0.4028636,1.9781823,-0.5789509,4.7018723,6.765003,2.119432,4.373816,6.039419,1.0470488,0.581632,2.1753905,3.6517327,1.0832803,1.2870804,1.0148641,0.31626797,0.516811,-0.5581938,4.541657,-5.854209,-0.95182115,-0.7831398,4.417654,-1.1558802,2.1700788,4.3883247,0.6647645,-0.355927,-2.284339,0.52946013,4.1360025,-1.2731805,4.9911833,6.632633,3.9494114,2.9848297,1.3223648,1.4763482,0.41610274,0.97470057,2.876598,2.9402654,0.32090217,1.0627007,5.9909964,-3.2787967,1.3642478,1.7146038,1.4782588,2.6420069,2.5749817,-0.15847147,3.4679103,-0.3623601,-1.3618748,-0.93284047,2.359835,-2.3127031,3.0778358,6.120759,4.633326,1.8726131,2.1810725,2.791453,1.4042141,-2.8993227,-1.0448022,1.2285016,-1.7360749,5.298339,4.033945,0.53490657,2.441045,2.4794798,0.7275875,3.9972434,3.7411222,2.1799717,-0.90733325,-0.21134722,0.451159,-0.07016984,1.3675733,0.93213886,2.691386,1.5549924,-1.771836,3.6871529,1.526721,1.14068,2.3609705,3.4664612,2.4961703,1.9564334,1.0053227,5.72836,2.5652058,6.5582256,0.6965308,5.6518908,0.80628467,2.773601,6.7495747,0.96986276,1.4954598,-4.545227,2.2027297,-2.0350718,6.024047,2.2349222,-2.3461046,2.3365343,4.634344,4.611538,3.044262,-3.2371202,6.641722,-0.47677135,1.9827048,4.376422,2.9183707,6.3622875,1.7327611,0.2787773,0.8269049,2.2174156,-1.9159086,-1.0901272,2.9024591,1.1651922,-1.5443747,-0.32451284,-0.13952726,4.1023135,2.1101246,5.350972,-1.54771,3.767596,-1.462415,1.3868396,2.0593965,1.7227643,5.9161158,2.9384003,-0.7273386,-1.6673453,0.021998376,-3.1681223,3.6429844,-0.39670852,-1.6101991,1.8941045,1.4920876,3.7301192,-3.8972483,1.195875,3.034372,3.1329987,1.9369552,0.42517495,3.9086015,5.073139,-2.7537756,-1.3791121,-1.4609075,4.024827,6.033496,5.337076,-0.67858136,-0.31069815,3.681204,0.52619964,-1.028592,4.559207,6.2195163,3.9534063,2.636387,0.07678127,2.8650112,-0.322289,0.8660003,5.6217422,0.7732069,-2.8538468,-1.8840163,0.7239045,1.8145593,0.8807909,-2.233461,5.9502935,2.2330112,2.4009492,-0.89069474,0.03282261,2.158891,0.5010321,3.1147404,2.9520411,2.666033,-2.1114402,3.5942643,-1.8002512,3.0767934,-2.3646846,-0.6906347,5.0199237,2.1242743,5.5443406,0.97682667,0.47840673,0.5586154,2.6500278,0.74158084,-1.8357085,-0.78341925,-2.4716828,1.9610096,-1.2044494,-1.3359311,-2.4531174,1.5490501,0.08359055,4.775874,0.8747754,-0.2099236,0.28089988,4.634345,1.7207155,2.202571,0.25513333,0.488963,-0.21341729,1.2836585,-1.5457081,2.61246,0.9067924,-2.3292108,3.1809278,2.135571,1.0618598,-0.11906141,-3.0014453,2.4303827,0.75298566,-2.234774,1.3245823,7.007723,3.7993226,7.4980974,9.720101,6.2008424,6.4092207,4.052067,1.7394755,-0.70838964,-2.5814052,-2.5428362,-3.895369,-0.52285933,1.393724,-0.016748786,1.2461246,5.350625,-2.118576,-1.1408069,-0.91505045,0.5523263,0.5523904,0.8006954,-2.588216,-1.6155577,-3.364022,-1.5741291,1.0770844,-1.7101052,-0.18784928,-2.6887927,-4.0522447,2.4661694,-2.777685,-1.1614575,-1.7564381,-4.2260213,-1.8846276,-0.016734958,-3.9640133,-0.40514484,-2.565263,0.035911005,1.4221816,-0.8467655,1.1277462,-0.5332765,-0.10520019,-0.86949074,0.9241297,2.530986,0.74526274,3.221758,1.0053023,1.8443263,0.04975605,-1.8775885,-4.2769094,-3.0831347,0.24399126,-3.271826,0.7316936,1.4272807,-2.9390647,-2.4092908,1.1708782,-1.8718507,-0.49610174,0.22638509,-2.6349978,-6.3491015,1.1672227,-1.6423992,-1.9552386,-6.84898,-2.0882082,-5.104085,-3.1067936,-2.8172085,-2.2939734,-3.6852071,-2.9677305,-0.46495157,4.3172865