-2.769991,-5.299742,-1.0760962,-1.4524968,-2.8960028,-2.7238839,0.9426223,0.44931167,-4.011692,-1.7864332,-0.65578765,-1.5850282,-2.1559083,-3.2767608,-3.377317,-2.9547715,-1.4182653,-1.3804603,-3.1354835,-1.5116558,-1.9543879,-5.224165,0.67622817,-1.643779,-0.87978315,-0.6825081,-3.297705,-2.8369222,-1.2392023,-4.5918083,-2.6177554,-1.5357025,-3.849735,-1.5146143,-2.1952298,-1.032323,-3.473967,-2.052691,-2.4909902,-0.5687687,-6.6686015,-4.0768886,-3.5554595,-4.369261,-3.6266222,-2.9376462,-0.8125477,-3.7505755,-3.2517953,-5.3120303,-3.1978347,-1.6512272,-1.6459143,1.3248006,-0.30609018,-4.3903394,-1.7486144,-0.39074683,-0.41204956,0.0034307241,0.18456209,-0.112932265,-3.8094664,-5.1542435,0.28290766,-1.053626,-1.6139668,0.8343879,-2.932074,0.4657464,-2.506407,0.7260456,1.4078385,0.70114386,0.4155451,0.32966596,0.35025525,0.18589616,-0.38265336,5.338629,-0.72540146,-3.9017382,-0.9609558,-4.817537,-1.9742583,-1.819491,-2.1055388,-4.279559,-3.2110012,-3.0275311,-4.0435777,-3.57769,-2.2052646,1.2720432,-3.2426982,-1.0703123,-1.565207,-1.9851668,-2.9066086,-1.7490393,0.7567172,-2.04262,-5.473055,1.1681527,0.74225616,-2.5219915,-4.315545,-1.171748,-0.6759069,-1.3716943,-0.9661881,-5.747632,3.5549498,1.2465243,0.5846593,-0.825716,-1.9293363,-2.5901685,-4.005633,0.95239806,-3.0011318,0.4468747,-2.219616,-5.101312,-3.8549476,-2.373451,-3.2139976,1.9473913,0.86817163,0.8057872,-2.4616435,0.21032727,-2.6329012,-2.8532314,-1.0295473,0.6476966,1.5484257,-0.8865002,-3.1345363,-0.5115186,-0.7619591,-0.78448325,-1.8520513,-1.9725282,-1.1618686,-2.836965,-3.3575878,-2.5082264,-4.3160453,-1.9106705,-2.6737986,-4.78902,-1.798395,-1.8981886,-0.3979708,-0.94664115,-1.437392,-2.7019575,-0.7864889,-2.3725119,-2.8006992,-0.04168056,0.90563107,2.3673425,0.72908425,-0.7627848,-0.9854733,1.7811248,0.11883283,-0.45798275,1.4346268,-0.4488605,-1.2914151,1.9358907,0.016081274,-0.9018327,-1.3249149,-0.8319871,-3.3456292,-1.2210913,1.9068218,1.0720625,-0.6849222,-1.8946192,-1.0829504,-3.6783912,-1.1131806,-0.6521545,-0.54811215,0.8083642,0.77087724,-1.5033103,-1.1311799,-1.1797682,-1.6904042,-2.914967,-0.8323064,-2.262186,-1.7186996,-2.6126885,0.7900917,1.4064744,-1.3612492,1.3737404,1.7260525,-1.3079892,-4.4444857,-4.0764976,-0.36538446,-0.89545476,-2.228417,-2.9340465,-0.6103265,-1.7347466,-2.2325513,-1.898063,0.18075728,-0.57690763,-0.4364032,-2.3640094,-3.3087063,-1.4282237,-2.3623571,-1.6111672,-0.824538,-0.68488324,-0.97989345,-0.9262,-0.75886405,-1.2611707,0.03117466,-0.508329,-0.807721,0.511452,-0.8609841,-1.2331862,0.004175931,-0.27757168,-0.9416812,-0.37488484,-2.8280256,-0.64026666,0.6441885,-0.60597,-0.84934014,-2.4262586,-1.4079912,-3.315396,-0.8910595,1.6815999,0.22245732,3.1520805,0.62348455,-0.8694829,-1.4862852,0.48836353,-3.8879273,-0.53049743,-1.8432355,-0.29799068,1.14376,0.57315344,0.7818509,-2.317842,-0.09152675,1.1330286,-1.017976,-2.062695,-1.8965884,-3.799777,1.8834561,2.9995303,-0.60470724,1.77328,0.4313925,1.7762269,-2.4776723,-2.2502277,2.2092717,0.6877558,2.365857,0.34080216,-1.7395042,-0.63360333,2.0695686,1.0843142,0.032860592,-1.5133004,-0.36526674,-2.248707,-2.179375,-1.6933726,-0.34338945,-1.6628696,-0.7022363,-2.003613,-1.9135389,-0.3789461,-2.867477,-3.844035,-0.19977438,-1.0361384,0.93377936,2.2668362,0.7877131,0.29312932,-1.7608528,-2.329843,2.1237447,-1.3733242,-1.1775084,4.320385,-4.436378,1.4432667,-1.8158643,4.9524617,-0.3456085,-2.8146532,-2.5924463,-1.0719965,-5.044619,-4.5856724,-0.91602397,-1.5294522,-1.2637129,-2.7540426,-1.0522425,1.4653127,-1.5796392,-0.61009634,-4.1638484,-1.2911196,2.9057102,-1.6247956,0.043938994,-2.4636548,-3.512648,-3.80166,0.591877,-3.510594,-2.7220187,-3.985056,-1.0806547,-1.7276356,-2.7404747,-4.447168,-1.5552808,-2.7636776,-4.5018044,-4.314185,-2.9570594,-2.238311,-2.2354803,-0.16170013,0.32528585,-2.6613226,-2.588181,2.4346774,-1.3393688,0.3014524,-0.94585586,-2.0602524,-0.83539665,0.78168076,-2.0198178,-1.7692719,0.2337383,0.30024943,-2.4662793,0.62034935,-3.5106225,-3.172824,-2.1022189,-1.7289162,-0.27418953,-0.5244682,-5.1827235,-0.5022929,-5.277972,0.0616185,-1.2781637,-3.0181704,-2.7468925,-2.4084907,-1.6996241,-1.7829673,-2.5039692,-4.5249324,-5.106739,-3.5552473,-0.8320698,-1.9519371,-1.7296962,-2.14025,-4.6619453,-6.4979353,-1.6844223,-1.0190277,-4.0388904,3.2089624,-1.1110207,-1.9665886,-1.9365773,-1.2347398,0.27274573,-2.8885152,-1.6611433,-0.7898723,0.14478818,-2.084883,9.579878,-2.4564679,5.205243,2.3502836,0.9171584,3.421473,-0.42899346,-0.70880115,0.91809195,4.96023,5.2472525,-0.63400173,-2.907174,6.1816273,0.63849133,0.8796088,0.6290957,5.884018,2.0726912,-0.34781435,-1.9939079,-0.76800585,1.3952997,0.22624363,3.4928489,1.7663021,2.5870152,-0.2645804,0.12723577,5.0648046,-3.2991767,3.7176085,3.0278122,1.0199969,4.9057174,2.2077386,-0.9389455,5.45496,1.9381243,-1.0338272,-4.034086,1.1523727,-0.36148378,-0.76205057,-0.580915,0.7426572,2.9593284,-0.6834396,2.4166508,1.0461662,1.6545162,-0.94340444,1.1869898,0.8359177,3.065225,3.060225,0.98730356,-1.8625588,2.8575604,1.8420361,-1.0532017,1.6738784,-3.9510627,-2.7791557,2.3121645,-1.4055008,-2.4008253,-0.37478852,3.6969285,4.95317,2.2240503,3.4600058,3.2899756,-0.5250103,-1.4981945,-4.8811436,1.1650329,0.7876186,8.61702,1.7554836,3.070403,2.3282516,-0.14851242,-0.22128159,0.86743724,2.1703873,-4.407372,-0.15131092,1.7190212,3.0711017,-0.2058698,-1.8974282,-1.7956594,1.061161,2.515715,2.4127302,0.036854178,-0.60412574,6.079497,6.361177,1.3282177,-1.9292725,-0.799878,2.807745,-1.6321402,-1.8740001,0.42128104,0.0055731535,-2.1053617,1.1420872,2.550639,1.347139,1.1473606,-0.07906151,2.380549,0.90683055,-7.01026,2.5604641,2.1300728,1.6331017,4.1410923,6.240965,5.896793,1.1846445,2.6485639,3.897283,0.8399223,-3.0718372,0.57973266,2.5702457,3.2123237,-0.8990895,1.6032574,2.018365,5.6580086,0.22947577,-0.21264073,1.5377133,-2.4921002,-2.9417362,5.458471,3.762552,5.392594,-0.33719656,2.8507516,-2.625057,1.4277687,2.1897638,-2.4439356,-1.8651948,3.1044412,-0.4492386,-0.3272801,-1.931431,2.628803,-2.9443493,-0.2233246,-1.7566301,4.6316566,0.54392743,-0.6083572,1.4146197,4.4720073,-0.36236548,-0.106553614,6.582832,-2.4473355,-4.278511,3.1484745,0.17181745,-2.7101855,-2.956819,0.2217471,4.391206,-0.20068878,3.5938752,3.903965,-2.484171,4.0540786,3.048935,3.3726497,6.818223,5.784935,4.5834627,0.57430685,-2.5571785,-1.7624638,1.9565039,-6.353061,-0.5166223,5.689987,5.2671733,1.4570131,0.9357891,-1.9653931,1.4155792,4.494902,2.9100256,-0.6218388,1.2730898,-2.5416384,5.596269,4.1051884,-0.7779644,-0.4652263,-1.1177639,2.0890894,1.5047879,3.658144,-1.0236863,3.1903636,5.959288,0.53471506,1.264228,1.9744295,-1.9928181,1.987303,1.4060614,-2.1500385,-0.69120145,1.7236693,-2.3098567,4.487399,2.649359,2.690155,-2.0140882,6.3702703,3.6600175,2.320349,1.9570974,0.9786567,1.7708216,2.4348345,-2.7911327,-1.1471484,3.026013,-0.55402243,3.626617,7.324946,-0.20943508,-1.3593087,3.9790463,0.35910553,-0.29016858,-0.69107884,1.3286006,3.432532,0.32655793,-2.414518,-2.7620769,2.1265724,-2.2254236,-3.4626799,3.423376,-2.3862226,2.2073274,-0.014986783,-1.9205823,1.0387305,-3.0663528,-1.0135944,0.60201,1.238196,-2.1858928,5.981577,4.509033,-2.515243,0.08742374,4.3649893,3.9815583,-0.43580836,4.5298905,6.6524506,-1.2028524,-1.0160228,1.833714,8.198408,6.004289,-0.884333,1.6998463,-0.93822485,-1.3864343,3.0953147,5.8654804,-1.5510718,-4.2161236,2.7739143,4.547561,4.776984,-1.1596348,-0.036850564,4.715043,1.297951,-0.17197177,-1.1281856,3.0054698,-2.2559862,-2.2803826,0.9704373,-2.493458,1.0156159,0.2945807,2.8989573,4.4830637,1.8432996,4.7459955,-1.6332492,-0.05073297,-3.4647112,-2.4940398,1.7535067,3.9391065,1.3147345,1.5889169,-0.37773138,0.9211943,-1.6832888,-2.2885442,-2.1336603,2.9606647,0.798722,-0.16747892,3.006711,-1.2514082,1.021704,-1.3621926,2.8697064,2.8507004,3.802138,-1.1756933,0.77534044,3.1146379,4.2324495,1.8896719,0.093134046,0.074636996,-0.83174014,4.435499,2.9986143,1.8348676,0.8167926,4.355038,0.16420251,3.064691,-0.97212785,3.3307378,-2.4602559,-2.462575,-2.1972222,0.4959634,1.4815422,3.6717267,6.3770146,-0.26583618,-1.0154381,1.9950242,0.035117015,2.0976145,5.1411195,0.12892076,5.9874535,0.49246934,2.641503,7.2260213,-1.6627128,0.2517991,1.073716,-0.72712016,-2.9225457,5.165559,-1.2394174,-3.0379686,5.8295345,3.3343997,6.8268137,3.7539444,-0.7283926,-1.8622416,1.5628998,0.9221853,1.9075121,1.520585,1.5943496,1.0419784,5.422575,7.6132026,-1.5273116,-2.737969,5.078583,3.5637896,-2.5620966,3.2466836,1.7558123,-1.3208022,-5.459314,1.6077784,2.6920574,-1.2594336,-0.6451806,0.59125996,0.5822518,4.2926383,0.62208796,-0.61693996,1.8920913,-2.0766687,0.7043712,-0.20793793,-0.52192885,4.450831,0.5506988,-3.6648417,-3.0001423,1.7427976,3.412696,0.4350437,-1.3205053,7.6933346,-1.4795401,3.8915637,-0.19294965,3.594823,1.5156565,-1.4290206,-1.134342,0.607886,-0.3478439,2.1886299,2.9545627,6.1011896,-3.0668159,-0.8807961,5.4324512,2.5265596,0.42069942,5.5454235,4.150204,0.92405593,-2.3174348,1.8578703,0.14853793,1.7733229,4.6548896,2.6498532,-0.16542226,3.4390156,2.537581,-2.0339415,-1.4861634,-1.058829,1.3845136,2.4798357,6.771091,0.9515182,-2.8572588,-0.4617033,1.2839416,-0.7619098,-0.901972,4.2687073,0.76100326,2.9964125,-3.361445,3.701988,-0.057599954,-1.9943464,-1.3148562,4.1868973,1.4819247,5.833376,3.5955086,0.83817375,-1.7391043,2.1044254,-0.10571468,1.6004254,2.7169678,1.2128836,0.2834589,-2.4920695,-2.8745136,-1.1785014,3.2878318,9.696702,0.5467024,-2.4900918,3.4318352,3.7998128,3.8901536,4.0422287,1.1369028,0.81247795,1.5931895,2.8929784,2.4787295,1.21121,1.2928457,3.9259481,2.9899895,-1.1904396,1.766356,-0.14453197,3.372263,0.17151275,0.8994347,-2.445949,-4.155724,6.876769,2.490594,4.265321,4.635669,1.5038974,2.7306511,6.819994,0.68649775,-1.1208471,1.3008908,-0.75320077,-0.71745723,0.7224669,2.2223587,-0.10334352,-0.82473934,2.2178335,-3.8174338,-4.1071944,-0.6203519,2.6129968,2.476915,4.0595236,-0.45529628,-1.197341,-1.6924559,-2.4719164,0.19346258,1.5229467,-1.2229607,0.7305764,-0.31398448,3.3173094,1.669234,1.2265921,0.8202257,-0.102341235,2.6588707,2.916226,0.17775637,3.1803806,1.018537,-1.0396135,-2.8265843,-0.1276213,0.048537254,-4.2986407,-0.88411766,1.7812186,-4.22662,0.75311196,2.2266731,4.0820045,1.0745217,1.7792532,0.69066477,0.98774457,-2.0238628,-4.032018,-1.0073195,-2.5080037,2.0875545,1.8405235,-3.5842328,-1.910774,1.1844996,-3.9037397,-1.401367,1.3821748,1.929968,-1.6689065,3.7745976,-1.485839,-0.9648019,-1.9703335,-1.1772459,0.03965938,-2.5961416,-2.4233456,1.4862193,0.103077486,-1.036407,2.9753473,2.9642024