-2.7511992,-3.9208057,-2.6636937,-3.2533934,-3.14963,-0.87111497,0.2299106,-0.9169709,-3.2531874,-2.9811258,-3.4832897,-2.859305,-3.742519,-4.3216043,-4.2658253,-4.9532146,-1.3294823,0.3517741,-4.8220253,-3.2227457,-3.7962465,-5.0806327,-0.4124395,-2.7345138,-1.921424,-0.99588645,-3.6236866,-2.9331477,-1.30613,-3.4919617,-3.6606166,-1.7014287,-3.411618,-0.9602035,-0.7927245,-2.6107507,-1.1066402,-1.5475161,-1.0680063,-1.6744759,-6.1591263,-6.3004713,-4.851527,-4.8973737,-4.075296,-4.680283,-0.5612227,-4.530255,-2.9809368,-6.0920177,-4.4181547,-3.2053354,-1.6513162,-0.33026624,0.09024888,-1.9790733,-1.6704997,-1.1829193,-2.8719845,-1.5321848,-1.5162767,0.035683155,-2.928688,-5.2701926,0.96974385,-2.7068377,-0.7493664,0.54062897,-2.3194022,1.2968812,-1.6197431,0.5058465,1.0063288,-1.7731469,-1.7671518,-2.1012986,-2.1442034,-0.8626161,-0.74976885,2.8054307,-2.5610077,-2.2555346,-3.0609002,-4.347688,-2.013278,-3.297044,-1.8608029,-5.3494596,-3.6336758,-2.9268682,-2.6626766,-4.925109,-2.3724272,-2.7376578,-3.599618,-3.8828568,-3.4289508,-3.1882818,-4.143096,-3.8359785,-2.0541487,-2.967666,-4.7746778,1.6713419,-1.0516958,-1.8925064,-3.083564,-1.0095296,-3.4798608,-3.410737,-0.89193285,-6.0877953,1.4237674,2.3646784,-0.3058106,-1.2813716,-4.0751877,-0.9661697,-2.4033308,-0.7156123,-2.6529498,-0.14064232,-2.233107,-3.3031607,-3.493167,-1.4998908,-1.3524164,0.6100989,-1.8924408,-1.3903601,-3.140123,-2.191372,-4.1166615,-5.1209025,-3.841006,-1.9396706,-1.1911048,-1.7762109,-4.1343536,-1.4640459,0.560367,-2.3268318,-2.044301,-3.3373442,-0.49139333,-4.4161015,-4.5853505,-1.5729074,-5.401698,-1.8163472,-2.3072672,-3.780344,1.1882997,-2.0078402,-0.97781265,-1.0513759,0.5900219,-0.81283605,-0.36486012,0.4061446,-1.6913927,-2.589201,1.2284656,1.8733169,1.1147532,-0.38947177,-1.224414,0.2845288,-0.5772702,0.0063925087,-0.9940133,-2.3343332,-0.84183335,1.661242,-0.68134004,1.073653,-2.5903077,-1.3777608,-4.503217,-0.9514656,2.5017521,0.6783642,-0.9437853,-0.46813565,0.55376416,-1.8249457,0.5187721,0.3812881,2.4644742,1.5628729,1.0697157,-1.514368,0.97458434,0.033947714,-0.8661987,-1.0331547,1.7646996,-0.51300913,-0.3066006,-2.1938176,3.6402316,0.11138433,0.26648563,1.6164494,3.2490222,0.29360378,-2.1503277,-3.788434,-0.81870997,-0.6113616,-2.2705028,-1.8526089,0.38784316,-0.20394383,-2.218848,-0.9091816,0.87704164,-0.94036615,0.029501855,-1.6914997,-1.7795774,-1.4530855,-3.6322842,-2.5179446,0.05249095,-0.47996464,0.62700784,-1.2770537,-0.01248312,-2.8994823,-0.26821038,-0.19254038,0.022702754,1.2757335,-0.9645517,1.4071543,0.9701954,-0.052125096,0.2965516,0.13464057,-1.570885,-0.59650904,-0.94490474,1.1913178,0.5724144,-2.2334058,0.78614485,-1.3940651,0.70485526,0.7547176,-0.27815858,1.3621347,1.9699346,0.53355664,-1.4679246,3.3014722,-3.109181,-0.48445025,-0.7947635,1.5620927,1.1486082,1.7528825,2.4456935,0.62569046,-0.43107706,2.0552642,2.5434992,0.9475363,-1.3702195,-3.0056272,1.4045113,3.3461413,-1.1757858,1.7216872,1.0161694,0.6701624,-2.2033787,-1.0583526,-1.3010604,0.87730217,2.959427,-0.19736639,-0.57966113,-1.5714324,0.32472622,2.33157,0.4018672,-0.77311623,-0.48268968,0.02776581,-0.7351953,-0.5328019,0.4427879,-1.5663742,0.30223304,0.22893122,0.45312575,-0.36048526,-2.29064,-2.2515817,-0.2361899,-0.39487255,0.22571272,1.6301029,0.6493986,-0.16814542,-0.5427688,-2.8609347,1.0580502,-3.00981,0.13445342,2.281939,-4.505286,-2.6153278,-2.245531,3.8855443,-1.248455,-3.9924345,-2.9788895,-2.4068527,-5.726655,-8.135371,-0.59214544,-1.3124079,-1.750776,-3.8278456,-2.5922508,1.328866,-0.251926,0.61568904,-4.2192125,-3.311298,-0.39068976,-3.498921,0.98387015,-2.6116652,-4.0295196,-1.6675241,0.21228352,-0.60879314,-5.467636,-3.4961004,-2.3578846,-2.967133,-1.884672,-4.481117,-0.26016593,-2.326537,-1.1671636,-2.8295474,-1.8939124,-2.4795122,-2.7865875,-1.911424,-0.5485329,-3.8959458,-3.8499866,1.2278051,-2.81112,0.18846405,-1.106507,-1.1068532,-0.90872693,0.4721442,-2.077039,-3.132151,-1.1514266,-0.64255154,-1.2401228,1.8702371,-1.353456,-0.651469,-0.33039036,-1.6854689,-0.508447,2.704248,-1.0390863,0.12161185,-3.5575752,-1.0042288,-1.1439786,-1.5364513,-2.7646124,-2.1556973,-0.45667383,-0.80083865,-2.6468515,-4.394919,-2.148911,0.0637362,-2.9285724,-2.64475,-1.6520509,-1.8934264,-6.4117374,-4.4424896,-3.7900538,-1.7503241,-3.2208624,2.251929,0.1284393,1.1167336,0.24594316,2.5099974,2.8435526,-2.1310225,0.5653824,-0.0266134,1.7646642,-1.6690361,7.9843445,-0.8792529,5.3697715,1.859942,3.3181493,3.568421,-2.2737627,-0.08458549,0.19576707,2.1396418,3.2601957,1.3686311,-1.4319938,4.183288,4.2384663,1.4336579,1.1021514,4.0695825,-0.773804,-0.64323807,-1.7737808,-0.1586124,-1.0527629,0.8061253,0.0667412,2.529483,1.4596924,0.88240254,1.6127645,2.5627866,-1.1672137,3.1294851,-0.3523522,1.9601927,3.5851429,3.5088692,-1.4211593,5.3432236,1.8982744,1.5493106,-3.1157095,0.3652209,2.1882796,-1.1720321,1.8230613,-0.64601725,2.1187906,1.2951629,5.2957416,1.0718026,-0.07847476,-0.03029105,2.0989597,0.64192355,1.4948971,6.8131337,2.9813802,-0.8120608,0.97242635,2.47651,-3.3787231,1.2260646,0.17475738,-2.6744199,1.5431625,0.0747568,0.14205813,-1.6736403,4.7291064,5.681194,5.117654,1.937463,3.7204926,0.51245177,-0.26370668,-4.4957366,-0.39453092,2.4751556,6.303003,2.5084994,0.7145301,1.6344528,-0.6077971,1.8224362,2.3111434,0.523773,-0.6261042,-0.5659955,1.6423935,0.6080065,1.4219997,-1.6423411,-1.4409728,1.6747766,2.0552762,3.172708,2.1954982,1.0744712,5.342905,2.9293344,-1.4193354,-1.3334973,1.8719504,2.7915459,-0.65625983,-0.17863151,1.5479101,-1.9591107,-0.6549206,2.4287577,2.0822837,0.049314916,1.3284283,-1.5797207,2.852477,2.1989322,-7.213658,3.666477,4.066243,2.7456903,3.166737,7.247081,5.4700813,5.0593123,1.6419902,-1.7512457,2.3110318,-2.3884308,-0.3173052,3.2441318,2.5993423,-1.1179634,1.8374057,2.3246408,3.6346056,0.48291776,1.0483443,4.287212,-0.54423046,1.9092182,2.348126,7.2752867,3.8766446,-0.9401232,4.3318653,-1.8688214,2.4631526,1.8702826,-2.4912388,-1.5832195,2.256846,-0.35098863,-0.873627,-1.7353084,0.11793661,-1.8967092,-1.4820468,-0.48287606,3.0588012,-0.21047604,-0.27591714,-0.39213082,5.618806,0.9683166,-0.7642638,2.413054,-1.2937523,-1.5021482,0.73242825,-0.4174647,-1.7440073,-1.4334155,2.6135173,2.0092707,-0.03459908,3.110506,2.4629197,-0.74312097,4.1415462,1.7035439,4.7604065,5.101299,3.4977405,4.6941895,1.9100702,-2.621019,-2.3717165,3.5746133,-2.7859309,2.5479922,3.6793425,4.7760887,-1.1540444,0.16586033,-1.9330814,-0.05740358,1.9770449,4.370261,-0.35594606,5.03191,0.49741352,5.697598,5.7767076,-1.278579,1.345197,1.6650271,0.5733044,1.160776,1.4835413,-1.9857045,3.1239786,6.4954987,-0.44597977,0.48844406,2.577932,-1.3970678,1.7206571,3.1924157,1.0987911,0.10023433,0.74377996,-0.540733,2.2427697,4.4294653,2.2769961,-2.822189,5.679579,3.0683422,2.1962485,2.3395362,1.020695,3.017115,0.9512476,-0.9059348,-0.13755757,3.3678753,-2.0405672,5.217531,1.7095757,-0.5161052,-0.8841322,3.7433963,1.3500901,1.2375823,-0.38292474,2.0913475,1.3106439,1.802864,-2.3107307,-1.2827108,-1.1822531,0.10096991,-0.14397204,3.4058459,-0.51774,4.933942,1.4248885,-1.4942932,2.0702887,-1.9938191,-1.1228334,3.1056173,0.36159426,-3.796468,5.7674747,2.1936438,-1.0168788,1.3327074,2.89814,3.887393,-0.15499389,1.6057835,6.832922,-0.41008377,-0.3011459,4.460422,5.4767113,4.6939793,-0.6365143,3.3112996,-2.0979521,-0.92773813,-0.13072106,2.4764154,-2.6850834,-3.8638964,2.4578817,1.2175931,4.7033997,0.09106377,0.07702688,3.307919,-0.57940304,-0.11735734,-0.74486387,1.0398393,0.8418131,-2.9296598,2.3049977,0.31706753,0.5958524,-0.20294341,2.2196684,2.7436185,1.929903,5.03273,-1.014154,1.2123544,-0.3962862,-2.2516406,0.40732434,2.190459,2.2608762,2.1204224,-1.1187358,2.0691524,-1.632174,-0.84831214,-2.38268,-0.35641795,-0.44001392,1.8672539,1.1681403,1.9890304,-0.20407629,-1.2002718,2.0432494,2.0822837,1.916772,0.8425094,3.344918,4.2567163,4.513485,1.934153,-0.20898068,-0.3580007,4.7774267,2.6228967,1.6859924,2.8500614,0.29739785,4.8081045,2.6569657,1.728143,0.80799305,4.049419,-2.248314,-3.3814225,2.0925684,1.374483,4.0822444,4.78196,6.319545,0.32246137,0.3281062,2.3257194,0.9441115,1.5486858,3.7998557,-1.2306676,4.212224,0.9036758,5.149725,3.0844724,-2.0721583,1.7052832,1.778253,-0.7263173,-1.0644867,5.5340915,0.18338627,-3.3108082,5.401016,3.4706635,8.269691,4.3537235,0.4551695,1.1826236,2.7135391,1.5897126,2.1359751,1.3913163,0.22570688,1.443798,1.861835,6.2898126,-2.069281,-2.1126301,3.6441424,2.247282,-0.64728516,4.255527,0.4526832,-2.2407207,-4.3981576,1.1217566,2.7074754,1.3302195,-0.45731342,0.9910964,-1.6363473,3.2309246,1.8435664,-1.3997473,0.38430557,-3.059523,0.17260599,-1.747457,1.5206568,4.937058,-0.2699104,-2.21907,-2.695044,-0.62355024,0.7536039,0.11371994,-1.5487303,6.1086993,1.927176,4.249304,0.9266468,3.960816,3.2611082,-1.3969756,-0.7769643,1.8225776,-3.2188873,5.0468616,5.9372816,0.65688473,-3.6941545,-1.0425436,3.2307978,4.6422234,-2.768153,8.130516,0.7471775,1.1900941,-0.41484505,3.6015155,2.1472652,4.416681,5.826042,2.649852,0.82631207,0.755656,0.59120125,-1.6859515,-2.2829845,-1.6421486,3.8254955,1.1650994,4.643081,-1.6965117,-0.5511149,1.0701246,0.90251553,1.6137704,0.9103765,3.8694026,1.0862834,3.5656765,-3.3543215,4.220396,-2.2105315,-1.0329304,-0.63589716,2.582134,0.85931903,3.6617417,2.4883318,0.7996057,-1.4182322,-0.039612412,1.1100291,1.3864876,2.2767253,2.5968103,0.8708195,-1.4143491,-0.22767961,-1.6974015,4.2779803,10.419306,0.32217336,0.9187789,3.6584632,1.5241847,2.794778,1.3485336,1.7176398,0.30669218,0.7921161,3.0813556,-0.3817593,3.1653287,0.47000217,6.770628,1.1322503,-2.6925416,1.6683674,-2.3991044,3.1173446,-1.4523904,0.39601928,-5.2374177,-5.8083005,7.3924103,3.2476695,5.865337,4.1796427,4.1587195,1.6200107,3.6976514,0.19308802,-1.7496456,-0.59508723,-0.53823197,-1.036066,-1.5576911,0.33416486,-0.9083718,-2.3546402,2.4658873,-6.1448956,-4.076731,-2.787015,0.5053086,1.403933,1.0119833,-1.2840586,-3.5111485,-1.9582574,-1.2516729,-1.2220939,1.6173381,0.19831893,1.8784764,1.426576,0.15111153,-0.004585862,-1.107443,-2.3995476,-0.09062305,-0.013736725,-0.8276292,-2.0185626,1.4171976,-0.47896034,-0.11588296,-2.3946009,-0.6665566,0.46361506,-4.4464626,-0.020170137,-1.0969039,-4.6626062,1.1429119,2.33774,3.874814,-3.585392,1.2963481,-1.196024,-0.29009587,-1.5186806,-5.0849667,-0.050789535,-1.6854292,-0.59683037,1.1224364,-3.868744,-1.4317312,-0.7694548,-2.4815178,-0.9260621,0.44967058,1.4960014,-4.242096,1.9653757,-0.891909,-2.8315043,-0.83219445,0.29899883,0.7664914,-1.6119593,-0.80359775,2.6653724,-0.17461348,0.75563574,2.015046,2.896606