-2.490676,-3.4943128,-1.878417,-1.2749631,-2.0494776,-1.1380954,-0.1838088,0.6972963,-3.2280967,-2.8561492,1.8279568,-2.9882307,-2.910881,-3.1220584,-3.4447982,-2.4008064,-2.7613742,-0.9138459,-3.3820753,-0.7952323,-1.9854928,-2.0969183,-0.8704785,1.1277359,0.23309034,-1.1612504,-1.2956946,-2.1073847,-0.33389854,-1.9980147,-2.0363572,-0.7854404,-2.221294,-2.2897594,-1.5542603,0.7061561,-3.6373408,-2.5762246,-3.0927238,-0.4184401,-3.0998485,-3.7808309,-2.0392747,-2.3875623,-2.564985,-2.7007108,-1.5084326,-1.9355892,-3.0361261,-2.5682592,-2.2411401,-0.90371674,-3.6189601,1.726976,0.0624941,-2.3027012,-0.4495553,0.2730385,-0.91441226,0.1980499,0.98172104,0.62873566,-0.9504533,-1.1416724,0.7290275,0.81657255,0.82100266,0.7191825,-1.2520833,0.66927004,-3.0451818,-0.9618417,0.6603214,-0.62623245,0.5764753,-0.850656,-0.26967594,-1.5539904,0.012211859,3.9792836,2.2857583,-2.2256262,-1.4596677,-2.497803,-2.173915,-4.148408,-1.87798,-1.837926,-1.3956704,-0.16634561,-1.5134013,-3.104203,0.13999853,1.8702304,-2.5657563,-2.3916845,-2.5113769,-0.80314326,-2.7760053,0.44806886,-0.47349775,-2.1821353,-1.1830297,-0.44252613,-0.43157804,-1.8783932,-1.8490977,0.3387934,0.6207449,0.29184562,-3.0605884,-2.797072,3.0386553,0.6372644,0.14939469,-1.6302353,-0.6256797,-1.0353433,-1.773039,-0.2025032,-1.2202921,0.7455962,-2.2529442,-3.8689954,-3.4344754,-1.3566775,0.014345944,-0.034554124,2.3086512,0.56345487,0.2834121,1.8378807,-0.017920732,0.5543545,-0.2998323,1.726436,0.16428423,-0.5843727,-1.6136461,1.0307913,-1.6866509,-1.6875777,-0.4980557,-2.1376739,0.006763816,-1.0394357,-3.8248737,-0.16041374,-1.1877569,-1.5266545,-1.078286,-3.697561,-1.3866625,-1.6703302,0.49898976,-1.3419595,-3.0851586,-2.844878,-1.6899558,-2.5236611,-0.87897944,-0.43194142,-0.13584894,-0.15867984,1.3290505,-0.81578165,-0.7119242,-0.15177709,-1.2489887,0.593058,-0.023562849,1.1683317,-1.4390317,-0.27647963,1.2430552,-0.41598344,-0.3774246,0.4150082,-0.24067146,0.55610037,-1.1287266,0.027491808,0.05446729,-1.2184252,-0.8450602,-2.4291222,-0.38262385,-2.248455,-1.0180571,-0.44111794,0.066349015,-0.5403916,-0.007849306,-0.76849014,-2.3045905,-3.1349273,0.077671364,-2.1827745,-0.91799253,-3.2301118,0.60181504,0.22262067,-1.2611539,1.1084402,0.5527268,-2.0088122,-2.30099,-2.2124424,-0.31501475,0.28865165,0.99468195,-0.54454106,0.2915956,0.05609496,-2.0319445,-0.26218763,0.42670822,1.0731848,-0.63965356,-2.6362922,-2.6636918,-1.5467322,-1.0644776,0.6752799,-0.9777045,0.18780336,1.5512124,-0.17797157,0.33428603,-0.9114889,2.0795343,-1.8826945,-1.2208364,0.8961479,-0.022234857,-0.13797408,-0.2662498,0.2842878,-0.14637327,-0.24590993,-0.66506284,-1.0647101,-1.6210811,-0.3785575,-1.755896,-0.87885314,-0.4014254,-1.2344931,-1.1071374,1.2316663,1.6112386,2.207254,1.5511687,-0.59779227,-2.3972049,-0.57409424,-2.2010274,0.369566,0.57413834,0.6700065,-0.83698624,-0.17550647,0.87713796,-2.4514303,-1.4220197,0.24432251,-0.43321893,-1.0384456,-1.4414268,-2.9527557,1.6342566,2.4026468,-0.085483044,2.275545,1.1888597,0.38173485,-0.77520955,0.7771917,1.691313,-0.23800528,1.8385026,-0.30983126,-1.097483,-0.5950675,0.9839121,-0.42881393,0.11866394,-2.1152914,-1.0073849,-2.30038,-1.9863642,-2.991029,-0.51463014,-1.4265033,0.51513225,0.084990144,0.10248181,0.7238009,-0.675646,-1.9374143,-1.9247587,-1.1431167,1.331586,0.44917977,-1.0234866,0.2729261,-0.07210499,0.27186814,-0.50608826,-2.5440965,-2.4366288,5.33788,-2.8892827,0.2704504,-0.7336223,2.557722,0.8782569,-3.0323727,-3.1864748,-1.0366496,-0.7947281,-2.8325613,-3.1936371,-2.9413867,-3.1410496,-0.44705164,-1.8361397,-0.75808,-1.9690969,0.10756278,-1.6756457,-0.9741648,0.2759347,-0.90288454,-1.6626499,-1.2641162,-2.316253,-3.448454,-1.4449615,-1.9042377,-1.40553,-2.2812798,1.0332352,-1.3980578,-0.7102437,-2.2257218,0.3333106,-0.7415694,-2.778273,-1.7951791,-2.2542675,-2.6007957,-1.2555637,-2.0928233,-0.3732918,-1.1843767,-3.5840673,0.23251481,-1.6871855,0.7027957,-0.20941684,-2.5758448,1.1615422,1.0594032,-1.4304992,-1.3761094,0.47112933,-1.8019693,-1.0994637,-2.3857663,-2.1726103,-2.7745752,-2.3193207,0.1607703,0.005283475,-0.9911232,-2.0819783,-1.1094104,-1.1584703,1.1334765,-1.5471399,-1.7655196,-2.4126713,-0.84740126,-2.6866033,-1.5296576,-0.7561923,-1.5617055,-3.4822245,-1.529859,-1.374803,-0.33887053,-1.0122102,-1.7094055,-1.4860647,-3.9626927,-0.45111293,-3.160374,-4.7565618,2.975382,0.98631257,-1.9650251,-1.5798024,-1.8079737,-1.3677114,-1.9414942,0.20978704,-0.5444194,1.342417,-2.4554553,6.7767105,-1.0359626,4.4004207,2.0712767,-1.3208263,3.1406946,-1.4914203,1.2783698,3.5336506,4.6141253,6.439797,-1.2055075,-1.4768714,3.1241682,0.40412933,2.0168574,0.24229522,3.2587478,2.427717,-0.24981728,3.1145034,1.7316401,2.4985414,0.7790152,2.985176,5.0798287,2.3064032,-1.531916,-1.953927,1.721544,-3.4550571,1.6330813,2.6441662,0.76661766,3.9784837,0.47560996,0.6427221,3.5763502,-0.17613852,0.27886555,-1.522773,1.0063062,-0.73806775,-0.55366343,1.414367,-0.28180927,2.2512026,-1.4052377,-0.17175746,-1.1699672,0.6895579,-1.4357798,-0.40318382,2.2814353,1.80375,2.2783237,1.0574105,-0.9049894,-0.76618975,0.030463576,-0.7294874,1.1647575,-3.3415043,-1.6000378,2.3887181,-0.21902996,-0.6562114,-3.3299203,0.254636,5.3838744,-0.33753088,2.3679159,2.078721,1.7935374,-2.6209543,-2.2004752,1.6225656,-2.904548,4.93616,1.8687053,0.23187125,-0.8708079,0.26812887,2.3043752,2.4450645,1.264019,0.305181,0.7238782,-0.6340176,0.5820934,1.5678129,-1.2175153,-1.9131137,1.5543597,2.364896,2.3439035,-0.43522036,-1.0312432,4.57379,2.9034364,-0.08316976,-0.93674564,-0.69128424,1.2350566,-0.56174713,-1.0545386,1.2151959,1.9921966,-0.6266413,1.0994458,3.6369076,4.4495835,1.7379684,3.614756,2.5789402,-0.48530692,-4.7422886,3.4303465,3.6521413,0.76431996,5.555389,5.23746,2.6774492,2.34394,0.16271776,2.74362,-1.0413842,-3.3675048,0.0007121563,0.010247044,3.9020944,-0.22716844,1.0800377,1.8961313,3.2362218,-0.28399694,0.92631596,-1.4796357,-2.8803012,0.043710113,7.3543596,1.5411611,5.3041673,1.865353,3.0483623,-1.9456255,-0.10445534,0.68692994,-1.7356536,-1.8519864,0.8571975,-0.89364487,2.0042374,-4.311484,1.6509175,-3.1071138,-0.27842152,-3.1263494,2.567594,0.47824746,-0.25097927,1.6286994,1.7340654,-0.0653266,-1.1567498,5.912264,-1.8452655,-3.8972185,2.081502,0.27305463,-2.4227467,-2.4763741,-1.1305627,1.3508047,0.14597526,3.1146486,3.4263487,-0.7885399,2.140439,3.5861123,4.162544,2.5335011,5.018449,1.4648716,0.31842566,-2.9427168,-1.5352094,0.40849954,-3.2078938,0.1101464,2.443814,4.0923395,0.8893716,0.6497647,-1.6216778,-0.13630913,3.5685902,4.5181923,-1.12929,1.4722438,-1.9192933,5.1614766,0.20001327,-1.8892915,1.6024503,0.8255948,4.398696,-0.6118331,3.5785122,0.831281,2.3928487,3.8787513,0.6836866,1.2402992,0.89674777,-0.78383344,0.7186363,1.4417012,-1.2711821,0.19490695,1.1962575,-0.92550874,4.9849286,2.5110912,0.27763432,-1.0969486,3.6886044,0.30519164,1.802252,1.0649041,-0.3951556,-1.539614,1.7763741,-1.8993182,0.70599055,2.5856671,-1.2249103,0.45618844,5.327708,0.84064543,-2.2913065,1.6955134,0.536276,-0.89632237,-0.9625656,1.383481,2.3134084,-0.30905128,-0.7166418,-2.067085,1.6769958,-1.0986001,-2.1304193,2.782972,-2.6211548,3.510993,-0.3506911,-0.50776875,-0.9246711,-2.6980987,0.77933943,-0.24789006,0.53473395,0.062060922,5.226238,1.7648954,-0.5089283,-1.0996981,2.9174228,3.2226853,-1.4717097,4.7125573,5.6109047,-3.297639,-1.3162402,1.5718305,3.2436278,2.0482993,-1.1650989,1.268862,-2.654916,-0.10155058,1.8269973,3.43426,0.8219779,-3.163293,1.1736057,5.4390187,3.8458724,-2.6597044,-0.43305752,4.958247,4.3672204,0.26449144,-0.55154645,1.3806022,-0.8694837,-2.3973956,-0.46078438,-3.3530517,3.3178854,1.8845658,2.8324728,3.0289304,2.8974543,2.664338,-3.3643305,-0.7407297,-1.9865434,-1.3170767,2.9456627,3.461197,3.451004,3.7823381,-1.3461481,0.090117216,0.08649701,-1.0727414,-1.3264408,1.2646282,3.0172832,-1.3121765,2.1570477,-2.1114867,0.19282937,-1.3089021,0.88856745,1.7311544,1.0230817,0.857059,1.0535188,-0.07519652,2.0129013,4.3006635,-0.07305932,-0.7441583,0.9180796,4.2109795,1.6562707,1.9260936,2.5231423,4.903121,-0.84099746,3.0966022,-1.1275322,1.7522801,-2.0107014,-1.2355993,-0.31783536,2.3859751,-0.2939483,5.0100427,3.5884395,-1.2127761,-1.2139698,0.2821945,-0.33286542,0.59601116,3.3233848,3.1490605,4.493932,0.6977415,3.243231,2.8715043,-0.51865846,0.6935937,1.6391307,-1.2931641,-2.8167708,4.356736,-2.822503,-1.4971313,1.539475,3.2500584,3.9773998,1.5501044,-1.3095127,2.151023,-1.0698571,-1.386429,2.2602527,2.6916537,1.0112205,2.0679333,4.018132,3.9389124,1.427352,-2.0207305,5.7835407,3.0316994,0.32586962,0.88377756,-0.21911086,-0.9140016,-2.9085698,2.7491822,3.811549,0.4584839,-1.6658517,-0.14737013,0.34754422,-0.03922355,1.5870619,0.230018,1.061579,0.260509,0.05655837,-3.1278303,-1.3647337,1.6163098,-1.1593176,-3.168838,-2.8912008,-0.8037618,2.9245667,1.214544,-0.44730747,5.602771,-0.94558954,3.112006,-1.8888233,2.7721307,2.9677007,-3.0505035,-0.0964638,-0.5528693,-3.744648,0.8497976,1.5379981,6.2717113,-3.385497,1.758818,3.8548274,2.0672212,0.12564784,3.954762,3.416027,1.510198,-2.8152351,0.3223749,0.118222594,1.8677757,3.56828,3.9221306,0.9042839,0.8722364,2.0247917,-1.3156816,-2.4348018,-2.1171021,3.9618115,0.89003974,3.6545043,2.290277,-2.4214408,-0.63122255,1.7018516,-1.3096603,-0.27017117,3.5180526,-2.2626035,0.56981325,-3.124698,0.92463255,0.24067068,-2.6624873,-2.342274,1.5345161,-1.7954291,0.25853086,2.4057622,0.91126335,-1.0838158,1.7472878,3.0513728,0.7353824,2.1010451,-0.11444843,-0.22616583,-0.7318325,-4.3704786,3.1674616,1.3481872,6.532338,2.324588,1.7915508,2.3147228,2.2369668,4.516796,1.9271812,2.332668,1.3309767,1.451339,2.0395882,2.5800579,-0.29695368,-0.2577243,1.0776963,3.2506118,-1.0213858,1.6972665,1.6035969,2.6424546,-1.4195018,0.9933033,-1.0817714,-0.05725676,7.569708,1.6099118,0.39586204,0.7201444,-0.091296375,0.80275023,3.7025976,1.0172184,-0.6259282,0.10799058,-1.4578555,-1.9972966,-2.2703896,-0.8867059,-1.0660943,-1.4730487,-0.40695703,-3.5758266,-2.2211797,-3.5633464,1.7844899,0.5344763,-0.41274402,-0.7984898,-1.3807296,-2.8262336,-2.507892,-0.34781387,-0.6834891,-1.8516691,-0.62627864,-1.4678065,2.680227,1.0468264,0.7121972,-0.33311066,-1.8420997,-0.061215803,1.2630079,-0.93528837,0.37291437,0.31402448,-0.13893397,-2.7399957,-2.3932765,-0.43990672,-3.1101134,-1.7201741,-0.27212328,-0.49803743,3.2435155,0.5436956,2.9872265,0.806622,0.45098245,1.1064435,1.709369,-1.2399971,-3.6580062,1.8395658,-0.7895696,2.0795896,1.6076634,-1.1081952,-2.0855715,1.2370193,-1.2505071,-0.91959095,-0.7392205,1.2103579,-2.2422988,2.18718,-1.857956,0.54118675,-0.46363246,-1.9683793,-0.63623625,-4.156481,-2.203817,0.15978974,-0.9976351,-2.3834345,1.9734058,2.61103