-2.9366283,-5.7936535,-1.9159284,-3.006699,-4.323314,-3.2144995,-0.33172026,-0.9829702,-2.8815827,-1.1599332,-1.118153,-3.6850867,-5.9978027,-6.75399,-7.32059,-4.844525,-3.0723853,-2.5614839,-4.572747,-3.226179,-6.502953,-5.7332788,-1.8386168,-4.1065893,-1.8791705,-1.2671945,-1.2008344,-4.9588647,-1.3429585,-2.407321,-4.2603216,-1.6603327,-4.29635,-2.2948067,-2.6637642,-2.0284114,-3.335341,-4.307358,-2.8686779,-0.5916935,-6.561028,-2.4066298,-4.345701,-3.5820801,-3.9782639,-3.6482818,0.7268414,-2.5375004,-0.86857915,-5.225017,-3.3516245,-3.2465699,-0.5180845,0.19034445,1.960799,-2.6667676,-0.3215948,-0.29954666,-1.4042666,-1.7953029,0.16662848,-0.019757986,-4.80022,-5.6899424,3.355833,-0.77661717,-0.19811618,0.47554794,-3.9645941,-0.5342915,-2.2420576,-1.9096768,-0.026656862,0.2978524,-0.3613571,-0.24405468,-0.642668,0.5951105,-0.9835788,2.5501382,-4.213835,-2.9122229,-2.0585961,-5.0167413,-3.274253,-0.16974568,-4.1160264,-5.537844,-2.0941508,-1.092215,-3.057337,-1.8955958,-3.1158242,-1.1678039,-3.215725,0.6881685,-1.8371458,-3.377374,-1.5107243,-3.960649,-0.41922557,-0.3570695,-2.6726246,0.92724836,-3.6158125,-0.9058735,-2.2721963,-2.4894266,-1.2059678,-2.6487112,-2.1512043,-4.7781315,2.1585658,1.5600998,1.5009072,-0.27552092,-0.40760177,-2.12168,-5.05563,-0.2737949,-4.166852,0.43049318,-3.9947953,-5.4559584,-5.1983337,-3.524526,-3.2886343,1.1640048,-2.8010647,0.515656,-1.7676741,-0.7667747,-3.5705142,-2.9503114,-3.0001495,0.97084534,0.86126083,-1.9190297,-5.1279564,-1.0419753,-2.691335,-2.822892,-3.166895,-4.7841525,-3.288812,-4.517421,-3.2020457,-3.9643412,-4.9745574,-0.9442321,-2.9948292,-3.4589717,-0.5660759,-2.7717116,-1.9304241,-1.0540861,-1.5499908,-2.3047578,-1.1208746,-1.8971158,-0.9110124,-1.321846,0.57319736,3.2591782,-1.8124719,1.0515608,-0.815583,0.79124707,0.25405085,-1.4034535,-1.3349175,-1.9312342,0.08201563,1.0692272,-1.9007778,-0.25934583,-3.8738341,-1.3585854,-4.9474597,-0.7394254,2.7069628,0.36267847,-3.055224,-0.707219,-0.8988543,-3.1897652,-1.7338004,0.75129837,-1.0561826,-0.117988884,-0.48395044,-2.7380471,-0.00089371204,-0.9004932,-2.3509855,-2.2772775,1.2789706,-3.0731869,-1.0432034,-3.6713676,0.20171368,0.5136495,0.7916972,0.04053867,1.7326862,-1.2256982,-3.410154,-3.7665648,1.0749993,0.6877297,-1.545362,-2.5985446,-2.2793117,-2.0752974,-3.6919188,-3.109275,0.2666058,-2.6166785,-0.5024606,-2.085078,-1.9028352,-1.5443062,-2.2433543,1.2456813,-0.13446605,-0.5942582,0.5536709,-2.4263003,0.56011015,-3.3837261,-1.8949102,-1.4153779,-2.1957247,1.6489582,0.54427135,0.6733997,1.403456,-0.65909266,0.49346286,0.37920332,-3.5638406,-0.9990366,0.38438344,1.1983763,1.0148933,-1.4040725,-0.71777046,-2.6067634,0.68902224,2.7226145,0.54001343,3.1364677,4.0856514,-0.7798564,-0.8132328,1.812655,-2.9511945,-1.7436491,-1.4186954,0.91432905,1.453706,-0.44266105,1.3787247,-4.084523,0.83915186,0.9523776,0.83680236,-2.2132702,-3.569638,-4.536771,1.9099782,2.1161523,3.0191183,1.570884,1.7937357,1.9728309,-0.8325523,0.3689406,1.7367479,0.18875456,0.17800775,-0.1327653,-1.2280209,-0.21700823,0.87987447,0.7260659,0.89545065,0.54853785,-0.6349907,-0.82976687,-0.40241972,1.8941822,-1.1033714,-0.13278696,2.9956932,0.7254254,-1.8114998,-0.30110556,-2.883421,-3.0810227,0.54064476,-1.8638453,1.5412971,-0.12497628,-0.1457228,1.0201703,-2.256899,-2.7257254,0.28506494,-3.313774,-0.31045705,4.3312674,-8.288747,-4.0343423,-3.2628155,0.8660794,-3.58694,-3.5110075,-4.5808916,-1.0890663,-5.6396065,-7.585396,-2.2130592,-1.7274339,-2.7887998,-3.5245304,-0.43295014,-0.13801372,0.6577464,-1.6405245,-1.8888153,-1.8341069,0.76973253,-2.8579369,0.06609741,-2.4620755,-2.9469337,-4.2696724,-0.6150663,-2.8676405,-3.0156314,-3.4126391,-1.1003783,-3.0803072,-3.7105906,-6.101424,0.51507664,-2.6582694,0.07461977,-3.3050342,-3.0458236,-3.4541385,-3.1769419,-1.9729689,-0.38797563,-1.7918087,-1.6704848,1.2123648,-1.3591557,0.3606137,0.20466742,-2.3044176,-1.4747047,2.0682323,-5.7841306,-0.5727821,1.0296974,1.8794441,-2.1560037,2.4302452,-4.3354197,-1.7351537,-1.6325715,-2.2342086,-0.11841577,0.6572605,-4.319409,-0.3952102,-2.4373426,-0.84278727,-0.88292205,-0.20424418,-0.4673069,-0.51559484,-0.05475691,2.1026425,-0.46948844,-2.8190107,-2.2253537,-0.24836713,-4.7687287,-2.310584,-3.2785726,-2.2319732,-3.4850788,-5.50384,-6.229282,-2.0415874,-3.182876,1.5608839,-1.2095002,-1.5581108,-0.058588237,1.4061425,0.63188016,-1.3049589,-1.8700756,-2.7040749,3.0346076,-0.20576906,11.227955,-1.4286628,3.292023,3.846028,0.2521546,3.357541,1.3749552,1.7163792,3.4495835,2.7706993,5.4409747,-2.041947,-1.8220395,6.1426983,1.217861,3.184019,-1.8704772,7.8378587,2.223609,-0.16962257,-0.7876902,1.2270213,-1.3244615,-3.0216987,2.929205,1.1361504,-0.1257031,1.8343699,-2.4361262,3.6425686,-3.1149778,3.5992298,3.5409698,0.02063775,3.4951093,3.853328,-0.26912564,4.166708,4.2986846,-1.4140466,-3.3592515,-0.16705737,-0.68382263,1.4933567,-2.3128543,0.74036586,3.8770802,-1.6374815,4.2295437,-0.37625098,1.6426613,-0.20373684,-0.8439154,0.45748448,3.9673197,4.1905103,1.0358584,-1.484788,2.1604722,5.324182,-2.9549797,0.84209394,-2.5025375,-1.4319596,0.45212254,-0.005982518,0.3415404,0.5931916,3.3491058,6.6635084,6.513808,3.0508986,5.027996,3.7265358,-2.3319445,-3.208064,4.2400403,0.48889935,9.724883,2.5956173,4.1275873,1.2771893,1.3888679,2.6643243,1.2338511,-1.1460373,-5.042031,0.4646795,-0.47419935,2.6812,-0.06998378,-2.1671982,-2.9356768,1.5250987,2.5942206,2.0825005,1.593944,-0.78558743,6.9025955,4.484905,1.3671893,-3.4806666,1.4820417,-0.131661,-4.801208,-1.8251615,-0.011967242,-1.8752959,-1.8549767,4.8579435,3.5683768,-0.32643455,0.9183621,0.5531806,0.5914279,0.112580776,-6.241112,1.287941,4.4394035,5.654921,4.4131055,9.601921,8.312979,0.17991982,-1.6516128,3.9196098,2.773538,-2.1458926,-0.0150107145,-0.5675712,2.019272,-1.3511987,1.853807,2.9980054,5.4309,0.030234218,1.1779186,3.1939197,-1.0673089,-2.7876709,5.834505,5.360617,5.0152698,1.9658104,3.0390959,0.50902295,3.4450645,1.6037519,-5.245905,-2.656184,1.2165432,2.2157857,3.594269,-2.1210165,0.85285866,-3.6575906,0.5930818,-4.986696,3.0835335,-0.5180676,1.0726328,-0.9907952,9.418903,0.7331157,3.751624,5.768035,1.9073387,-4.2984176,1.3625808,-1.3180742,-2.6978557,-2.561808,2.227219,4.2021155,-1.6022818,0.84887135,3.9748507,-1.0722861,3.291715,2.6460173,4.015324,8.079691,4.3594904,2.6145663,-0.13675725,-2.0445755,-0.72376645,0.4233184,-6.321531,1.2215387,3.3224328,4.066037,-3.3369672,2.606655,-1.1153607,1.2681241,5.807472,3.6265695,0.40215728,2.9276524,0.1358608,6.331767,4.848636,0.12946832,5.2980356,0.59079266,-0.23869033,0.6212137,1.0073661,-2.2610116,1.6366419,7.597425,2.6738605,4.293509,1.1026328,-2.4055727,3.6920013,0.6248255,-1.3148882,-0.603557,2.9526963,-1.7058713,3.3421488,3.4463544,2.165463,-0.43563226,8.499175,4.785457,3.7507586,1.1755856,0.033958316,0.1339406,1.6219298,-2.303445,0.22058183,4.534707,-3.5693734,1.4927485,5.3138285,-4.5895076,-2.4933343,3.529004,3.3753366,-0.12339321,-0.39315027,3.166639,2.3766549,2.0769405,-3.6173491,-3.3747528,2.1738644,-2.2111003,-0.64596605,1.5242553,-4.2841806,4.646258,1.5142986,-1.607713,0.7543621,-5.78358,-2.7095609,3.5669198,1.2089238,-0.91997164,6.9010315,3.9056158,0.95150506,0.9281518,2.396833,0.673195,-0.7621262,4.755019,7.5688753,-2.8837204,-2.9524822,2.694328,9.626312,5.8835435,-0.4340205,4.54023,-4.2992167,-0.40445232,-1.2122488,4.995524,-0.95712185,-3.93161,3.83143,3.3343787,2.58861,-4.937274,0.09766061,4.8086815,-0.8770639,1.4029732,-0.57564473,6.7038207,0.42987823,-1.3979962,6.1095915,-3.5929997,0.15737334,2.056449,2.128638,4.8364315,4.8039975,8.66881,-2.3251972,-0.3792442,-0.95427555,-2.8333454,2.9007158,3.2802048,2.0553901,1.5813323,1.2332643,-0.6898507,-2.1555822,-2.7717698,-2.2763624,-0.13072562,-0.03696379,0.15135193,0.68459165,6.1966114,-1.3461577,2.2447355,0.8100041,4.1915755,3.1534805,-0.5780377,1.5403893,4.1031566,1.4622171,6.036277,-0.11574781,-2.6380363,2.8421884,6.086738,1.8557022,1.0295993,-0.26864815,3.4758403,4.978616,1.8837459,-3.122284,5.3758736,-2.9768639,-0.5902945,-0.0793162,0.40218717,6.1497917,3.56607,9.267436,0.16805203,-0.83215845,-0.8218453,0.05286923,2.5882273,4.8476596,1.9191843,6.238806,-0.19735995,3.4738634,1.9576573,0.18714872,1.9811866,0.59494245,-2.9087815,-5.515949,7.232833,3.289678,-4.2315283,5.404482,4.382225,6.369499,3.983574,-0.97876394,0.6301296,0.5544389,2.4347157,0.91239536,3.9461627,1.9373388,0.86340123,1.3095794,4.235832,-1.7720485,-1.2274258,3.986858,2.2448547,0.11251432,7.098807,-2.125826,-1.1765891,-4.0040402,-0.70306593,3.7251856,0.713419,-3.2840896,1.1166229,0.79659176,3.6509671,1.3828993,-0.99860173,1.053197,-0.3451411,2.2955923,-0.36577484,4.948981,2.897281,1.8963585,-1.0637379,-3.1701183,3.1752648,2.9228354,-1.4309169,-1.4554163,11.762587,2.7630248,4.1363626,0.64505684,3.6617844,0.40795937,-3.603222,-1.5489608,-0.11732328,-0.38025284,1.6121229,1.3136234,4.1127906,-2.4669178,-1.0615237,5.6408424,2.7847233,-1.472889,6.2876945,1.9534248,1.2042207,-0.53266495,4.6411195,-0.5830923,3.6361744,6.3300824,4.5923142,-0.3224008,2.7686038,-1.2748466,-0.53723323,-2.7542794,-2.2651196,4.6053867,1.9620793,4.9721074,0.51268685,-2.4352326,-0.5975195,2.6172028,2.6510963,1.3561351,2.3325496,-0.09772357,3.9791296,-3.4084768,4.33494,-1.658478,1.0706861,-4.4653735,1.0402336,2.2125053,4.169046,3.6650023,1.3350253,-0.5793819,2.8910367,-0.64581096,-0.94510007,2.5870852,4.0577626,-3.4290624,-2.1932774,-1.6882173,-1.5449574,3.0707064,11.700426,0.3052873,-2.3252285,2.6677802,2.1291711,4.8698406,2.794702,1.7802781,-1.2189,0.0049631596,2.812812,1.7007298,0.7218628,-0.9005226,3.9021504,3.3972816,-0.22633958,0.71456873,-0.54854363,2.9137955,-0.1662243,-0.9480865,-3.291757,-4.709684,8.847821,3.2819388,1.9514576,4.3557887,2.7456925,3.2252815,6.128756,1.2571335,-1.6026936,-0.17805815,-2.0597239,0.35186264,1.5441241,2.830122,-1.2660108,0.022450209,3.308138,-4.141511,-2.0202847,-0.54813486,0.86213464,1.7412512,1.8649108,-0.51202273,-3.3445876,-2.1895444,-0.9600702,-0.013018161,1.6757556,0.68405354,0.5820335,1.5474354,1.6918895,3.7975848,2.941532,1.457891,0.27418786,1.5990334,3.9407563,-0.7849489,4.382199,1.7597996,-0.2758387,-4.449524,0.42295223,1.6857824,-4.8098416,-0.8087768,-0.409114,-3.5800347,1.613812,2.9588897,3.39851,-0.80782866,0.96555567,2.5608726,0.6354258,-1.1420472,-4.955188,-0.49557608,-3.4772322,0.50489235,1.1880691,-3.1018045,-1.1575478,-0.43161714,-3.5974438,-1.7343675,0.5299604,2.0612333,-2.9130113,0.4229722,-0.27314708,-0.65174955,-0.09394479,0.50875115,0.9086242,-2.1885672,-0.6870111,1.8851155,-0.91656363,-1.726048,0.9643661,2.6901765