-3.4006355,-3.6862822,-1.1748028,1.1350167,-0.8464761,-0.57043755,5.2933517,4.5964665,-7.044522,-3.6138923,2.5910807,-6.4880977,-6.4106483,-8.340691,-6.133412,-7.689094,-7.5523787,-7.048807,-7.1901274,-3.3344817,-5.652874,-6.5629034,-2.4759789,-3.422112,-3.5140424,-1.7068665,3.2885578,4.551737,6.757083,1.0219213,-4.251678,-1.9175735,-0.022292897,1.367684,-0.865239,-1.7564411,-1.5655669,-0.47718543,-1.3701799,2.8153677,-4.163004,0.09742676,1.2933699,0.12199941,0.53786314,-1.6803402,0.21509816,0.4003917,1.6523693,-1.891325,-3.6059647,-1.0684745,-0.28030646,7.48364,7.4355516,1.5788865,2.9486089,2.3648121,4.459017,4.1386366,4.970523,5.429199,-0.54865026,-0.60910314,5.7112465,7.712581,7.424104,5.2720385,4.3369923,5.7009077,2.3336635,3.60136,2.5915341,7.045513,3.1303072,3.841394,4.4624887,-5.069714,-1.032229,1.1690627,4.9903026,-5.7285423,-2.223016,-4.729838,-4.052375,-5.2882166,-3.8386095,-5.831746,-2.908588,-1.7577004,-2.2531347,-8.549241,-5.220481,-3.4883184,-5.3137326,-1.6180898,-4.7557116,-6.671774,-4.7589617,-7.206772,-1.1014304,-1.1801436,-1.4525192,-2.0093634,-2.5855556,-3.9060915,-4.227816,-4.984205,1.2758234,-1.5815704,-3.118228,4.0122757,11.39238,0.7162871,-1.3647125,-2.2952008,1.5658596,-1.1612054,0.18358016,-2.0475717,-1.6670401,-0.74987173,0.91986203,-2.5357647,0.40694833,-1.7759819,-3.3347347,2.7103753,-0.05444789,1.146676,-0.5813916,2.8554788,-1.0325727,0.8217285,-2.8046849,0.7052375,3.1142635,-4.896749,-8.669941,-2.4121747,-6.0699234,-3.6095643,-2.3451428,-0.14792383,-6.172597,-2.2394679,-3.1292624,-0.47032163,-3.3290434,0.2276305,-0.9725907,-1.7565295,0.20476344,-1.3937294,0.9382107,-1.0032972,-0.14399467,-3.866974,-4.993038,0.11496687,-0.57961744,0.48326007,0.32606748,1.244339,1.661242,-0.8660308,-0.5674846,2.0126936,0.7774153,-0.4142017,-1.014636,-3.4566383,-1.2847441,1.8784236,-0.46238217,-0.023268998,-1.2401873,-1.970383,-4.6620274,-1.5258405,-0.078319624,1.0772986,1.7942526,-2.024985,-0.32995522,0.059173644,-1.320749,-2.8615086,-4.2782097,1.2696872,0.13954155,1.6789182,1.4685104,-2.7551405,-3.4572124,-1.0255879,-0.7678921,-3.905345,-2.5421793,-2.0826335,-3.9069245,-0.62462807,-3.4517698,-0.1585846,-0.18803462,-1.359468,-8.067867,-4.0891066,1.9057317,0.7943456,-1.0289042,-5.8835435,-1.5032102,-2.1988795,-5.3110156,-3.9200447,-3.0657551,-0.58949804,-3.354814,-7.172199,-3.819512,-2.3490264,-1.5051386,2.0991268,-2.4627097,-4.5591655,-0.70965445,-1.2679316,-3.146095,-2.5266166,0.62251043,-4.5771384,-0.3262995,-1.0278769,-1.6772566,-2.0949557,-0.31380728,-3.2709002,-3.9078562,0.32109746,-3.6705763,-4.4290066,1.2651212,-1.415369,0.37379968,-0.06235671,-0.6643151,1.3552417,-0.08813542,-0.08577812,2.5845156,1.607211,2.8144946,-2.3226595,-2.5920584,1.0752963,-3.786342,-2.9895508,-0.1968317,0.4628326,-0.61638755,0.01937288,-1.7814997,-3.718548,-3.286399,-2.7636008,-1.7319881,-3.3040287,-2.918429,-3.9398446,-3.2394948,-1.98665,-4.120672,-2.3198,0.6733478,-5.41831,-6.4960513,-4.6951003,-0.6537604,-4.388152,2.8695219,-2.2589169,-1.1055241,1.3276317,-0.0011696517,-0.015762866,-0.30647004,-0.10880889,-0.59974027,0.16035216,-3.166922,0.071424484,-3.3862083,-0.42230386,0.40649408,-3.456953,-4.1110096,0.7440239,-4.3973613,-0.13976085,1.1364892,2.7814283,-1.3749003,1.4553516,4.495632,-0.32271314,-1.9497302,2.6612046,-0.5911844,0.4338578,-4.2604647,5.48812,-3.0518231,1.4556,1.976077,0.44152176,5.2402225,-0.91856766,0.18934304,2.9916804,2.1366787,0.39004934,-3.8176017,-4.2738895,1.4116743,-3.395935,-4.691726,-0.35472178,3.2844481,-3.1923625,0.8653406,-1.8306985,-2.0946665,-3.1805167,-1.2117922,-0.81844664,-3.970508,-6.0193295,-3.5236561,-1.712367,-6.458438,-0.51988333,-3.1792054,-6.876649,-6.5900607,-5.9396787,0.084287345,-0.9941951,-6.297837,-6.5079975,-7.9244547,-3.7554762,-2.2709804,-2.5693264,0.46641213,2.6749587,-2.155429,1.4259005,-1.8119345,1.2608209,-0.29072657,-1.7358248,-0.11525726,-2.0874755,-5.043524,-1.7381494,-0.14183721,-1.4795613,-1.1496134,-0.7743382,-3.8478084,-2.5612037,-1.0209997,-2.8862228,-2.2519834,-2.0335252,-3.8275762,0.7959868,-5.7720695,-3.4844544,-0.50322556,-3.1473067,-0.051256835,-1.0325122,-0.77615947,0.7983233,2.4979086,0.8524978,-4.3114166,-4.7656336,-2.7400103,0.4282399,-2.212297,-0.94425,-3.3000054,-4.5025764,-2.6362092,-4.117464,-5.652614,1.3381357,1.3593695,-1.3250458,-3.0813053,2.0833092,-6.616713,-5.3268976,-4.3776336,0.4282045,-4.2521167,0.058544636,6.515957,-5.9426293,5.250899,2.6639078,0.5233582,1.1974994,1.8436619,-0.5595455,-0.48921654,3.7033014,2.1942883,-4.767388,3.784593,-1.3076181,1.9961827,-1.1824306,-2.4256346,3.3246531,-2.6520019,1.7743523,-2.980697,0.53542125,0.46205565,3.6030874,1.4325588,1.8032522,6.916866,-2.1648808,-1.1716396,2.4320562,-5.0948825,-0.08710885,3.5588858,-1.9403151,5.9934206,-0.87795323,3.3340468,4.9204674,4.841317,-2.7573376,-2.4718328,-1.3236573,5.426532,1.5942161,-0.74808383,1.7472599,1.6986785,6.2644496,3.155922,-0.7513122,6.170644,-4.547072,2.1222715,-0.61776674,5.4788556,-0.21292734,-0.9483573,-4.189369,-1.8128854,0.9117672,-2.5757875,6.9638567,-3.0807073,3.2336955,-0.1636272,-4.910942,1.5679512,-4.311023,2.2862,6.527704,-1.2784182,-3.5161533,6.6442776,5.808832,-1.0535976,-4.5027924,7.8572626,-2.0728595,6.5041723,5.673936,1.3943106,3.6342132,-0.68983465,2.2640572,1.7349173,4.1320715,0.8224091,0.81597495,0.73083866,0.8583169,3.5419195,-2.0066984,-0.8822001,1.296989,2.796923,4.1118536,1.0385065,4.938021,1.0900304,6.334809,-4.9249225,-2.2504907,1.1739811,5.5032277,3.382353,1.8470421,5.9929996,7.2948937,-2.3779485,0.38726944,1.0086565,2.4000392,1.6810732,-5.469133,2.6567602,0.6053016,-4.6940184,2.2839148,4.5781307,6.515804,3.6035886,5.2061653,3.4142687,5.532767,1.6630452,4.956137,1.211763,-5.7465105,3.540237,-3.1739078,-0.13627005,-3.1424384,0.25841266,3.52177,2.7462816,-3.2457829,4.5903788,4.9695525,-3.4159703,-1.6064434,8.847268,-1.4064758,1.8073176,5.3883214,0.6960221,-2.3180056,-4.51503,7.712726,-2.2501988,4.8761787,5.023157,-0.626782,-2.6222587,-0.4447154,2.1438684,-0.6665783,2.2231488,3.0928469,-1.4280319,-3.6327112,-7.650625,5.826559,1.5298921,4.4070964,0.7549005,1.2519331,2.3435612,2.6626685,2.887801,0.6782435,-2.6423523,-5.0673094,3.8835413,-0.43939435,2.8096457,2.2156785,2.5276241,-4.3592854,4.5373225,3.0872269,7.885988,1.9987619,5.3692465,5.9496703,4.8025346,6.793163,-3.472543,6.001868,2.8257482,2.2469573,3.7976243,10.582407,0.117556155,1.7978203,-5.0401144,0.3856153,8.002795,3.5996292,2.4059098,1.4959064,-1.991442,2.9734702,6.6579027,0.7354988,6.303083,0.35979983,-2.4086986,1.9319799,0.83442867,2.282381,8.58242,9.0505905,1.1507586,3.1627762,6.224563,-2.3812423,2.3035288,2.5747893,-3.0619643,-2.5668807,5.209777,-5.3376675,2.865333,3.0913231,6.7423754,-5.3312616,5.444068,4.6618943,-1.9989667,2.2439141,-0.26007408,0.04231167,4.0555544,-1.9506676,7.0961003,5.3834734,-2.2949867,5.5404544,3.2923267,-0.79510224,-3.6788056,8.218467,1.531749,-3.7181175,-1.5005624,-2.7388465,-0.67065144,-4.4116926,-4.9098806,-0.3657927,1.2600408,-7.636097,-3.3243864,3.4964337,-3.0743933,5.918724,-3.6374714,1.6419985,-1.2006469,-4.740172,3.7916057,-1.0780466,-2.72335,2.4465883,7.665319,1.5449669,-7.2234497,6.592494,3.294395,3.1625307,4.827984,3.272674,5.844157,-2.9605331,-0.7881106,8.864143,2.1801717,4.0343175,-2.7495344,9.439168,-1.5937872,-4.7310104,6.6943116,4.7656026,3.9275556,-3.9118803,2.6365962,2.5170598,2.3116686,-2.9263053,2.9975903,4.4390407,1.3885208,-0.82109237,4.372782,1.4705597,1.0479405,-0.6179489,2.0179079,-0.43532956,1.6514229,1.0227433,5.390748,-0.8136759,2.1952748,11.343246,-1.7460793,-1.6824149,-4.394216,-3.325549,0.67003965,0.8148707,0.5422832,1.128809,-0.42690083,-0.258057,3.373061,-2.5739248,-4.252578,4.002626,3.4457595,1.5836498,0.4972946,2.1399362,1.9552855,-5.4250526,2.7703228,-0.5184501,0.96215713,-0.042851627,4.3616233,2.7451181,-0.31800848,3.876122,-3.5879931,-3.9945922,5.3734946,2.1945286,-1.2453781,4.6257696,-2.4403844,2.5501146,-0.8130863,4.2764535,0.31598282,6.7842016,-1.0216472,-3.6223161,-1.5240501,0.78736055,2.8926272,-1.5734459,6.3375797,3.2544808,0.35650292,1.5617421,7.1170673,1.1945027,4.696377,-1.4629463,5.3059006,3.694386,2.9012141,6.4213552,-0.6651003,1.3391073,-5.1989675,-1.918418,2.1281528,5.9436765,2.9821382,-3.9626994,-4.088661,2.5678518,0.5698625,2.2013857,-3.8506956,1.2726985,5.4440827,0.10945141,1.2599443,3.673665,3.5481167,3.8471415,6.868876,2.8214889,3.0138116,5.3678975,1.1942997,1.3388572,-3.3146625,-4.5199094,7.1295013,2.4552765,-3.280726,0.99964505,4.331129,-0.7976754,-3.0798664,-0.35357168,1.0158769,2.8967848,6.9019537,-1.3023515,1.9893297,-0.8596422,3.722722,-1.0662009,-2.089173,3.6802993,-2.6082435,-3.9817548,-3.1067646,-1.3170307,7.038533,-2.3015132,0.04348123,5.555474,7.2954016,2.5022187,-1.5090812,0.6554552,3.672667,-4.628496,-0.79083914,-4.1278,1.6570331,8.274492,8.14611,3.9913683,-4.084865,-1.0857422,6.086983,-0.60534525,5.406584,3.4433603,0.71734,7.442136,-3.4318497,4.56879,1.2912815,1.6652112,1.8088826,1.691759,-7.3196526,2.4918869,0.30990863,-4.179005,2.384867,1.6104283,4.4205184,0.35347855,4.9977055,1.7417758,-0.6644522,-6.806868,-2.7258484,-2.7509813,-7.101047,5.649785,-3.1799054,3.7334156,-2.9858031,5.4359884,-7.371028,-4.0718145,0.96227705,4.9308105,-1.9236404,2.5682092,4.6327157,-0.91331595,0.17786777,2.4521868,3.7970097,0.31454903,3.3464527,0.77926433,-0.62526,-6.963197,-1.6196716,-0.27938446,1.1432794,3.9496088,2.137474,-1.5871981,-1.436843,3.8073733,3.1489155,1.5901091,3.1996713,-3.0892432,4.812383,5.3608937,0.24764884,-2.3444443,0.17899728,-4.0018826,4.4268,-2.0671215,-1.2712653,-0.13734788,1.9163759,-2.6587865,-1.2673832,-5.32906,-3.7144742,7.130069,7.7902703,0.75181454,1.8866297,0.4377383,8.80576,1.576979,3.2008986,-1.7374614,0.17160773,-2.9851296,-0.028711684,1.307368,0.58617103,-1.1415794,0.872157,4.214452,-1.0368242,-1.0046599,2.7612877,2.5428815,0.9464614,0.485577,-0.8597804,-1.4818825,1.9467444,1.5623406,1.1441287,2.340537,-0.7060879,-0.9732866,-0.7865849,1.9837935,-2.760947,-0.9799496,1.3719187,-2.5763166,-1.1679516,4.092126,-4.808374,-0.4810203,-2.3039663,-2.432335,2.7541254,2.9937499,0.9073059,-0.5447094,1.8909051,0.9457537,-1.3100623,7.5400295,1.0211446,3.9389684,2.147891,3.8827205,2.1966896,-0.17334074,-1.7886527,-5.684867,-0.72481245,-4.9394064,1.2540941,1.4858885,-1.9420323,1.7243159,-2.3277078,-4.869597,4.054569,2.2129803,-0.28386024,-2.6830232,-1.3341526,-4.5111413,-3.0071619,-7.013963,4.149416,-2.1934586,-1.0250361,-2.7620778,0.4614433,0.9019098,-1.2484956,-1.4566686,4.1240025