-3.0557299,-4.3797073,-0.93537045,0.5846735,-0.76278466,1.1509492,1.3364531,0.4486884,-2.5314972,-1.7865965,-1.8244721,-1.0184863,-4.105791,-3.1084867,-1.8455589,-0.68388265,-0.8788956,-1.0268203,-1.4366465,1.4845661,-3.2687364,-3.6036792,-2.3053775,-2.3137693,-1.5869817,-1.1736438,-1.4094436,-0.25837415,1.7513467,-0.9744286,-3.227996,-0.80609804,-1.7239273,-0.46665153,-2.6967025,-2.9051418,-2.864273,-1.7722421,-1.2491692,-0.2647692,-3.2812736,-2.5183067,-0.61379695,-3.461879,-4.3658576,-0.7974223,-1.057364,-0.86899817,-0.51112914,-4.962048,-2.8253381,-2.423958,-2.697053,0.09332454,-0.7528053,0.10678285,-3.7138143,-2.7670891,-1.2448604,0.09452796,0.055495977,0.5730806,-4.4113507,-3.6191306,-1.7564154,-0.1980704,-0.35045683,1.0617288,0.88961846,0.67069787,2.2034898,1.5084269,1.3902277,1.9281125,1.2379346,0.06457013,2.097254,0.023119152,1.7158314,3.4553173,3.46742,-3.4492817,-1.2425857,-1.5988483,-3.2690322,-2.943976,0.5978791,-2.230891,-0.8287734,-1.1397877,-1.0176134,-5.444601,-2.4113293,-2.460701,-2.5755877,-0.17498052,-1.7891308,-3.85661,-7.6982427,-4.2940817,-2.9167585,-5.9761214,-2.9115734,0.5158075,-2.0801976,-4.0803714,-3.2222526,-2.3063154,-4.066092,-3.0851707,-2.442278,-2.1330123,4.5333705,-0.899042,1.6818218,1.3712735,-1.1140131,-3.8311613,-0.64233273,-3.1310153,-3.7866077,-1.2057767,0.5185633,-1.1911117,1.2335914,0.25364187,-3.177335,2.2268002,-1.4037018,-2.090107,-3.1662803,-4.0644135,-3.1456022,-3.1769865,-1.4001513,-2.1522665,-2.4600987,-5.2447944,-6.8238516,-1.9094377,-1.5091083,-3.4908233,-3.2010708,-0.9324409,-5.198518,-1.2221014,-4.8720264,-4.5771265,-3.482521,-2.558238,-3.320754,-2.0701084,-1.012906,-2.9386544,-1.0397226,-1.044998,-1.5984102,-2.8835385,-2.4490037,-2.1189494,-3.2214875,-1.8960446,-1.722296,-1.3593165,-1.0384245,-1.3302542,-2.604938,-3.3615434,-2.8398595,-3.2650805,-2.0718126,-0.16286129,-2.5836744,-1.5957494,-3.6096683,-0.2840171,-0.73803335,-3.4841044,-1.9206066,-1.1394172,-0.44389337,-1.6132925,-2.2611423,-3.6015463,-2.200557,-2.6243653,-0.122436404,-0.19097534,-1.3063726,-1.4429063,-0.31314498,-1.3055212,-2.2909875,-1.4577343,-2.0244904,-2.651655,-1.0477448,-1.9575684,-1.0195802,-1.6101756,-1.0313437,-2.3657732,-0.59473664,-0.7931905,0.38133946,-1.7312312,-5.1893826,-4.3850484,-0.1798462,-1.1598365,-3.4944098,-3.8390915,-2.9843636,-2.3250096,-2.6454985,-2.4623704,-2.126499,-2.1493163,-2.001007,-2.6377878,-2.4016294,-1.7293034,-2.742289,-1.3181989,-0.7906847,0.026590317,-1.6946791,-1.8650907,-0.7814913,-3.089521,-1.1308869,-2.799001,0.60056096,0.31258613,0.19852597,-2.8449147,0.07364443,-2.0274456,-3.3251216,-2.5163136,-3.0252042,-2.7131245,-0.69649374,-1.3336171,-1.932959,-2.2959316,-0.95639,0.44617724,-2.2387133,0.25073218,0.70672035,0.8253268,0.33394027,-1.9975858,-1.6364431,-0.22191912,-4.9500694,-1.7899835,-1.307246,-1.2066683,-1.3332224,-0.3519603,-0.72922033,-3.4490826,-2.9428947,-2.0452476,-1.8932222,-2.3396652,-5.1427712,-3.8061047,-0.9371906,-0.5932141,-2.1398482,-0.26978773,-0.028135136,-1.8161954,-3.2664413,-4.3764353,-0.6835128,-0.9192375,1.6443205,0.5540571,0.414078,0.6541722,-0.3265798,-0.65459096,0.6926675,-1.4154994,-0.5186795,-0.8218529,-0.8125186,-0.08472705,-0.79844284,0.3827394,-1.2372297,-0.28460798,-1.3453083,-0.25403714,-1.088221,-4.178124,-1.2115345,2.5054336,-0.8023148,2.855214,1.2620604,0.5073017,1.7366567,0.83407384,1.880575,0.5849267,-1.5795166,2.9810607,1.8310709,2.6516848,5.017583,2.450311,3.0714467,-3.1555188,-1.2821275,0.38439968,-0.13900542,-2.1651213,-0.796193,-3.2408712,-0.8095195,-0.51827836,-2.1122808,0.3489728,-1.1789894,-0.58331925,-2.0243676,-1.2957053,-0.7698012,-3.3565555,0.05827357,0.5576438,-2.8287835,-3.192354,-0.73254645,-1.5868421,-4.183611,-2.7570062,1.5925541,-1.484012,-2.321179,-5.7966237,-2.0188794,-1.9824187,-6.7133255,-4.1114817,-4.132135,-1.8764555,-4.91185,-4.685963,-1.5226452,-2.968473,-1.7204704,-1.4654398,-2.3202367,0.7244934,-1.6385723,-1.8093092,1.6909977,-0.60680366,-1.6095358,-2.4808474,1.6588082,0.19267663,-0.58450246,-1.0194286,-1.2977877,-1.8133401,-1.3100606,-1.1065624,-0.7096836,1.1927747,-1.9787691,-0.44908953,-2.5334866,-1.6798713,-0.7480118,-4.007478,-1.1268008,-2.241936,-2.7984228,-2.1186943,-0.5999036,-1.1967214,-2.0355482,-1.1388168,-0.8739065,-2.1750078,1.4303722,-2.8398037,-6.38751,-2.9387388,-0.36311498,-2.7468796,-2.3565433,4.9985003,-3.2216945,2.8916373,0.106485456,0.0721576,-1.0650363,-0.479604,1.0232339,2.063258,1.389483,-1.573827,11.614673,-2.293149,0.972965,3.1427689,0.47166717,-0.8893727,4.1653147,2.1193528,-0.9178513,4.093952,4.702604,0.4123948,5.380272,2.962887,1.5637772,3.3637686,3.058155,7.5786366,0.035434835,3.8792753,0.46666414,-0.44873205,-3.191288,3.1040168,0.17944571,2.7011473,0.8410387,-1.1015939,0.1487838,3.3062909,-1.9229927,-0.4702469,-0.89239377,5.1056213,0.11847344,1.8177204,0.63275266,5.3805356,0.7213758,1.5735664,0.81795245,-1.4865032,2.4298918,-2.2162113,0.6614897,3.9780514,4.4910307,3.8803163,-1.3472517,5.5266523,1.2863677,-1.4209266,-0.69035715,5.2562914,0.99222386,2.6091437,-1.3253927,-3.972091,-0.66125065,0.32035556,0.29845363,3.4037874,1.6401665,1.806687,2.2004066,-5.1481237,-0.9381988,-4.1277313,2.1614866,7.49986,-2.1298234,4.3502264,5.5495443,1.1290269,1.1602129,-0.6745961,1.7220758,-2.0006325,3.168892,1.999828,4.8788323,-0.3470415,-0.6681916,0.6942831,-0.30069396,4.1725893,-0.9300767,0.018434815,4.541923,2.5319357,2.9275033,-0.7180393,-2.389045,-2.2872517,-2.3574605,2.2073712,-0.18712375,2.798924,4.553161,4.7882204,-0.772692,-0.6034476,-1.68447,2.4536471,4.1722717,-1.3217233,-0.13083339,-0.28731567,2.2318637,-2.3947284,2.7549763,0.7425134,0.24988478,2.6354392,2.9433608,-1.3241665,-1.2894186,2.1149387,2.152623,0.71076196,0.071404815,6.679637,4.880012,0.6953733,0.31124145,2.7433996,1.0031744,-0.83875024,0.7696667,2.1441412,6.876149,-0.8661798,-0.97803766,5.790016,2.2323365,-0.12603134,-0.9766904,-0.16949558,-1.8150256,-2.2758865,8.8393135,0.7146794,1.493452,-0.6246339,0.46139207,0.86242163,0.5826393,2.9736989,3.0673125,0.4737857,5.7014813,1.0576661,3.1138375,-0.6044386,3.3764002,-0.5143018,1.1942453,4.074842,-0.3600821,-4.066947,0.78001523,0.69916725,1.6705748,-1.2436135,-1.8041055,4.5888505,-0.2492074,4.2310934,2.5348635,-1.7653713,-0.30584663,0.64813304,-0.9013961,0.8208604,5.9675612,2.4828053,2.1009693,0.86366343,5.3855352,-0.46036345,0.24725997,1.5665352,4.603397,2.494791,2.001371,1.3214084,-0.7719508,5.798236,-2.4715476,-0.41091377,2.9064095,5.8013105,-2.4499848,3.2639062,-1.9139326,1.5575988,1.9374313,1.2369756,1.504511,2.773531,-1.3681676,2.5095673,4.7146916,2.563486,1.1224531,-1.1528144,-1.5884472,1.324604,0.040692747,-0.2657454,0.53066224,3.870504,2.954942,3.3032067,2.6431909,2.0232704,-0.16409552,5.641574,-2.2929492,0.40963805,2.9564748,-1.8238709,1.3630636,0.66705275,5.567536,-0.7450341,6.528997,0.23936966,4.375219,-1.0342461,-1.349166,4.6502013,-1.1270746,-1.2015271,0.034768164,10.349756,1.1051102,7.212169,1.5852549,0.49250495,-3.0431635,1.848053,0.033754945,0.8016578,1.4214147,-2.3417032,-1.5275865,-1.5123397,2.263804,-1.2095332,-1.209758,-0.50898343,-0.6731444,1.1162173,4.6858673,1.2654754,-1.2477977,0.19536367,4.9912987,1.4956232,-0.20396045,0.53190017,1.3581893,-2.4883451,2.2417321,6.7602887,0.2400614,0.80088574,5.788385,-1.8722366,0.2510822,0.2057662,3.489332,0.94472975,0.6137016,1.1317554,3.2963555,2.7041392,-1.6559752,3.7349231,-5.8880377,-0.7061045,-0.5456629,7.816027,1.7464669,0.37198168,3.5161774,3.72819,-0.832846,2.741592,2.5348272,2.5864148,-0.35374862,3.5149612,1.8825717,3.0890002,-2.622202,1.1101162,2.6414702,1.199348,1.6350749,3.9348156,4.212287,-0.42277157,0.31309417,6.2572603,-0.11420262,3.8764415,-4.3023863,-0.7901999,-0.633241,1.1171654,2.4382699,1.5165603,2.2891533,0.14976764,-2.114201,0.9277246,-0.4562049,4.951802,2.2288196,3.6886306,4.274418,1.7836218,4.710975,-0.37005317,-2.0700445,0.74295217,0.42053235,-0.8571133,0.48370448,2.0032134,5.4859004,1.9649687,2.8464658,1.5502617,1.4097784,5.2698236,0.9388759,-0.7019737,5.158848,3.5578187,-3.2085028,2.2598217,0.81323105,2.0092218,1.3859487,-1.1029825,1.7106558,0.75725925,0.52638173,4.822339,2.790636,2.0518413,2.6881368,2.36021,3.2431698,0.8001524,8.496872,0.9277147,7.9656525,0.106306404,4.6094327,8.517781,-0.82965195,-1.3916036,-4.5654135,-0.1141119,-0.3433445,4.5870676,-2.1604483,-0.46253008,2.717233,2.4985707,4.502714,3.6950955,-4.908636,0.64032245,5.5188956,-0.16144192,5.1640353,1.1121608,4.8143306,3.6443212,0.75263715,-0.683669,2.684712,-2.6209345,0.037673116,3.9902976,1.7953045,-0.5853315,-0.61133707,-2.0316415,-0.82939905,-0.15603739,5.590085,-2.4765027,1.2121661,-2.183388,2.850397,1.5209231,0.612569,2.322039,2.040776,-1.0714853,0.5925695,-1.2666754,-4.830317,1.2870862,-2.6102166,-0.9750875,-1.3021196,1.0999137,4.659159,-4.388303,-0.040202975,5.6912007,3.0561078,1.7064016,-0.42750442,1.691134,0.48812327,-0.92802787,-0.34617728,-2.7740617,9.638543,1.9344215,1.8799918,1.8036442,-3.1062398,5.5103197,1.7350254,-1.3671451,2.8462586,5.613324,4.666153,0.12584627,0.63811535,1.6761634,-0.97669,-1.3091924,3.4475634,-0.250234,-0.24978465,-0.6254311,2.2554355,-1.623878,1.967844,0.35267532,1.309582,3.8884175,3.3019042,0.8576466,-1.5018643,-2.7304764,-0.18832985,0.15866753,-2.453126,2.7743201,-2.2292707,0.2484825,-1.3361324,2.6731555,0.98034066,-1.9673426,5.3958497,-0.027379215,4.706872,0.6163523,5.7855463,-0.20140171,1.2414949,1.1115731,0.050578743,2.496794,-0.24308276,2.7209105,1.1844795,-3.0909457,-1.1819736,0.56373733,-0.7998951,9.850345,0.1259129,-0.46969643,0.63995683,2.1591163,1.7978384,2.021257,-1.1125616,1.6924534,-0.30149823,3.4628139,-1.9438208,2.3715866,0.4405133,-1.1355374,2.1562252,-0.6662439,2.3962362,0.954201,-0.7739502,3.0408468,1.0258431,0.2708019,-0.8970671,6.23001,5.9270773,10.272699,9.755081,5.337993,9.233671,4.5539155,1.9104748,-0.37279493,0.9194212,-0.6560917,-3.729912,-1.2433769,0.29333293,-1.9658655,1.4373674,2.1185966,-2.639103,-1.2642614,-1.0875528,2.4866486,1.0890718,1.377384,-1.7089951,-1.5054703,-3.944234,-1.1502615,0.50943553,3.1786637,-1.4593723,1.2379391,-3.3785362,3.4423742,-1.8776064,1.1484424,1.4446281,-1.1896175,0.85965526,-0.40897143,-4.0048447,-0.3862512,-0.45632482,0.15331313,1.3349385,-0.36228895,-0.6979474,-1.8922125,-0.2645769,0.7732959,0.49272162,3.091191,1.67809,1.055393,-0.11842874,1.4802458,1.8565418,-1.2786984,-3.0663667,-2.849452,-0.5978417,-3.534934,-0.46464896,0.7265244,-4.072477,-1.1989527,1.9142848,-1.8925562,-0.8764943,0.79038763,0.04285475,-4.7092514,0.50619626,1.8550185,-1.224112,-1.7561868,-1.5819336,-3.7736018,-3.2259884,-2.7475646,0.32969987,-2.6201894,-2.8682675,-0.11271757,2.6656005