-2.5092885,-2.3061798,-1.0126686,-2.9035487,-2.6306157,0.114020705,1.1681861,0.24362183,-3.4299402,-1.3773715,-1.982705,-1.8084728,-1.9996029,-1.9206455,-3.802711,-0.4254076,-2.1075869,0.13762254,-2.5457711,-0.7622206,-4.4259753,-4.4741554,-0.5494056,0.80767745,0.44958797,-0.80598706,-1.512838,-0.7194376,-0.97824246,-2.2623262,-1.7958467,0.0060423613,-1.4575052,0.099292986,0.11117166,2.1473544,-0.63648015,-0.11947033,-0.058356643,1.3992547,-2.9297378,-3.4045095,-0.63011,-1.6655757,-2.6025467,-2.8705695,-0.036817566,-2.2992435,-2.8323436,-2.7640676,-2.458273,-0.22288889,-4.169693,0.81404793,-0.5742709,-2.9163697,-2.2962623,-0.5118505,-1.210349,-1.6737599,-0.31562507,0.5500077,-1.9351549,-2.8124263,0.8684261,-0.8197864,-1.1924523,-0.13883029,-0.93710756,0.22190848,-2.4546766,-2.442215,0.5637849,-1.9384366,-0.79511124,-1.8766912,-0.3401814,-2.3314676,-0.6706592,4.195441,0.16911185,-0.6813171,-0.6175035,-2.4477801,-0.1999278,-3.9778996,-0.85645866,-1.1382792,-2.0824044,0.041815996,-1.8051848,-2.1631467,0.07456568,0.7424388,-2.8016,-2.1786835,-1.8130645,-2.000204,-1.9909723,-0.99996793,-0.2747047,-2.170674,-2.8354907,2.2420053,1.6637743,-2.4648654,-4.461429,-0.2193625,0.35651648,0.70148534,0.28100306,-2.838136,2.40397,2.5050287,-0.16462716,-2.5460234,-1.3440913,-2.086882,-2.5416014,-0.09390676,-1.6061914,0.23498811,-2.7339664,-3.3422942,-4.1634283,-0.73940015,-0.4427379,1.1287477,-1.9460981,-2.3414335,-0.9031107,-1.3773807,-2.8769104,-3.5350077,-2.2597752,-0.6237111,-1.6235795,1.5613755,-1.0079296,-1.5060606,-1.1680454,-1.6107138,-1.7450974,-1.6705866,-1.494596,-2.2533417,-3.9985313,-1.1587057,-3.2964454,-2.3942776,-0.7036535,-1.2201539,0.08113375,-1.6510478,0.6512189,-0.39148843,-2.4813366,-2.2705433,-1.0351634,0.11994526,-0.51788265,-0.3198452,0.029576302,2.131194,2.349791,-1.6404104,-1.4939257,-0.13783908,-0.37549287,1.4303775,0.18204844,-1.1698498,-2.4429708,1.1888905,-0.25491828,-0.51521003,-0.024461508,-0.8720598,-1.9700603,0.7708349,0.2495355,-0.042695224,-2.0469267,-2.5747828,-0.15746145,-3.8289745,1.2409034,-0.8322653,0.65345603,0.68101573,0.27050638,0.33028543,0.48316047,-1.1886182,-0.69003105,-1.5639597,-0.11581087,-0.73743916,-1.9221697,-1.725599,0.24835283,0.19545037,0.24539095,2.0730104,2.0854595,-1.1447272,-1.7143377,-1.890707,0.8086381,-0.08882341,-0.8832436,-1.1308603,-0.40724277,0.1983354,-0.6586056,-0.09769836,0.6907756,1.5686221,-1.237503,-3.359822,-2.8802824,0.24705255,-0.7722086,-0.27409413,-0.95245814,-0.56883633,-0.25911668,-0.7372477,-0.2915684,-0.5260154,2.0390332,-1.5507052,0.40915328,-0.27339047,-0.082399845,0.276691,-0.43584633,0.2488295,-0.12199199,-0.81858444,0.97141373,0.64975905,0.3184198,-1.2345475,-1.1089869,-0.55197066,-0.076561004,-2.5513344,-1.8472118,0.23724008,0.24160454,0.87223715,-0.6722382,0.06235844,-1.3532717,1.5578,-1.5085218,-0.15561643,1.3038198,0.46013275,0.08563751,1.7121046,0.47714114,-0.20095491,-0.10087955,0.9721476,-0.025335938,-0.63471526,-2.1069984,-2.6973085,0.38225475,2.0066016,-1.1161753,0.3492808,0.59103364,-0.8913019,-4.221235,-2.0448625,-0.24291945,-1.7240078,0.44150728,-1.1348646,0.21584111,-0.9858221,0.36448044,0.5776559,-0.49268705,-2.131016,-2.3657568,-2.6732407,-1.40792,-1.8654699,0.22684813,-0.5442408,-1.8541143,-0.4668787,-0.43002975,0.25713038,-0.49049824,-1.6632605,-2.8749945,0.23451579,1.5923363,1.6694415,0.35606045,0.25208068,-0.05099398,-0.614564,0.93801546,-1.7060189,-0.77195954,4.028747,-4.0425544,-0.94516087,-2.8988414,2.9021153,-2.0967448,-4.00918,-2.7859702,-3.390099,-4.2708054,-5.506135,-3.2617636,-2.1022072,-1.0360757,-3.4407768,-3.0646682,-0.2589892,-0.6548533,-1.2262808,-2.6641004,-0.9246127,0.9397936,-3.2507696,-0.30557135,-1.0872347,-2.212631,-1.0885141,-0.3991935,-1.1036595,-4.1783676,-2.4612567,0.2553689,-1.1981106,-2.2863927,-0.6230928,-0.28989846,-0.27906832,-4.203941,-3.0293903,-2.4299889,-4.034179,-2.9884675,-3.554925,-3.5149808,-2.9122505,-4.495795,0.036977723,-1.4843074,0.7014028,-0.25768933,-1.034946,0.8527436,0.71960616,-2.2860792,-2.252255,0.066491365,-2.1966553,-2.0160108,-1.9232218,-1.6939229,-2.8716335,-3.3490252,-1.2270472,-0.81216687,-0.9092169,-4.170901,0.044757307,-3.6166265,-2.1052396,-3.3111467,-2.4948747,-4.351269,-2.1500802,-2.5638468,-3.0770168,-0.4566991,-2.3001785,-4.145799,-4.071283,-0.43518174,-0.35671443,-0.98676777,-0.957788,-3.0739136,-4.289624,-1.2463263,-2.066358,-3.4753075,3.1950753,1.1417651,-0.2495642,-0.45332876,-1.016644,-1.5581477,-2.6983325,-1.1530968,0.21358404,-1.6005262,-2.7746162,4.0355887,-1.8144565,4.3021536,2.731674,1.8241282,2.436501,-2.6484733,0.6468574,0.798629,4.041491,5.7114167,-2.1350298,-1.4954664,2.9781725,-0.43109232,-1.2101864,-0.45663726,0.042108774,1.5625128,1.2144035,0.7580198,-1.92825,2.4947016,1.9086928,0.9898931,4.568207,2.2883682,-0.47526932,-0.8505903,1.7553382,-0.9181566,3.0000772,1.4774375,1.9943898,3.0572033,-2.0433643,-0.03968972,5.7775607,1.500277,0.56761444,-2.2844439,2.078616,0.52750325,-0.94678307,0.8822826,-1.3578255,1.1824617,0.69513786,1.3668667,1.7570379,0.53401136,-1.0070488,-0.051686764,1.9539384,4.4645867,3.8408992,1.8558989,-2.5069585,-1.5179662,-0.38904995,-0.29794753,3.0561419,-1.3895694,-1.5395215,1.2638301,-2.5040784,-2.6718698,-3.120315,1.0573127,6.292953,0.7573782,2.831812,0.45284295,-1.6993825,-1.2555896,-3.7301216,-0.7083765,0.51482254,5.0998282,4.368946,1.9148946,2.1668694,-1.5134065,1.1528722,1.1907259,-0.03735937,-0.8892952,-0.4097729,-1.3941633,0.84934247,0.91065806,-0.79782784,-0.9170222,4.462762,1.4316657,3.4554975,1.1881897,2.992086,6.186954,2.1911588,-0.011245847,-0.86625475,-0.9957992,0.4945931,0.16032523,-0.1590729,1.4998996,0.83410794,-1.7818654,-0.89979744,2.1665697,1.6987413,0.61078054,1.275164,2.4602754,0.24378896,-3.0265381,3.0357049,2.312274,0.071484745,4.8197994,3.8209827,2.8545167,2.1274893,3.4142928,0.4710526,-1.6135566,-3.0861955,0.15421104,0.48871043,2.9956555,-1.3696969,0.36933517,0.5771891,4.8373437,0.2676,0.37469402,-0.5657756,-4.0643573,0.5695925,5.1918507,0.12648767,3.682135,-0.6785284,1.1587377,-2.8550582,-1.0881715,1.1153016,-0.7218668,-1.1961516,2.271938,-1.4033947,-0.939966,-2.0526156,0.523918,-3.4745717,-2.209942,-0.30685842,1.589958,-1.8272712,-1.5117164,1.5705111,1.0563674,0.18952179,-1.2782726,4.835997,-3.9802518,-1.4429071,1.7580395,1.0256236,-2.277235,-2.1050425,-1.498287,0.83788073,1.8290778,4.5752954,2.5945902,-2.568729,1.8540576,2.0909724,3.0374618,4.724617,5.013055,1.3005407,3.879465,-2.316874,-2.252236,0.44926807,-3.863809,-0.8961843,5.417015,5.0021267,1.6737359,0.6743483,-1.3662963,-0.59715617,1.6204072,3.5974455,-1.6307664,2.238226,-0.52527684,4.079542,4.630718,-0.036038518,-0.4898445,-0.31419548,3.0153823,2.9271626,3.4745789,-0.44715536,1.4932795,4.0188065,-0.62825936,-1.2696797,0.87717706,1.0657847,0.43196785,3.6503887,0.147327,-1.1912916,3.5150993,0.1009382,4.0007668,2.6188726,1.523767,-2.6716452,3.3803427,0.14355853,0.96220845,1.1235014,-0.024053037,0.46025795,1.99746,-3.0742471,-0.43764836,2.2846801,1.0089335,4.5757813,4.6876736,2.1156266,-0.038513005,2.174773,-0.099285826,0.1180976,2.698603,-0.28647715,0.74078983,0.15457104,-2.869421,-0.70909363,3.540382,-2.847928,-2.8514986,2.308511,-2.4876745,4.6728725,-3.474925,1.7371173,0.46309075,-1.1596887,1.2737423,-1.1687825,0.268807,-2.034299,3.8048358,1.1765676,-2.9729936,-1.0914018,4.2212844,3.5273175,0.99655825,5.018043,4.321355,-0.3958798,0.9411851,4.428573,0.6201565,4.750846,-0.72433233,0.54058963,-1.3530827,0.30167747,1.2592082,3.9541502,-0.72980034,-4.6300035,3.4227645,3.849362,6.0794683,0.25710258,-0.04530167,4.0499535,0.73351586,1.0944502,0.06307304,-0.21706851,-3.1669793,-3.063055,0.017901003,-0.38543028,1.3868363,1.8149922,2.648557,1.4786247,1.3305645,2.5438976,-0.8269959,0.9703689,-1.7665489,-0.9121365,2.0906498,4.1561604,1.9433272,2.7866893,-0.096137576,-1.5733756,1.3038805,-1.0054241,-1.5347252,3.6876862,1.2457353,0.98100674,1.3733065,-1.1238539,1.4470397,-2.211814,1.146722,1.344749,2.3232288,1.5670778,2.763077,1.7278997,3.3669229,0.6906382,1.0421338,-1.4763646,1.6841402,2.030704,-0.49162495,3.114614,2.6298232,4.3012676,-0.41308093,-0.4324481,1.7272998,-0.90857184,-2.3379118,-1.24495,-0.9349513,1.9759041,1.1167848,6.1938233,4.202481,0.039007284,-0.9486042,2.0620437,0.1895067,1.0817776,5.1123095,2.1165926,3.0955153,1.9862082,5.0408525,5.50303,-0.85377336,3.774794,2.5629442,-0.60383487,-1.3668993,3.6358361,-1.6505251,-3.2689862,3.2674286,3.1635554,6.266589,2.5886197,-0.52874124,0.45880467,1.2808707,1.0152873,1.1869549,2.2303834,1.3304408,1.2223377,6.43959,6.0348024,1.3723199,-3.8663487,5.3274555,0.45632538,-1.73663,2.3655624,1.3937842,-1.1341718,-4.5288405,2.105635,3.8849523,1.700505,0.37525696,0.99478865,1.0064346,2.5924065,0.6819718,-3.8677342,-0.93545866,-1.2485092,-0.7329223,-3.511152,-0.9074102,4.4524508,-0.7847285,-3.911296,-1.3992583,-1.7382782,1.7628984,1.6168673,-0.2643093,3.3898346,-0.8846576,3.7108605,-1.4946525,2.1903353,1.0773762,-0.9456423,-1.877851,0.33597803,-2.634435,2.0357814,3.7017968,4.8861237,-3.5081224,3.915026,1.5622082,3.3457093,-0.46177775,4.0980473,1.2343106,0.62394154,-3.3405063,-1.4973457,2.0273108,0.96738774,4.336658,2.5069656,0.21208379,2.2030497,3.3696623,-1.824821,-2.2693458,-0.99284756,0.906296,0.19756038,5.7535725,1.288314,-2.5929184,-1.70825,0.2917065,-0.7328308,-3.3265903,6.209942,-0.8312173,1.6713725,-1.5337111,0.20369545,-0.44206044,-3.979039,0.32075033,3.4810386,0.8799874,2.0094957,2.861558,-0.5171588,-1.3671565,1.0030661,4.1906996,0.71491176,2.2757652,1.7478389,-0.22085983,-0.51153153,-2.5376508,-1.4318678,0.92620397,4.715155,0.83879185,1.5126778,2.1375384,1.629033,4.483929,2.8844237,4.2975683,-0.168939,2.1756597,4.108167,3.4627485,2.5075865,0.48633647,3.8479996,0.8884317,-1.9124714,1.091932,-0.13619691,2.053766,-0.5910103,-0.077794865,-4.584499,-3.5856757,6.955718,2.05192,3.2015555,1.3956828,0.27171373,1.1132941,3.9051876,0.9428683,-1.0199783,0.87399197,-0.9669478,0.13589743,-1.1436743,1.0149003,-0.34510317,-3.1450205,2.0714917,-4.233874,-2.0902355,-3.111889,3.2407258,1.1616356,1.8233023,-1.3418579,-1.04618,-1.710336,-2.4385037,-0.5902473,1.9354879,0.8379197,3.523339,0.028751671,2.1708803,2.7279744,-0.5316944,-0.40286592,0.32011846,0.96646047,0.302907,-1.4823723,1.0900192,1.7041631,0.21155521,-0.48163313,-1.1255459,-0.061917186,-2.8645995,-2.4495692,-0.1235019,-3.5059357,0.57504237,1.5307196,5.9449472,0.013267577,1.6918647,-0.7222545,1.6313534,0.5622429,-2.8988504,1.6838763,-0.25771806,2.20753,4.2955284,-1.1616932,-1.270715,-0.7309501,-1.2288666,-0.59630597,0.66432893,2.3009894,-1.7916942,5.021017,-1.1050518,-0.6001102,0.5957523,-1.4215695,0.58430827,-1.4728086,-1.4219031,0.58355486,0.3299203,0.5407448,3.8114824,4.323888