-2.6112266,-2.5778778,-2.342387,-3.3134265,-2.3584764,-1.5377843,0.90727115,-1.5138767,-3.440832,-1.2037446,0.021863341,-1.9871372,-1.8854277,-2.5186048,-3.0786972,-1.9371443,-2.616952,-1.3059696,-3.402397,-2.712627,-2.308274,-3.4977486,-1.0647839,-2.2895305,-2.2005293,0.37131864,-2.6879182,-1.7216702,-1.2608172,-3.4748597,-3.9425657,-2.3380537,-4.609921,-2.0797188,-3.3458183,-1.0868398,-3.4482331,-2.6237366,-3.5325856,-0.104227364,-5.510769,-3.6024513,-0.51066566,-3.0722795,-3.188314,-2.291263,0.49181253,-3.4076123,-1.4441439,-3.8782668,-3.7313454,-1.1625855,-1.2463933,1.1497241,0.059064746,-2.8616126,-2.2022495,-1.028631,0.012371182,-2.3028662,0.052577853,-0.124607146,-3.5712261,-2.5161018,1.2858453,-1.3880848,-0.20518768,1.7220303,-1.4063607,0.92601585,0.30432314,-0.2863577,0.25737637,-0.6202873,0.2679283,-2.8632731,0.19454974,-2.074994,-1.9126165,6.1379094,-0.6704418,-2.1258721,-1.5954331,-3.8050985,-1.2552712,-2.3253222,0.13705856,-1.9964356,-0.5589708,-0.14414349,-1.2236812,-1.3398256,-1.169865,0.9464498,-3.1450052,-1.8249279,1.0362283,-2.9008458,-1.8359061,-1.2430453,-0.27904856,-0.44681823,-1.907788,1.4010196,0.4528427,-3.6976893,-4.406235,-0.43394983,-0.05766152,0.1807512,-0.23044676,-0.90811396,6.0312147,2.6353889,2.8970892,-1.0916823,-0.51168025,0.15324552,0.76483,1.5056493,-2.5822659,0.5389385,-2.2581713,-1.9677466,-2.8892899,-1.671558,-2.5361848,2.3117442,0.07313484,0.60788655,-0.04302472,0.8331679,-2.0073142,-0.9758357,1.0109001,-0.94996136,0.57038695,-2.117233,-3.48353,-0.10733402,-2.6448636,-1.7911355,-1.9985887,-2.1509986,-3.097768,-3.3877106,-4.093308,-3.1605263,-1.8865052,-1.5562489,-1.3786082,-3.5397825,-2.1739974,-1.5359514,-0.22116198,-0.36775893,-1.7738043,-2.9202726,-0.24194372,-1.2628384,-2.7422287,-0.36207086,-0.37504607,-0.98641455,1.1367224,0.47900903,-0.9439615,-1.6513454,-0.770234,-0.35666177,3.9415135,1.6263782,-1.8342177,0.4526743,0.8672397,-1.7449908,0.81861466,0.6576873,-0.578556,-0.62303305,-3.6871681,-3.372149,-0.85971117,-3.577233,1.2480899,-1.9678721,-0.42259103,-2.6884954,-1.4605453,0.6616512,2.5726116,2.7103558,0.8126354,-0.8544241,-2.9263783,-0.9309238,-0.5012957,-1.3738849,-0.6467064,0.31418002,1.93314,1.5429766,-1.7612851,3.4656606,-0.32735655,-0.9516778,-2.903456,-1.5116347,0.76962686,-1.4664848,-0.4219876,-0.9879745,-1.7365117,-0.3438521,-2.793447,-0.7287315,-0.17379734,1.2942994,-1.8895999,-2.450876,-1.9618894,-1.5215976,-0.19343352,0.05953878,-1.4880602,-0.45084628,-0.39553264,1.1724275,-1.6637065,0.9911536,2.6887233,-1.9180431,0.48142427,-0.801842,0.7356979,-1.8826447,0.6768428,-0.7794021,-1.7899299,-0.78134096,-0.81307393,-2.5198517,-2.173122,-3.3831408,-1.872097,-1.1693764,-1.7268045,-2.4400973,-1.6405447,-0.34689668,1.5211272,0.30023482,-0.18233019,-0.18021327,-2.763958,-0.8709133,-3.488411,-0.9432798,1.8738976,-1.0342277,-1.5547533,-2.5123222,0.13561366,-1.063591,-1.8719993,-0.6257627,-0.93077254,-1.549386,-1.004199,-2.804914,1.6760957,2.500705,2.0431585,0.97159564,-0.44038975,-0.8717429,-1.4166982,-1.097625,1.5185963,-1.1500762,0.53576326,-0.19520217,-0.27901733,-1.0380543,1.0086597,-1.0776951,2.1626377,-3.9346578,-3.1536992,-1.3544458,-1.2918538,-2.5860834,-2.8539755,-1.6237552,-0.5944781,-0.39867577,-0.98332506,0.9340563,-1.1597768,-3.2339473,-2.1735492,-0.6192908,-1.867645,1.0757217,-0.61330223,-2.1108212,-0.9937865,-0.4210928,1.2040405,-3.4821453,-1.3414613,4.61895,-5.300682,-2.4850702,-2.245593,-0.15542048,-1.7762506,-4.1737013,-4.6069536,-0.8186083,-2.9495583,-2.4099605,-6.616429,-3.652981,-3.3552456,-3.998003,-2.884101,-2.2893426,-3.6592069,-0.09259218,0.043219298,0.50411,2.2098,1.0368631,-0.6724825,-0.71122867,-1.583648,-3.7181182,-1.0068835,-1.5810567,-1.8368833,-2.988731,1.1107631,-0.65721464,-0.64529043,-0.778329,1.0526822,-2.566667,-2.1498504,0.3408835,0.10412496,1.2153906,-0.25996518,-1.0832542,0.6005873,-1.9451202,-2.2921004,0.7699986,-0.9195056,1.7042112,1.8580009,-2.5578961,2.3469105,2.2159178,-2.93693,1.4859535,0.25799292,-1.6869507,-0.98978066,-0.52872086,-1.5195011,-2.670487,-1.8850564,-3.251517,-1.7552233,-3.0439327,-4.903286,-0.26354033,-2.8869452,-0.62915885,-1.0846415,-1.0378995,-3.00411,-1.556976,-3.2093053,-1.397774,0.36237258,-0.42724034,-5.179081,-2.756855,-0.0764516,0.6168552,-0.69195354,-0.6051121,-2.4958768,-3.566328,0.099989235,-4.1487393,-4.283869,4.009489,-0.5776602,-0.52037907,-1.4795768,0.5088135,-3.4031835,-1.2003236,-1.9073614,-1.522478,-0.82844746,-1.6019033,4.9298673,-2.1632202,3.2301688,2.5669355,1.0947144,0.010607898,-0.8715873,2.9014783,0.3468363,5.825431,3.5714889,-1.5061657,1.6745336,3.9330227,-0.41845447,0.2637,-2.0559828,3.7297902,1.3403338,0.2312111,0.8556541,-0.719466,1.342268,2.1729822,2.140563,1.428658,2.4066434,0.9586905,-2.2551053,3.361193,-1.5779896,0.7555366,3.168487,-0.59832764,1.276824,2.0615761,-2.225956,7.054631,1.566741,-0.7982774,-2.9056418,-2.8364944,2.4728596,-0.4863513,1.5286722,-1.2398772,1.8818296,-0.5484348,-0.030427217,1.2431409,2.3258033,-2.4125063,2.029647,1.0446455,1.9988754,5.263207,-0.23273778,-3.0756326,-0.4948692,-0.61826265,1.3276298,2.0669434,-0.48469746,-2.3388522,2.5199654,-0.05835271,-2.466349,-5.778115,2.835091,4.810317,1.2262373,0.9599082,2.2134364,2.6767714,-3.5954156,-5.214129,0.6131761,0.5971732,2.3665657,4.652175,1.2453967,4.856371,0.08071101,3.4418192,3.6480784,3.9049625,0.5939514,-0.11217225,-1.3787519,1.8311981,3.2594395,-2.4801488,-2.7383225,1.6678816,3.293941,4.241982,0.33057347,3.653848,4.4086637,0.9038373,-1.1295128,-2.9645176,-1.6254032,3.3521507,3.888205,1.5006354,-0.25365013,0.8008092,-1.4694233,1.7605813,4.9911213,0.252643,1.1316483,5.0282106,1.8787565,1.4273157,-3.092937,0.50617146,2.856544,-1.1648614,2.7130184,3.5015905,1.5806761,3.1594174,1.0856342,3.568072,-0.6353363,-4.538864,-0.7824154,-1.8871799,5.170329,-2.2719898,1.2104924,4.3783355,3.2713835,0.38093525,0.5763911,-0.18396568,-3.7361488,-0.66780823,6.3038616,1.8025699,4.834159,0.8036103,3.938517,-2.8314912,-0.3246823,4.1944194,-3.4063792,1.7947364,0.32424596,-2.9949484,-1.2734544,-3.105402,0.3399731,-4.031029,0.21873707,0.8352349,2.206292,0.6364309,-3.2388947,-0.9368369,-0.19894412,1.9978304,-1.8253808,3.6220565,-4.816535,-4.94551,4.212931,-0.2849912,-2.306596,-1.6453981,-1.8754568,1.0517641,1.7746054,5.2805185,5.8546715,-2.1253107,4.1017985,3.429973,5.8125477,2.3934195,5.2092705,0.6542505,1.5631264,-0.5251571,-1.0399308,3.2377908,-2.6187005,-0.56161845,1.5037367,7.234975,1.5409577,1.8633828,-2.0472386,0.33212483,0.33576223,2.3842714,-1.6098267,1.1683517,-2.7848625,5.402616,-0.7299582,-2.661528,1.7440946,-1.445435,2.40356,1.2902324,4.186333,1.4322076,2.248299,2.4516983,-2.059736,-0.47966662,2.9207544,-0.97972614,-2.9757967,2.4790466,-0.7228448,-1.7429571,2.5199976,-0.77681315,4.747064,3.733162,2.4035168,-0.038922936,4.697074,3.495108,1.2242568,-0.065379724,0.14224619,-1.5625784,3.8177676,-1.0484588,1.802922,5.4315715,-2.6128302,3.021912,5.4091454,1.7048069,-1.5393038,5.1504145,1.002865,-2.5250473,-0.057593763,1.294074,0.6414715,-1.8480377,-1.719348,0.28375733,1.8432127,-1.9457837,-1.2855426,0.99518216,-2.4345593,1.3211906,-0.5636898,2.0602195,-0.0028901715,-2.7888203,-2.471605,-0.4443103,1.9618617,-2.7058764,4.700083,3.8733373,-1.5356388,-0.4335857,6.0629287,2.2872076,1.7292612,2.9883163,3.527155,-1.7881836,2.5329132,4.797282,-0.4854604,3.7154834,-0.5528047,1.6699002,-2.9991636,-0.17541134,0.49568176,4.5113344,-1.6610491,-2.9971764,2.7614765,5.03274,1.2016335,-3.3583276,5.6666603,7.4293714,0.28790328,3.8158054,-0.80606973,0.12571229,-1.0702689,-1.6783454,-0.40077502,1.7563343,0.5573073,1.2575403,3.5989532,3.275662,0.10505994,6.2127857,-2.5240252,-0.49080765,-1.9782398,-1.47439,3.6264887,1.1309549,2.6869342,3.0642393,-1.0109283,-1.8441616,1.1248913,-0.836769,-0.73828363,4.2385035,6.0449553,0.30310822,3.261515,-0.45213443,0.7365147,-2.2358105,2.3632038,-1.4814656,0.7689791,1.4787164,4.1083207,3.7381723,2.5614316,2.2164278,0.5780977,0.17031759,-0.5368248,2.0733428,2.0103767,1.319016,5.2873487,2.643409,-0.73651314,-0.6610139,0.9579095,3.7856927,-1.5427434,-1.7677014,-0.71755564,3.0487125,3.1976562,4.5776215,2.7666926,-1.263553,2.4626327,1.524892,-2.415913,3.9904788,4.6290274,-0.57509863,4.6348524,-1.4359145,2.272052,6.151181,-1.2173927,0.3413713,1.0440863,0.4121492,-0.4322232,3.5669994,-2.206507,-2.8521044,2.775479,1.8083813,4.8863354,3.4826396,-2.3610048,2.7332206,1.5138841,-3.1520605,2.644252,2.9295664,1.0618062,3.5030494,1.1287272,4.745227,0.07952277,-1.601193,2.559117,2.94065,-0.44200248,-0.68086845,-2.1146398,-2.1702242,-3.0954971,3.3186572,-0.72915155,-0.4900397,-0.8741821,-0.5299771,1.7787039,-0.22701538,2.0499923,-1.5724165,1.1179943,-1.7586527,0.22220111,0.83572817,-1.2833116,4.364883,-1.8497474,-3.9231064,-0.0708158,1.2533765,4.305838,1.9060558,-0.6331588,5.5650496,2.9284456,3.5089886,-1.7174263,2.7648273,2.9165943,-4.1189685,-2.1697125,-0.055823684,0.09808755,1.2477657,0.46789384,5.4222283,-2.4344978,-0.15570405,1.4554977,2.3052533,-2.1967614,5.0746484,1.9271511,3.4136362,-2.968901,2.867687,-0.37504774,-0.85994524,2.626815,3.2270308,-1.0924313,2.1145015,1.8553448,-0.6851213,-4.185287,-2.8987627,1.900085,2.6382563,2.3607097,0.87115884,-3.963164,-1.081704,-0.8784833,-0.8240342,-1.599482,3.5859487,-3.0419118,3.3912446,-3.2767758,2.4138627,-1.2588911,-2.1575232,1.1571624,1.4062759,-0.118482664,1.983403,-0.560415,1.2445378,1.4012662,0.32172582,3.1503086,-1.9516032,2.652892,1.283698,0.3802095,-0.2845148,-0.82899606,-1.5529382,-0.91623867,5.9712787,2.1992998,2.3848045,0.22008768,4.2309647,2.4920046,1.2256138,3.2265935,-1.27875,2.500454,4.4156227,5.762575,0.4335221,0.64907545,2.023659,3.4810662,-1.0850244,1.115692,1.5771981,5.0144854,0.91687775,-2.6840713,-3.1988273,-4.3217463,5.2866926,1.851608,1.8601694,1.65503,0.8312402,3.5455704,4.100849,1.6883774,-0.665402,2.2874842,0.08608031,-1.845931,-1.8501542,-1.0139384,0.70808756,-0.26330164,2.603899,-5.024072,-4.3080635,0.3916074,4.5414085,3.2537305,2.740129,-0.4218417,0.13929187,-1.1829834,0.7538175,0.7245636,1.7738298,2.538779,1.3471634,-2.3725708,3.020488,2.1299257,0.47879204,1.4797335,-0.11589621,1.1292161,1.6975255,0.89063126,3.0744085,-0.64967537,-0.2371802,-1.8957679,0.30503458,0.5397483,-1.3313085,-3.916363,-0.6051586,-1.8750573,3.0050693,1.26939,4.71961,0.9000455,-0.7006522,2.2233477,1.0618532,-0.72977585,-2.5239487,0.53345233,-1.1594684,0.77282345,0.64956105,-1.4005377,-0.6526419,-1.8583217,-2.0383775,-3.0474324,1.1196856,0.9329383,-4.1238313,1.7697158,-0.086474806,1.4434931,-0.7955637,1.7211301,-4.182967,-0.06651366,-1.7327938,0.1853798,2.1771958,-1.1444939,1.9512303,2.9127545