-2.5202405,-2.452045,-0.4748232,-2.41677,-1.37669,-0.29051256,0.39570522,-1.5458918,-3.0203233,-0.15637583,-3.0213118,-0.7640879,-1.6459724,-1.6306858,-3.4741504,-1.3151296,-2.8301203,-0.91828746,-1.5897825,-1.2825271,-2.121849,-3.434787,-0.6515492,-1.4820807,-0.47627518,-0.8427074,-2.8044982,-2.158058,-0.8211088,-3.8917518,-2.1979496,-0.8311812,-2.888618,-0.12500736,-0.7252934,-0.29918703,-0.6052583,-0.42191935,-0.2967323,1.4066114,-3.5863702,-2.999619,-0.9453819,-1.958736,-1.8646001,-1.4372196,0.18638785,-2.6424022,-3.2416236,-3.53996,-1.209599,1.0888603,-2.416175,0.25654954,-1.5082386,-2.9044342,-3.0992024,-1.4537413,-1.8564103,-1.3304594,-0.21946895,-0.3376571,-1.751755,-2.896052,0.28215393,-1.603923,-1.0846306,0.38471362,-1.5394282,-0.2773965,-0.16476715,-0.6151287,1.7406441,-2.2489645,-2.0154452,-3.1238823,-1.9987547,-1.2877221,-1.2204497,3.2586224,-0.57652646,-1.9931203,-0.7393087,-2.5416832,-2.109802,-2.9568758,-0.7399542,-1.420521,-2.621213,-0.86729467,-1.4763026,-3.9422925,-1.5526217,-1.0092452,-1.9088213,-2.576674,-3.1461115,-3.1567197,-2.5468578,-2.6501622,1.4897072,-1.1564713,-5.5173297,1.635511,1.7219256,-2.6331112,-3.7947009,-1.0948093,0.20966028,0.26007354,0.7896458,-3.2080362,3.5497606,4.4825115,0.5656807,-1.3744887,-1.38961,-1.1485287,-0.15381753,3.083539,-0.66288376,1.5766604,-1.0521393,-2.0226727,-2.8083873,-0.42031035,-2.2012305,3.1619496,-0.81860244,-2.2987428,-0.72436833,-0.35243487,-4.2047844,-2.7677484,-1.1273192,-1.1213365,-2.0074904,-0.22649479,-1.2464945,-1.3660347,0.37467778,-0.69424963,-2.3671522,-2.0822089,-2.339087,-2.821886,-3.2391253,-0.26930696,-5.0195065,-2.4876108,-3.1122246,-1.2168043,0.70360225,-1.2582282,-1.3332359,-0.59510267,-1.3560871,-1.6377952,-0.40209675,-1.6430252,-1.9018583,-0.45271227,0.57185125,0.4747545,1.6136112,-1.8395619,-2.1912503,-0.70061755,-0.71416223,-0.6966537,0.73099893,-2.2223525,-1.4244684,0.9022582,-0.24944124,0.008400917,-1.0508235,-2.1954317,-2.7836185,-1.2760301,0.04414097,-0.5717508,-0.15217912,-2.3454278,-0.3740519,-2.5988812,0.14332396,-0.4872685,-0.8514794,0.59505373,0.75773126,-1.0222743,-0.15066186,-1.4234365,-1.1744468,-1.6643927,0.3826397,-1.5500628,-2.441363,-2.0326538,1.1278269,1.0288754,-1.2073085,1.5095956,0.37701,-1.9679863,-2.9112082,-2.5567772,0.22947538,-1.2133312,-2.4963033,-3.288284,-0.14344561,-1.8357377,-1.7672169,-1.8376663,-1.1543115,0.7735226,-1.6263636,-1.8401425,-0.62392426,-0.6667126,-1.8749424,-1.6498206,-0.5005703,-1.968667,-0.1617451,-0.98282236,-1.0651155,-1.4183409,1.0397394,-2.008954,-0.663903,-0.1525017,-1.9173756,-1.9874265,1.058116,-0.52090645,-2.56164,-1.7499727,-0.9934768,-0.7919391,-1.4393173,-1.1761096,-0.07167792,-1.5578091,-0.0017937124,-3.4339757,-0.94400007,-0.057308674,-0.84900105,0.31363028,0.03954151,-1.7534095,-2.239906,1.3855746,-1.721952,-0.19459695,0.096521854,-1.3970195,0.41357118,0.13361293,0.6247295,-0.014859319,-0.5436643,0.26414138,0.23988283,-0.853029,-0.84016997,-3.1235237,1.0240512,1.4287356,0.031822115,0.67358065,0.6052671,0.2598794,-4.1484404,-2.7445002,0.007602617,0.32162905,1.0510592,0.70941794,0.5257636,-0.39723247,0.5244415,-0.3843227,0.2822057,-2.0593863,-1.8759687,-1.3468481,-0.3577545,-1.2755438,-0.1562978,-0.08399128,-1.7146964,-1.5128043,-2.4342265,0.8049439,-2.9643817,-1.7190366,-0.17742282,-1.1828122,0.1233325,1.2094393,0.909965,-1.1940385,0.1797114,-1.239122,1.2979908,-0.37619293,1.224136,2.9022012,-4.145924,-1.0400271,-1.4914,2.2374887,-1.116669,-2.638372,-2.7810273,-2.367702,-2.9809234,-2.8558173,-3.5348585,-2.8037472,-1.410327,-3.153636,-2.7069144,-1.6299186,0.4921685,-0.05956471,-2.6265635,-0.61280936,2.09378,-2.1055088,-0.7388485,-1.4887017,-2.1877155,-1.3143277,-0.2288934,-2.1541743,-5.1357822,-2.5858262,-0.057803616,-1.2255347,-2.5111275,-2.5856917,-2.133549,-2.5572772,-3.3158884,-2.5867379,-1.627816,-1.9282541,-3.7473073,-2.5257792,-1.8786497,-1.4518563,-1.1042686,1.657979,-0.9339801,0.5118886,-0.34416997,-0.22701377,0.5184567,0.7625824,-0.8673682,-1.5169675,-1.3446,-1.5287848,-2.6522934,-0.30530247,-2.0388603,-2.5117784,-1.721754,-3.4145098,-0.7128882,-1.4416177,-4.6390996,0.2593705,-3.5853944,-1.865814,-2.0839808,-2.3818846,-2.664766,-2.4369366,-1.609548,-1.9494071,-3.638771,-3.8112192,-5.0464554,-4.214588,-1.0560169,-1.063032,-0.34903872,-1.9423109,-3.6522682,-4.318275,-1.7954826,-0.99600774,-3.2523923,2.59492,0.31938112,-0.63872206,0.67917085,-0.08059328,-0.38650393,-3.0448442,-0.62196124,-0.9524447,-2.273258,-2.8871613,4.262021,0.57267404,3.1596508,1.6214994,2.3296304,1.9671801,0.27930927,0.63645995,-0.4180718,4.6248174,4.0857916,-0.93342793,-0.61420393,1.6190621,0.16563249,-0.69585073,-1.6313062,3.3780398,1.2337096,0.025431454,1.0924176,-0.5085548,-0.7742778,1.4283106,3.6495724,2.702466,0.84347856,0.57350457,1.009251,2.8518453,0.07127106,3.2362394,0.27008572,2.0233521,2.7534084,0.70006156,-1.1295295,4.6598535,2.0067809,-1.2638013,-3.2275536,-0.34914446,3.0262752,-0.36783546,0.29022574,0.14245176,2.4892874,1.2735078,2.2672772,3.3632877,1.9713413,-0.54191035,2.3256993,0.1328479,3.1991148,5.309167,1.84221,-3.4579897,-0.46404144,1.1718278,0.59635466,2.3858552,-1.9155022,-3.2283816,2.6794732,-1.1814752,-3.4992778,-3.226124,2.5196743,5.420027,1.4543511,2.2422147,1.8188457,-1.1761086,-1.6391134,-3.8440871,-0.883237,1.3842436,4.1204734,3.8168023,2.353762,5.1012936,-1.9577892,1.1843045,0.52215755,2.0128272,-0.9169482,-0.43112582,-0.15429056,2.122983,1.4025337,-1.7117764,-1.1130211,4.633131,2.1194541,3.5613072,1.7047539,3.1807098,6.5670395,2.655813,-0.8375489,-1.435018,-2.0611582,4.475114,2.6019337,-0.22584173,0.67078584,-2.6153405,-1.5592041,2.0776217,2.7539392,-1.4151782,1.3023877,1.345513,1.8725746,2.5345032,-2.703985,-0.14533919,1.7081077,0.37826747,1.9327505,3.5686228,2.4304376,-0.21307787,3.7244682,1.0565022,-1.971758,-3.3090398,-0.83690256,1.7355973,4.683246,-1.6401231,1.7107224,2.5835235,3.9555647,1.4639175,-1.2579607,2.5116384,-3.3521872,-2.958005,4.759203,3.2207038,3.2384195,-1.5415428,1.7689309,-2.8028574,0.65359926,1.0987065,-1.3027587,0.5450486,2.085392,0.7208931,-2.1572132,-1.8585218,3.4254375,-4.5189185,-0.75253344,0.27021646,2.9020796,-1.2829716,-1.8416482,1.8063078,0.1913319,0.9663812,-1.7193332,5.38888,-3.7497096,-1.2278035,0.96862143,1.5516579,-1.2635264,-1.3002287,0.22996527,1.6031342,2.5160644,4.435131,3.5950832,-1.5804698,2.2863057,1.6163006,3.3023684,2.8703346,5.2677917,1.5569339,2.6178741,-0.95780206,-2.8673763,2.2708366,-2.8170362,-3.6344204,4.5306983,4.738632,1.0392506,0.44268212,-2.9719303,0.68944466,-0.00068632513,2.2877283,-1.4301693,3.6878176,-1.393137,4.682249,4.537195,-2.6419802,-1.1277887,-1.0712557,1.4189277,2.7834048,2.587175,1.3303305,1.6008484,3.329864,-1.3393826,0.6723318,2.9020777,-0.28750026,-1.2367254,3.1029358,-1.7643726,-1.1711845,2.556267,1.2073944,3.306462,1.0380031,3.220256,-1.5512439,4.1549497,4.088971,0.88027745,1.7869024,1.5586965,0.06724316,1.9467276,-1.9026866,0.9989598,3.4715085,-1.4149795,5.8451514,3.3495133,0.5457275,-0.6217304,3.881456,1.1829263,-0.1274764,1.333167,0.067331,1.6891259,-0.85607684,-2.6928504,-0.026058555,1.6876705,-4.1772137,-2.7564957,0.2705822,-1.585191,1.5601206,-1.7205693,0.5401748,1.2419205,-0.7769934,-2.5688019,-0.07108927,0.2827065,-3.5334167,4.2628126,3.617594,-2.003202,1.4429052,4.3149366,2.6033993,2.010529,3.4935708,3.4891317,1.5484815,3.0438774,2.8029568,-1.0450108,4.044427,0.4358688,1.5225029,-2.1936095,-1.6751779,1.0674901,5.348187,-2.8207934,-4.436847,3.398469,2.955872,3.4784431,0.36531445,3.4049025,5.698509,-0.48735777,0.6807318,-0.6348413,0.9778947,-3.4983983,-2.3828006,1.0568805,1.2337178,0.45379233,1.4215348,3.7968287,2.7318397,1.0866909,3.620595,1.0538378,1.1356294,-2.2813215,-0.56394345,2.0680478,4.560158,1.8161819,3.6333141,-1.9029262,-1.2620242,-0.1483975,1.3108867,-0.2736895,3.888573,1.85782,1.3375462,2.3110847,-0.7039896,1.1891558,-3.5215466,1.6516773,-0.7860387,2.6088507,0.7077716,1.0484183,2.1737525,3.7475102,0.6123463,0.05858147,-0.7607188,0.039584756,2.114409,0.015740573,2.7472863,2.0395882,3.5265043,-0.2639081,-0.10480505,1.1015731,0.51148856,-0.6333685,-1.2285688,-0.9943745,1.253637,3.3596272,5.512205,3.558269,0.0070719495,1.0907764,3.321176,-0.6529888,3.7488701,4.366745,-0.29697946,3.3113694,2.7432504,3.017938,5.1736884,0.028416306,3.8714867,1.8577524,2.1586442,-0.90145344,3.8307285,-1.0576249,-2.285087,2.7883275,1.5965266,5.533633,2.8200264,-0.22570777,-1.6203132,3.4738026,2.4303603,1.2513924,1.1823043,0.45080036,1.7818139,2.9632094,5.0517893,-0.3081259,-2.1744998,3.5778923,2.259983,-2.1158285,2.3937426,-0.68431413,-3.1514454,-4.96851,1.4965622,1.465486,0.4655741,0.29827976,0.63963616,0.6497284,1.7923267,0.29501626,-0.9048012,-0.23574382,-2.742509,-0.53628635,-1.8040545,-1.9597934,5.17351,-0.88412815,-4.5572248,-1.091269,0.26871157,2.9670753,2.292746,0.5536494,4.628096,-0.3652889,4.184352,-1.9117254,2.2349408,-0.657186,-1.8603206,-3.0844743,0.26924276,0.52801,4.6543975,5.109624,3.5951834,-0.49737608,0.29452494,1.904785,3.5416071,-1.5616128,3.620646,1.7224317,0.11223626,-2.5803194,0.6504364,0.6111526,-0.56548554,3.1516998,2.9989614,-0.76174873,1.5409347,3.5449004,-2.4997404,-1.8419735,0.3358345,2.1965692,1.9497857,5.1396465,-0.24380997,-2.8981857,-1.5687422,0.6850858,-0.51014125,-2.5950093,4.756249,0.18104634,1.0762955,-1.7716153,3.1435459,0.9078736,-3.873663,1.5397136,2.242887,-0.58511347,4.492259,1.4387414,-0.29247707,-1.8498197,0.42639202,0.4834387,0.6494634,2.745542,1.2610241,1.1537869,-0.14157575,0.42977846,-0.0068693757,2.644734,5.4389644,0.5780093,-0.26356772,0.20769313,2.4295273,3.3554626,3.8035593,2.9263904,0.38167256,0.8287849,4.097635,4.136539,2.8947902,1.3235259,3.7875874,2.1114893,-1.6679877,1.1866819,-0.0064129233,3.5436788,-0.05622846,-0.7628241,-3.8546004,-4.853983,6.961935,3.7326136,4.4810305,1.2153348,-0.5719551,2.991969,6.68641,0.54153186,-2.059243,1.3425903,-0.26129794,-1.0348134,0.41373482,1.0449293,-0.5854746,-2.2933545,2.374576,-4.409336,-2.8495607,-1.5362822,3.479777,2.7051394,3.229691,-0.89017504,-0.95021224,-1.7558899,-0.7127117,-1.4033667,1.8334764,0.87094533,1.1170361,0.69066024,1.1308732,0.433806,-0.08707613,-0.39812806,0.8035904,1.2266536,2.1757298,-1.509963,0.9484829,1.0828332,-1.6019329,-1.8442883,2.1043613,1.754213,-2.2086108,-3.2134044,-0.77358687,-4.02232,2.2280145,1.903096,4.6127543,1.1171497,0.5568767,0.64349926,0.83338046,0.24282962,-3.3884797,0.06020689,-0.6640667,1.4603268,2.6006575,-1.3766768,-0.6365099,0.63261706,-2.0758958,-1.8492154,1.5326389,2.5379136,-3.6322687,3.5982046,0.64457023,-0.36697835,0.9459659,0.72377515,-1.0618387,-0.06854975,-0.22289473,0.18554688,1.6255795,-0.5025935,3.3605368,4.841073